0.008881499712251209
-0.02697318681845228
-0.00373347786968572
-0.005983101174202159
0.06223450403427804
-0.04519005781712872
0.05637861155735759
-0.013448798531371799
0.010180780518300035
-0.002561824499657049
0.040361798190156645
0.0030957698524540635
-0.02894011486438304
0.07131470723783545
-0.010327402583803194
0.019873488546628428
0.02152450531627913
-0.0020270750646485614
-0.010026525718063405
0.029488214834285136
0.011987354411627054
0.04109387716764835
-0.027140761266282187
0.01825843250293735
-0.04418047817331236
0.0598688581379187
-0.00046706408888907557
0.09458038287380412
-0.007770321269059938
0.002574464557252358
0.006581476989312834
0.03835986585262897
0.035144394845043135
0.016342493968745937
0.05422850130380849
-0.01196861068317351
-0.056513692248563854
-0.012698587816786903
-0.005081344264126972
0.014412732171052605
0.08941899364687954
-0.004173886961495659
-0.005059650934111117
0.014456012768043994
0.004396713956407297
0.03784255772517504
0.007379062039359785
0.021309115992356017
0.06919246850100526
0.03864060974933446
0.027736013780727126
0.007978663025795557
0.101467923398518
0.013500470850273555
0.07436306120247206
0.06259381630030736
0.09908407746431527
-0.022295003054567556
0.062422082426913515
0.04768021000600821
-0.021408826457414265
0.02494276655538504
0.00927011453622138
0.032431595973078035
