0.04135049605623805
-0.015865890212500584
0.04920410616464475
0.002329660007620303
0.0705361294695842
-0.020041191133391544
0.10340018758227439
0.0477425770530432
-0.028790991759259033
-0.010694258794771037
0.07129334442126338
0.04291469942223131
-0.009137206822840948
-0.019282604193390573
0.08062198250862013
0.019322338234339813
0.03057921948124641
-0.008667687686347195
0.027934005836224813
-0.0017262192844509272
0.03483837109004585
0.0025246766622090445
0.12096499100182646
0.0918313947970608
0.10195988601791837
0.07527803052216087
0.012467757920010302
0.0015565354888506598
0.05366893577563218
0.027850532696300157
0.010946472051569416
-0.03300244526920264
-0.029096888911254896
0.0177568913586305
0.00308670162154012
0.0497839643077034
0.009945198424162532
0.03329072328574587
0.034273808383190496
-0.030909175090764466
0.022559652887955126
0.005181890353355397
-0.0075352396033374755
0.01873143067007889
-0.0022199710611349745
0.015003922313806723
0.03797583987812139
0.00048112469046144424
0.0423389459037081
0.10281732104566199
-0.00046376990761899206
0.03983627790786685
0.014823837348051677
0.0696766154696386
0.03101544742929447
0.016495835832476772
0.01070162348445026
0.0484509894183624
0.027975416558682263
0.004262301888781626
-0.03744738679786836
0.05783664577633979
0.06759732459121928
0.04523605949258663
0.061938355516518696
0.013708751667839423
0.04907444160722285
0.013780539062373864
0.03595399731364204
-0.01631431791483756
-0.041789972494721335
0.014031105232186328
0.05562671601180471
-0.012767953682341834
0.04358702456500554
0.04888904458595482
0.013419235369753896
0.028694232740982418
0.035220707224724083
0.06492836877877604
0.0480669446850292
0.05156262396067286
-0.006099009811469372
0.07372665396919187
0.021602222903452335
0.07847285402495525
0.050210923810641954
0.027398902936049727
0.06097802989673056
0.03368763688184013
-0.006360974423884462
0.027536227024268674
0.030631849954019325
0.009028203672926841
0.02391950292325378
-0.03762988412972621
0.04584512242165141
0.06931684551559103
0.04952571212604249
0.008893563894137348
-0.002120140303190135
-0.018689062119743406
-0.05896752992606269
0.03171408757769984
0.09035368073100944
0.03718104500452579
0.019612110618505065
0.0045842315742780125
-0.036886417264226104
-0.013093816609404941
-0.03490430691804522
0.0012300440279958778
0.005310826252152921
0.0018427595744901092
0.017316054880190168
-0.005010385306800144
-0.008848022883300308
0.06728945146996479
-0.007644364319993912
0.008186140579266902
0.017331949486430482
-0.003518589421328256
0.02689584689585981
0.011668401468291548
-0.0040406144657353475
-0.03777040697715595
-0.007630617103064835
0.21350322255357757
