-0.10441305279689572,-0.04062148402716981,0.08342304131119689,0.03945620005997936,-0.04530712244873585,0.07790257955080673,-0.029218696379525618,0.010786736178247611,-0.06764550970502263,-0.13273773363635333,-0.028846248661798912,0.12338871263266106,-0.011477574235155712,0.006326298748385164,0.027567985550411903,0.07817804815863096,0.00982787275623363,0.0520862687788555,-0.014278811707819482,0.0904879715137364,0.07036301609148889,0.017797961395455836,-0.013662538612652415,-0.07736654645774618,0.05955911460034023,0.06049373183024197,0.06441104122119758,-0.017658212525242196,0.03954128478286305,0.015864135365773833,0.030681218785404016,0.017337165329125617,0.03572128605912192,0.018572762440974697,-0.0007560861200771641,-0.011327032241725018,-0.08759159406106122,0.009333493174946533,0.024029391566359477,-0.0001618368255253753,0.0011341968953125013,0.030960012938882626,-0.029632945756757092,0.050365781382150684,0.042489216841398725,0.05413831407875834,0.02979147696667933,-0.01725378981073637,-0.07536349870823267,0.03419369698983868,0.013247654772728776,0.0017172858820933728,0.09818978745275916,0.09141254079185841,-0.033692838188216445,-0.08501629399964558,0.00804976513431035,0.019415354845756985,0.011141531417419671,-0.04801460608515264,0.05459630004018634,0.0017011044543812114,-0.06440365553116809,-0.018558787172317327,0.03927184214735233,0.009362142972556277,0.03111572490840579,0.04930607370529497,0.12211135712153587,0.0372223197389841,0.054303177614920754,0.051825355224566244,-0.03833699941942148,-0.08808148022906774,0.00891822639033071,-0.031000436215761252,0.027372372451052174,-0.02309584714880922,-0.06962830753704558,0.03875980958825027,0.013819000649838974,0.010165849164355341,-0.019099869099581716,-0.061327620141740036,-0.1581700957622303,0.0013466451135130488,-0.04013160215711012,-0.040113022122484986,-0.11701498422565854,-0.11531584256683161,0.09080078305388409,-0.02007930148057023,-0.04476497342437397,0.02939706664699358,-0.003774062913462373,0.0011778360016142875,0.05809003052048207,-0.011111130467120168,0.10551379118399452,-0.020247873951592565,0.06332381605202492,-0.040811149354105784,-0.04000728768083975,-0.08565455188860709,-0.047713873173069875,0.07117519026078599,0.008884206396436799,-0.00859075389247287,-0.04920328883124379,0.05358203640420999,-0.03215602800521239,0.0008366950995592538,-0.034097841418326405,0.05639022763444181,0.06200183897822734,-0.003729779442147734,-0.06419269249010175,-0.07524026379340765,0.014570500010855721,0.022833548228282947,-0.005535175347249772,0.10472842740470599,0.009824065398485578,-0.034787560357766055,-0.04613337755006761,0.06271035541871209,-0.032226176174766724,0.017244100034226,-0.036837829763600886,-0.036359280112877077,0.0038124448207488768,-0.023810915195492242,-0.06282671363468971,0.08750145405923174,-0.04808643993208481,0.09234331633897226,0.0009735196098073528,-0.037726342314288966,0.0037646038317895245,-0.014465985767942982,0.04495587543957597,0.0775837266256612,-0.01292886524104108,-0.0060512279441066975,0.09974576237167729,-0.003573676526297016,0.10617097910147308,0.049149928076928494,0.02073471008556228,-0.045536277112478776,-0.07274725413891628,-0.02621482163188711,0.02993756286694144,-0.022343084742000547,-0.0756747476222619,0.07118385926670986,0.0830927191871958,0.010955418587207118,0.018582221183737275,0.04877659116596701,0.010029187575280239,0.01578736150464269,0.03408537722758547,-0.024168487645874794,0.006224568952749823,-0.08813524547530334,-0.04922495849072151,0.00567359143082281,0.054653800092062006,0.07510907080058893,0.007161823617402583,-0.011366403692703453,0.058286369487543045,-0.0264880032895975,0.020642741186755117,0.05568632711863777,0.04005316288070809,-0.010475669999575714,-0.01005711389896177,-0.010822907656516513,-0.012276988147869827,-0.008070873611328218,-0.0454433443983484,0.04104486659076869,-0.01613636606842276,-0.017475440801766575,-0.022325154190181277,-0.03435181567369816,0.044544842887681894,-0.0013241177532815958,-0.06562630495482061,-0.027375447710681046,-0.03888097679508878,-0.07147421903749963,0.0650230498081327,0.011015934787332026,0.09134369065698596,-0.05837304341075725,0.06372514713593386,-0.0031858439164396068,0.08142882086703587,-0.059271388094332356,-0.011487564355856225,0.03215530779971227,-0.0012679924576527494,-0.0985967807066954,0.03456832005628785,-0.023286001926614498,0.014080187639358333,0.09044980795398679,-0.029292658777871676,-0.008677106622330228,-0.02247548932265832,0.028013338599741297,-0.02051768609226149,0.022589407953880546,-0.005926708248380426,-0.010762022880251207,0.043594258022872964,-0.02594864617113917,0.03416703131526583,0.08824572554576114,-0.0055272354738071265,-0.05353344719576218,0.07538247673789222,0.028909009185149565,-0.013366453950494342,0.1367944761916728,0.051687951427354335,0.04435725988499067,0.022804469644435603,-0.08627388201723006,0.0738001522937803,-0.016885409095770916,-0.057167138992595616,-0.011446348605046862,-0.043271758227370956,0.010606573257924643,0.05206935079150782,-0.06338724941615352,0.10139346674043939,0.04611783511803211,0.055422338352817214,0.11447487318104398,0.03623907816239021,0.0016191782397691349,-0.003175134317080228,0.06066121018784979,0.07186592837834105,0.07800030571233577,0.043867238435185286,-0.13821952476360252,-0.03759759433819871,-0.03185096674133173,-0.02638249077249486,0.07283604422144696,-0.05407114777803767,-0.0287070379947215,0.020237415071747533,-0.018267374798619118,0.015433064052952044,-0.10161230279225228,0.0983932112873953,-0.036034152660559225,0.06706607833927491,-0.031164398962593376,0.04882899316085264,0.09196167759708591,-0.11288656362707118,0.04611950414907403,0.027930985158640467,0.0527566844370563,0.046356866374124825,0.1012106308487025,0.09603771947709618,-0.016543557579965028,0.0644318273666711,0.09303873342643901,-0.04712572431632204,-0.00747488733108698,-0.0512250548604348,-0.014096582944738903,0.06221382341556354,0.034902113302690656,0.028621184655937243,-0.0289249472389469,0.01852023622118996,-0.0413567375730581,-0.03967746783250148,-0.037091259584872235,-0.08164891974200232,-0.01352407203574386,-0.03818053982253983,-0.016737165738809644,-0.0968555301603462,0.04522571895434791,0.034786018590807925,-0.05224779079355874,-0.031639651486734,0.05447576282560791,0.010794532417732785,0.017139934752946204,-0.0021629878636782005,0.0038382075653451255,0.023909715560898877,0.07496730944676261,0.02411437797531629,0.0135815430694017,0.04459869460075398,0.17618219781742217,0.10996047845228533,-0.06276059164395358,0.01931444558924217,-0.026762289021379927,-0.02446416472083541,-0.07434753451395847,-0.027379856532958987,-0.0193648869563859,-0.0835403561270198,-0.06263102822169826,-0.048414330709569256,-0.012984613927255622,-0.07199626062109538,0.018297838166390645,0.020506143545302693,-0.049442392446235724,0.01660363997759094,-0.016095771150568566,0.02540639020109359,-0.0482881008747154,-0.04210472477609812,-0.08395885266499852,0.07092288555736873,-0.011734912790290208,-0.023477512362327688,0.032695484193399404,-0.0072663590946334695,-0.035981954619025355,0.06545154031801337,-0.02716679892411755,-0.006560223543367619,-0.13429942990038793,-0.008798764820912573,-0.07388799847818539,0.08160400152519744,-0.06599857474777902,0.05220494998218349,0.007443416970801724,-0.023737309882456835,0.010032615417132608,0.12297769537653525,-0.00011743693633567041,-0.029492695749487517,0.005004127504080185,0.0013107252672764534,-0.06943253896570434,-0.061604863097504646,-0.05814246672626036,-0.05709089355952741,-0.010030648257727834,-0.05564762538314035,0.0060306937351966424,-0.08841557762059168,0.009234512745349546,0.07902254568557897,0.036233799856568556,-0.03573254649829884,0.057091431979188624,-0.00556019305307461,-0.14280922982475464,0.02141252438876905,0.036141888861759834,-0.017073436855357147,0.05000587483636488,0.05539273996120033,-0.01759450335725383,-0.1191631693654448,-0.0024166298995299124,-0.0011180455335487926,0.03460210968488315,-0.026663437772652687,0.027133388544221898,0.0077118135003136235,0.013008910280585581,0.024240142590074065,-0.06908272398700298,-0.05594905139080392,-0.12256037361287278,0.047057739462977616,0.015097485587701201,-0.027786973158304532,0.03192306482662052,-0.013344327363314683,-0.06542742299844428,-0.05307325065885605,0.10300806014926375,-0.07624301123796072,0.0538249213577892,0.00388864166153366,0.0479607268163228,0.0863450593538835,-0.017445564656314663,-0.0326727640332252,-0.03221734434426002,-0.07121901981615326,-0.01725421441590235,-0.02054123043466896,0.09175671817814746,0.02809851147409251,-0.035326728960535916,-0.0031263685434066812,-0.013391574376360666,-0.10700316056366696,-0.024923052278374193,-0.009928869280920738,0.05492788559755418,0.005035125367729079,0.011414102837506617,-0.024582620836418483,0.06835052548813597,-0.06795573631148714,0.01148263795192342,-0.002865476707178447,0.042565177731283654,0.016740437412013382,-0.028811977058357568,0.10518646176002272,0.10535950777832506,-0.05141808866227093,-0.0023550169448899646,0.055585744154347846,0.04731067194545968,0.03987377202398936,0.01613035007165405,0.05587306915928154,0.021368520730531772,0.11106408136990753,0.03104946726339782,0.018294420287096845,-0.036646658923892225,0.004416711011820749,0.012405839192998844,0.024094528098751226,0.10601966942718098,0.024675242096350813,0.01816329843353965,3.317322250473064e-05,-0.023815797806904244,0.05391797608986389,0.01776548966410388,-0.02334432737890133,0.04057125478820916,0.012038507132896064,0.1444677175350814,-0.10878226553167888,0.03178785664084235,0.035559273612624155,0.0032448012173246343,0.023794336674464803,0.07861443596807176,-0.018347568362681168,-0.003072626485464592,-0.057283884323014726,0.023930126891468305,0.07724692964321345,0.0022512110481438976,0.026589445282849296,0.03630010157453921,-0.008439066514216461,0.0016120481944647597,0.02748682064898682,-0.03601135741333149,-0.10093920221027639,0.024970231438106377,-0.024909209273831157,0.008678961203540317,0.017820070541337867,0.02794182420516878,-0.019489884292110956,-0.09477136952688457,0.019423823911070816,-0.02626233795989868,-0.02204858583520253,0.02049621995923897,0.023622463785716242,0.09846835680589433,0.04356776645871887,0.03619261100300128,-0.0385397689478555,0.08239597476395034,-0.07837229406739026,0.008109674587784515,0.0663546399280199,0.047551083866726664,0.001864022223326772,-0.09543598285359488,0.1419208562815597,0.05624075669043684,0.08994900190698554,0.013912041214146397,0.05360618871125321,-0.05064598951353171,-0.05109917768444348,-0.02735253946997703,0.055619926416024854,-0.02260341482350308,0.02653907413799782,0.012599469994440593,0.01243427010795142,0.03493625085327976,0.01416555001973175,-0.04809384615576447,0.017320706087966424,0.04349392072038091,-0.017093950512395498,-0.06497884992384474,-0.05165760055064975,0.007324783446782232,0.06053152585741936,-0.04045821036251982,0.07831117874611819,0.07604470211622306,0.010394103797351594,0.13370611684358175,0.0973100361169832,0.02575203209533008,0.03550642683197465,0.03685070147935014,0.013680890953089418,-0.01255049312148721,0.02974754644767129,-0.03780844010210853,-0.021397536314788586,-0.0009688205763077009,0.03613877484438956,-0.040410703550280785,-0.014012826380030813,0.005213522415915378,0.0186326788930005,-0.11555372830893818,-0.018245814831992193,0.05720580368575632,0.071099196237435,0.0032158600342088103,-0.041594473986063425,-0.037494657509142576,-0.00549881326801675,0.02364295996218977,0.01568086871432149,0.09544470861943717,-0.15373664540266044,-0.016808768612154284,0.03031314935064693,0.007901797767934345,0.06331917980097562,0.044578652168604106,-0.008342340674132928,0.012509417743389943,-0.06252856389888635,0.004386079669841033,0.06163528466021948,-0.022654477173067455,0.08316216479618208,0.04823658223866775,0.04055686279934406,-0.03342559413249705,-0.005127781495262762,-0.003043448233647433,-0.044749385294056254,0.004028816644820186,-0.06690950284411143,-0.06588713702966645,-0.04558719341479153,-0.09602111229791284,-0.011924176078275527,-0.011335608804530587,0.03833430931127046,-0.008946144763049002,-0.0026503611302125768,-0.06061971122101592,0.02517312271394915,0.025500759043378805,0.08293140614328749,0.08578338200603847,-0.00577448605373649,0.08688140272642117,0.005431534329124606,0.021259939076511452,0.006409186339539544,-0.04395542978452618,0.02897899321036398,0.007145780369719597,0.014941217908321716,0.02537602194702629,0.009203637394439744,-0.0021082998751592156,0.08399512541974004,-0.1244185037672344,-0.018454825449259474,-0.029796499811052205,-0.00010578320321978733,0.008437750733784142,-0.07017382720514856,0.04346970122001034,-0.007361951210845947,-0.0420280295849887,-0.05420024139925811,-0.017890598610516822,0.07995767082489669,0.024501842623333336,0.0003503268881606044,0.024965422450837618,0.02746351183100097,0.08464752032553453,-0.023082181614125313,0.02274681180278459,-0.037826335261678126,0.06313553523655731,-0.05740011447137619,0.012515276259171879,0.08082834726400549,-0.014497273510949638,0.06028209226162075,-0.05725478234937968,-0.05297967389271625,-0.03747552343199009,-0.04875439728609299,-0.04960811943118991,-0.07691842142170248,-0.13146607460241233,0.010496393997040674,0.03846460084589185,0.09829720612843357,-0.0625525045060376,-0.04643181974866352,0.002625172614680698,-0.053254230308539624,0.011255687626001296,0.08874234514207224,-0.06376959280488223,-0.01890871623685776,0.06110823743209719,-0.011759435449554526,0.0711414758878312,0.055719219462976206,-0.07139942513089652,0.001717009135915558,-0.030069160040321657,0.03192585193746145,0.055146365457493476,-0.006847545483938103,0.019937267362523478,0.002099067161730983,-0.046125200260638696,-0.0030585763610404522,-0.06636847413754024,-0.01889890514849127,0.0008149240008564336,0.039262140314402706,-0.03824986196095864,-0.04786055938132822,-0.04735179681289581,0.03029831499391414,-0.06216121328983211,0.12282208787907892,-0.16402709927216894,-0.06532917114765352,0.0148354931483619,0.04460778668436586,0.028569800055935866,0.11759236349221179,-0.053743381313125484,-0.013001880696529045,-0.03368806829709045,0.07161294330939305,-0.007325664124085433,0.013671435285831129,0.02141871400763325,0.015423472163768602,-0.10199703920888667,-0.027233086612349654,0.017846984605361983,0.01461592857585402,-0.013932291525809253,-0.046042032553406234,0.018455431526887542,-0.015010810673254512,0.041396480998536093,0.06139942748130784,0.04492997684275464,-0.1038079841410463,-0.02962171123893604,-0.019111975015193603,0.01958533067071084,0.01512060082776644,0.04821326965907253,0.004970929084529195,-0.07965457482532612,0.009144540081679071,0.03233017932163013,-0.03993298287031081,0.04563892937125557,-0.03924773545855137,0.11154005456187009,0.04987727125635972,0.006543602021897196,-0.06944732636980662,-0.01434157557155553,0.051264709780421525,-0.03436694561586058,-0.053140498699214486,-0.04662859898468597,0.0046285311819302755,0.025464049929505614,0.017672293333763082,-0.017315868718220388,-0.02392514349490934,0.05349864783086195,0.03831053618112277,-0.04249615091848507,-0.08191745386151655,-0.024761862192421928,0.04182700178179795,0.04245346730190254,0.09113493959115114,0.08833076719040253,-0.07847799537700667,-0.02855562210621123,-0.01702620158806855,-0.08098009410566805,0.055180111925873424,0.08417332798196886,0.0067310926883253795,0.02275098931306317,0.022405369358793177,-0.04535204128255963,-0.034563983278402495,0.006514925498925472,0.0679637244395782,-0.04350946917400464,-0.0012130018586751716,0.007957012517948597,0.023429434176044532,0.0005545669504145058,-0.009335716996712987,0.025612995255846087,0.03576044442369687,-0.02756756093933237,0.029666144815735675,-0.06022451313618549,0.03366979917692826,0.008695853257367502,0.09226116981816915,-0.029015087273068278,-0.060970093579141335,-0.01882716065961029,-0.07989203797764018,0.058739777367859236,-0.05266030876690167,-0.03490924522921949,0.010397017745554462,0.023733007421947793,0.052056333140142824,0.020713004759941814,-0.02194131519836506,0.035908749512542096,0.037892155524844394,0.011349237506016132,0.0025279192033012157,0.02093597420070145,-0.012948767740346182,-0.05870360273843849,0.08642708571566562,0.034264057040920136,-0.0592828545824863,-0.043881227973944975,0.12580370338130115,0.046519887994635134,-0.0030014129851755906,-0.17366464370768986,-0.1311274604600036,-0.10267789550325818,0.04391248806782428,-0.0034193050574405194
-0.04310794060183422,-0.019920419946695418,0.02765617327011165,0.0635730047742962,0.10419571821291507,0.0425019119738766,0.036941844961913155,-0.05960452266006053,0.06879052312663116,0.029212099780823758,-0.005336714405820519,-0.028637965851289495,-0.02089916411105232,-0.05839314095815312,0.058130205615583276,-0.04742196322194411,-0.061474495921403784,0.02907627103985736,0.03087330904368155,-0.07395002363529139,0.08951563081327359,-0.000911360320872483,-0.0012495284782663946,0.06208863653061731,0.06233101851789907,-0.02046437704860706,-0.03256476601412798,-0.09574870088248186,0.0022326442710764996,0.012315465304903324,0.020469883237713673,-0.004750676690794706,-0.0536595670780495,-0.003299878287570403,-0.11299948353937239,0.06961023695363007,-0.09790422541257829,0.034001600659299636,-0.060574987835768646,-0.015433295279580095,0.0028006923323539525,-0.01127169207413905,-0.008972072827979703,-0.039566493483414664,-0.007341322091665005,-0.0154159710204924,-0.04314096440931241,-0.08177471379759402,0.054757590213048955,0.010629546336404968,-0.027832635834337156,-0.060260205225019625,0.05345909383049727,0.042106764267500624,0.049061674341408366,0.008621107919496213,0.0842759850936646,0.00931858816551366,-0.034576241285461856,0.0348682806102538,-0.0006283791042222616,-0.08373576446990644,-0.05105654881258774,-0.03233315461443433,0.03695740062810801,-0.022515722021587407,-0.006400529792778849,-0.00437624930994293,0.06571701554657257,0.004738844367647611,-0.03674164562753038,0.09819684616844246,0.04647218909325153,0.043084220782809636,0.014760884944477925,0.04267353188517203,-0.07702675098823644,0.08149878812998249,-0.054200758501181244,-0.10322161246145346,0.01851287957915985,0.0047387903805676465,0.0019142490669215432,-0.010948835745349954,0.02425484412412834,-0.029667591860901534,-0.08571011616936086,-0.07275511271061716,-0.006232996645983297,-0.03998213368429503,0.038984582464703335,0.05690080192794002,0.001333294515105862,0.077067262363366,-0.08008916115755839,0.014271601779411511,0.07559697403815711,-0.0020522090185814447,-0.013495189291997311,0.07035111393289809,-0.06127374370702904,0.0557936591597357,0.0061534916404839945,0.004275242270207156,0.011105385263405406,0.05446686540287511,0.050642387464403506,-0.07076170648744187,6.237722821636467e-05,-0.029685077510222337,-0.011356127843681164,-0.057841245175708114,-0.022814392933591134,-0.08750989683603208,0.03795855976912576,-0.018252878554647307,-0.05910909505475803,0.04603683120661806,0.014893892462547213,0.055042081250400963,-0.06163581378505841,-0.007839393672901296,-0.07434780416075341,0.04641637476306274,-0.03204062075944578,-0.01825218599878559,0.06586732136603136,-0.036191000274282445,-0.03281478872610941,-0.048516181384673666,0.031381029934481046,0.029033091875351125,0.06279661250360685,-0.01270674050185794,0.04539838036976379,0.07382213286331703,-0.024666630424654733,-0.04574249903002251,-0.0898264642235786,0.01502604332381308,0.04485493074689007,0.026599332184688896,0.023582628343644756,-0.00043817759170577307,0.004750966774386528,-0.002244936806203252,-0.08673074615763984,0.03328584288354553,0.06724407767427946,0.044857330554489844,0.006010630031027522,-0.006853286630558649,-0.024747677633983434,-0.02858382133657553,-0.10054386850926057,-0.09860907104172849,-0.022305239792727038,0.03696715767718391,-0.00031904662527645585,0.027165763078061247,-0.035803920478531155,0.048964917181736116,0.06663287788263354,-0.014429647101710168,0.042891255500207,0.033735149539572504,-0.07033730515712419,0.026579254408289774,-0.011213093397179866,-0.035749942958703054,0.054304257454770216,-0.0062239831383121775,0.03708202911265339,0.0392457480999076,0.048322109405638115,0.05269611366521199,0.10598168328432579,0.08095906064447175,0.039800927765099865,0.012278181549486346,-0.03277968466899367,-0.0631645038823737,-0.07922860102273213,-0.11143512438958711,-0.017112483595511114,0.06039953060620159,0.12892632198226153,0.10444962209508933,0.03925511841387915,-0.04649677972279279,-0.012316160578424195,-0.035717285387299964,0.044898422823632406,-0.054176143537227224,0.07100014136885831,0.05367592047073079,0.09582519488453402,-0.00021565872530107677,-0.027448558281117114,-0.017611800026625348,0.10563599119619388,0.008354952378362722,-0.0038636211232336514,0.04435959572711737,-0.04204849074979627,0.12334323102690038,0.029661255638460785,0.004001050246634421,-0.02513667065991948,-0.0981851817869283,-0.05935092466983111,-0.03673797223454975,0.11934663966339953,0.17135939585592658,0.13213848013712148,0.12350728518680812,0.005134887803136748,-0.010290874265958738,0.01635545779966968,-0.046024763688488846,-0.012616586857897554,-0.011610219389066374,0.006645882301448995,0.0860212524349668,0.08767077321849884,-0.03651694517295358,-0.05191273326807949,0.00029932830104895385,-0.028881202014125747,0.01135110385229115,0.05225177885289933,0.07346026211685877,0.11558326951365361,0.04578501624481904,0.04191387418178671,-0.04464488880816966,-0.043669981556795724,-0.14094106275800897,-0.06645826766741075,-0.07536459343252151,0.0746363125358458,0.15789344418295204,0.09948093626313159,0.06800305900059317,0.03481375687953982,-0.01398879431490095,-0.033788780096498036,-0.13411082942360356,-0.11866846738425228,-0.02324566501546149,0.0019028116712693545,-0.04055455079643489,-0.025750298354690518,0.0439921865143565,0.034045800024873105,0.007753367193360649,-0.07577557822247204,-0.03307863850172341,-0.1423730384111712,-0.08778596904457174,0.13689642307522895,0.005206744213578534,0.007432420381978027,0.08507389296706513,-0.07868130373899603,-0.12761565304100464,-0.29903408598528125,-0.047893969555156825,0.22471557403450718,0.1418619333792564,0.06067041213319185,0.06374653532715534,-0.0897396195179999,-0.050742705334030275,0.012876652829024582,0.0053865897071440055,0.02030439284064827,-0.04378223441748617,-0.0006489172439861545,0.10523664680792726,-0.03230209893373799,0.012115390864749036,0.059966297808788274,0.14676166888579112,0.04356555833523287,-0.059232480167597794,-0.0727275066318575,-0.046607289193429165,-0.01612933365547383,-0.005732747886911982,-0.029278051205181378,-0.18136475477046413,-0.18134840850433884,-0.17770438878846084,-0.23764270856239203,-0.00020719381115959088,0.1055696784524475,0.13552039237637242,0.07399136995063718,-0.0035133778741540038,-0.014016024658351443,0.008707497770189865,0.008956766997721822,0.015801313392339537,0.02221622262676301,-0.01806101993566392,0.03360349651785539,0.05622310691596638,0.0038912056173676032,0.040618124282456064,0.02683992168122405,0.016596460039768272,0.05298732211208608,0.0731520205289207,-0.010589663875269143,0.05241539630519766,-0.025154161413733608,-0.003693321822720014,-0.1995318278552786,-0.1692631920864725,-0.26318012544787633,-0.17726169140017126,-0.07173283662694048,-0.012943118266698462,0.12543917337860813,0.10543157663259406,-0.005081758798602008,0.03535713951084815,0.11392296016433134,-0.09147099767257008,-0.07740282244096183,0.06983582473350224,0.0054225621111658445,-0.0013901018865135862,-0.005615255121153124,-0.0341844033286597,0.007797085961416298,0.024343807436127823,0.06518035337260682,0.06993482061944514,0.03735878880763551,-0.03741546047786801,-0.10000549573316472,-0.01629010127839002,-0.08418249260466042,-0.1236910967581678,-0.12863029757530475,-0.17693197986852,-0.10307506615655757,-0.02688654986502722,-0.10890474806247191,0.05271229786439492,0.06314523884956971,0.08706401822935461,-0.05325005791277809,0.027527445751947977,0.06150989520617702,-0.03409800342298321,0.00905633336677764,-0.07044824871980046,0.03006821881341152,-0.02415561362870689,-0.023497856133100313,-0.010848362127592963,-0.016583955579418105,0.05393023277983148,0.043271153695118206,-0.013360827219951634,-0.08141592732068717,-0.09049769339147898,-0.09684277835752537,-0.11806712911637621,-0.17673057369757444,-0.1630284980113777,-0.039278544768736164,-0.05838338367670835,-0.18407408226940067,0.07446370446252645,-0.01985839792219595,0.03576181465051791,0.029453243731606522,0.0822242824135458,0.007757326318380282,-0.1149665255883149,-0.006454129387133467,-0.007533353859867765,-0.031746211768511924,-0.07015317610356414,0.009005234132646039,0.015558443735767159,0.016452871103858634,-0.021073827894460093,0.08187587216828643,0.03793016926648329,0.02771591186237908,0.03442672017740838,0.03365276965638113,0.016162028745174153,0.0271065768893998,-0.07838496794447589,-0.09331417392674242,-0.03761484280931487,0.016503565317258866,-0.0130287283825304,0.027494053139555143,0.006933621664594627,-0.01600834653608952,0.016226772134279234,-0.010068486941583204,0.04832696461257007,-0.05569999078188083,-0.09567047441087433,0.1145927030875686,-0.008826067508495955,-0.01686677927425211,-0.0019226904834764708,-0.07187364736463892,-0.029209031347628003,-0.04980130372679913,0.01557962646390757,0.09118551914231868,-0.021499419570992773,0.016730481813980215,-0.028052098548964056,-0.037345040581590015,-0.058292900358321305,-0.046565622293502425,-0.049784290386930025,-0.020156053077104115,0.06555599376351709,0.018847162171140058,0.05391109909336347,0.12942040911668998,-0.009299879814761795,-0.06135835809285715,0.05850630993686322,0.017115112599619977,0.06463314019937431,0.07514045980062728,0.0361381245728156,-0.013602558391709754,0.0037465222708787703,-0.01978881155151136,0.013105805579429808,0.011850208245501863,-0.02737854477331962,-0.04761407900289732,-0.036819277110399576,-0.08892183733303834,0.014244121405710327,-0.05464023657640699,0.055348964966489916,-0.06469660626224483,-0.036423698147620504,-0.0005510491796103251,0.08164366404196781,0.05777537863950685,0.027460182555129022,0.03295586355975394,-0.011316919647167066,0.10499749786633514,0.013598556981306993,0.055990075512945145,-0.031267094183418796,-0.07798068930475427,-0.059510689972624375,0.12476460415349117,0.029799904298253767,-0.022569349813850146,0.018707467148426752,0.04483804146704819,0.01886357346230837,-0.006657071136430527,0.05726715385336292,-0.04370490948071146,0.008592177227170983,0.07538878720264425,-0.07468850083141165,-0.05631729193830705,0.000461323745892806,-0.040827229304180326,0.03357827758631689,0.0005775631695155196,-0.03198136753112247,-0.016455325466751467,0.015596314196506358,-0.006805438121878777,0.06950851244746738,0.040881583211612456,0.06832766989916192,0.004531544104242133,0.001921289813707947,0.11698126654519678,0.021090130541825222,-0.020965370463928282,0.023488269405004973,0.013981442209895334,0.06641813062641609,-0.06020340779718013,0.00015044678321403358,0.046126648178975625,0.05228978333887812,0.052980179882234385,0.004974553947550484,-0.09253464451366412,-0.023132168125304373,-0.02770767021800553,-0.047711626441259244,-0.02365657965565318,0.010249620782821616,0.025261117929922198,0.07039908288609614,0.024996808214799566,-0.02593226463027011,-0.003191831203881846,-0.01949949536607948,0.03219487559038735,0.06751912898029361,-0.02509941183176564,0.0907568567263515,0.041907890690567995,-0.07645768037760618,0.02398132071646984,0.015734586578535433,-0.0737670388109851,0.12293656865573156,0.008828967401466528,0.0028855505524492606,-0.02760261216938515,-0.10144466509906258,-0.07445738427748042,-0.05199033274629734,-0.05621289179982015,-0.03177331891102115,0.05149486566250488,0.02529554520888461,0.008391397165375064,-0.05139419961578806,-0.0011978689331044211,-0.08732262001103662,0.035688914343711735,-0.07025636104422842,-0.0016382755319781295,-0.06532360708036708,-0.05433680720794754,0.09999834978377228,-0.07158548132520103,0.037245949327511955,-0.026094396613153555,0.020700351248907647,-0.055131472848470184,-0.03817041101318664,-0.02601943308495625,-0.09919458765029386,0.013190664636611489,-0.04088435219129915,-0.021227070837014625,0.021596064999750194,0.010383549168550782,0.02175205069391027,-0.005144959857258878,0.0351103270424177,0.00028095697536945796,0.013174974943096782,-0.016181408736853874,0.11506848031254736,-0.053894014713727637,0.01711034139002093,0.03321272783971681,0.04083945754154398,0.014375802014444473,0.05331461164471547,-0.0056705540712393004,0.15645124014924178,-0.003025201779012086,0.002181128989570554,0.029780238956054642,0.04262108436515677,0.037954261690021994,0.01934429561375324,-0.06302070404669892,0.054117995528155015,0.026420137932470063,-0.007875199988503646,-0.03091551877987165,0.03319369093209802,-0.02356132692704485,0.036040296121616806,-0.042974360910850856,0.002122773814937329,-0.006565971041003526,0.04219503915432724,0.0013944419655468859,0.06764377170491814,0.04379124560213466,-0.049598282608765046,0.060251900934641625,0.12099171607021908,0.0008657660482442494,0.03908869795127551,-0.09590499111495387,0.014206366823324898,-0.05228778013177297,0.015523530076236424,-0.0856940181046744,0.033197716221888475,-0.001255185423947257,-0.027328359787599923,-0.015280895454271458,-0.0387131348766058,-0.014997649071604202,0.00038962074841590377,-0.052662096773434454,-0.025935038064976254,0.0020686119109156057,0.004356159731895541,0.05467122376633838,0.035776871963137294,0.03664207643771959,-0.0355738309839435,0.0817133045987477,-0.036857938342420064,0.04819639649809295,-0.006443390548182588,0.03980963924498453,0.0025442672784058472,0.001973019246076795,0.039836428899817165,0.0420142668342079,-0.0028724442760297265,0.02384348561385136,-0.02396343402156947,-0.052803795336211566,-0.02413795107549739,0.01229140134279759,-0.0010678067663968073,-0.031542138964967464,0.04970872698619847,-0.08717580202711324,-0.04518382281513048,-0.0012658245980334375,0.031033489024465077,0.02395930711594113,0.0874204945623066,-0.005214249136865677,0.03428079148209901,0.06514224216283092,0.012604140142236037,0.031526782586789516,-0.03864373567152597,0.05534383049197938,0.08119418909827929,0.033937189593089466,0.0862084398932902,0.013773392931806515,0.00563855326374064,-0.050228180239480544,0.0050859098985522365,-0.06360670997980034,0.03252585051538795,-0.058768278649974984,-0.05463907817248402,0.05662661775771831,-0.0637944061973944,-0.12955063098492814,-0.0065343248560748276,-0.07002806390896564,0.004469503189850472,0.046411935712758444,-0.002583538510837694,0.09902543007641486,-0.03125397048033022,0.014762448805973636,-0.018326720803823034,0.02120094175973976,-0.03533872771115446,0.016839372979206898,0.08704086129940027,0.08135955742345258,-0.012376823929421677,-0.10808870183610306,0.0013931598582079033,-0.10729264460884787,0.03488264748314487,0.04288027709165907,0.04332732336914511,-0.001145154144911423,0.05954702043871933,0.05255391031687516,-0.07605624622873886,0.10838206015785892,-0.15057077303519215,0.0004974581635509148,0.005263394799535003,0.08311964654933146,-0.04213728317492321,0.030684901551944914,0.046249092912841086,-0.08512085312794751,0.0007708943391269492,-0.02606786897709029,-0.0192071679725,0.0463246660382324,-0.009506884731185763,0.06144822589422963,-0.06287809258702515,0.041567637651344976,-0.010132469204967862,0.07181648998899533,0.024329897151940786,-0.02449996058544506,-0.03250966755527078,-0.040774996999365085,-0.019771458519230917,-0.02405848438985753,-0.05323214469097713,-0.03488738118142348,-0.012659675552523153,0.03491528660818619,-0.05205879333548329,-0.06447670710365486,-0.06292984446551728,-0.03654442493151113,-0.026014209458475435,0.04704538587492914,0.002974911752844572,-0.016716097853685323,-0.007046789663546358,-0.01879320886869426,0.03543628771586177,0.019028129924865626,0.07677991282319778,0.04154303233975394,0.02826971705244781,-0.041075483890650764,0.04399916513104203,-0.08751440378553682,-0.06759829779459271,0.0010309339407020678,-0.05984912256333886,0.049630427865310786,0.01174861553974726,0.01010301685066461,-0.030507775885608067,-0.011658016534890236,0.05992870020017423,0.037475613437306765,0.1004809153806788,0.007380972049249871,-0.06888962678703699,-0.0506219806866877,0.019981387627151095,0.007857556804579356,0.025000401978895675,0.03568694326784776,0.028211647900817222,0.10280925135158737,-0.05650243598148164,-0.13630715813642197,0.044424412135479895,0.04715551165518021,0.035242930564147464,0.06497547107505733,-0.09982635947430672,0.056505342527135224,0.037041548138134824,0.06526074920208194,-0.03325948943405826,0.0906047436859474,0.08984524833908693,-0.018763271144067385,0.024630710154919754,-0.012127880560034339,-0.004144149406106274,-0.006390419612602595,0.03574341011185435,0.01956407981949819,0.011152760133946641,0.009080210761267936,0.0018540975855380253,0.03171465017920502,0.08048034107028952,-0.04003067168093879,0.003054678626632345
-0.012161100718422815,-0.00742167927505176,0.020989621505581212,0.025779439099769944,0.026011094997672235,-0.022021875650601406,-0.021922642132618502,0.02490780995835731,-0.0386869544479718,0.0630868307921514,-0.011824931070867194,0.02646069078783495,0.013573179135333789,0.007436183069441057,-0.08219377527413661,-0.049767226037016395,-0.029707448994252216,-0.015816006629816547,-0.032557800262337955,-0.0726598238335006,0.11256698792820698,-0.02151526081612157,-0.0397422243171456,-0.03017216761423437,-0.016480068275206827,0.07229201079145076,0.07630645471034479,-0.012626167400189648,-0.021148345818645296,0.06302839190621516,0.06329568273634201,0.0696537507270195,-0.027220465931179834,0.008738354550171577,0.05944661118051147,0.009450019619700798,0.01214295044651525,-0.0638166307127207,-0.007561067703587716,-0.06918775964137591,0.04825749815777575,0.0625587496885159,-0.039621149376671126,0.016125528257156515,-0.008740857053958863,-0.09953235930459654,0.02739456324723864,-0.023866425370889312,-0.12252008335441313,0.04871674369541943,-0.015157250513692445,0.0763978043957347,0.034181009132728486,-0.00906424520710772,-0.030333650473091132,-0.04892604368126216,-0.040745421580820514,0.033448303784323584,-0.02434966538906036,0.0781690390697864,-0.0433389386503762,0.059823120613383005,0.014060768488494435,-0.04038998141819345,0.015675048603202204,0.07781974666072554,0.046544579618169414,-0.006266524457150934,-0.011960635934755414,0.024275848290111667,-0.010196181943957688,0.0939210783529151,-0.04061758080705645,0.04036205510745645,-0.004698668198526198,-0.06920316433450904,-0.022702708787694183,-0.050563480526527795,0.01388512602765198,-0.0321994408980474,-0.0031323587836846064,-0.07416923406880331,-0.05098803080843527,0.044707088579785635,-0.05519611260546618,-0.10611204764082599,-0.01904721192719643,-0.03332466986762022,0.04094433450461342,0.0362404222600625,0.03340700799743876,-0.052248852507298424,-0.07648243784622415,-0.010225270838658273,-0.016121158809126967,-0.007789426878905048,-0.06211057809767108,-0.015480806733013807,0.026934777945535334,0.0219174615179378,0.021995788592007445,0.012933820670110152,-0.05713109419661982,0.010783859239867057,0.046806665057714775,0.024860807447216266,0.11450892013879525,0.0026258875096257057,0.029950319432788017,-0.008221487216234714,-0.017278426407892216,-0.030476302017236577,-0.040222108838881915,0.03969659700621051,0.09303813186324167,-0.009893437650626986,-0.02052085018702458,0.09298054833606462,-0.047164469540040985,0.08327250351804402,-0.021311814516335924,0.01976875280459012,0.015678161486998292,0.045787109129708216,-0.047107642974809676,-0.06703146452135351,-0.05436146766691667,-0.07173831086984807,-0.02626261068484555,-0.008341706971502546,-0.0026904011203934624,0.0845995080318108,0.1066522374291753,-0.018758277644948994,0.09998270077429804,0.026877247352492313,-0.060940597314391914,-0.024581773562194778,-0.005948239678259932,-0.0068236131440679824,0.10717715080417207,0.001080911059878349,-0.05020498259348486,0.030346517847781012,0.03215843080075211,0.03815015969341412,-0.014888828598156057,-0.15533941219329547,-0.02660083090539513,-0.030234746373571736,0.0372494524512702,-0.004828617801896668,0.06069204003240908,0.042305202174857406,0.06968621277004967,-0.0055388904099144525,-0.031450082817014495,-0.032932665606241474,-0.049618633451164844,-0.0062032671336441966,0.008793737680558448,0.037259520697964746,-0.10060689561443086,0.023723688745774033,0.02012455823894749,-0.12648741865850655,0.07277259970682286,0.05807814389405201,0.013178679007293442,0.006580067318253615,-0.05956820522265107,0.028671082500084388,0.05189287876375872,-0.009597060696598865,-0.06163231902048322,-0.02820942528745382,0.02759533812061285,-0.01781862238446464,0.043547621957411305,0.0416890609179175,0.0009961925068187674,0.0318668238975643,0.009795430553072016,-0.00889355101999115,-0.03600501190713753,0.004110616812227909,0.08553874626996544,-0.007311772042728226,-0.029812282846704775,-0.014449978276698718,-0.011035885870312201,0.04513649517858498,-0.00405037663682717,-0.0012852639466244369,0.04424119426865047,-0.04064701020054261,0.023777671287578805,-0.05592896219157506,-0.006370207601491101,0.07439147032615197,0.05860970191320321,0.03498390441741269,0.019577189964158446,-0.03747272988344275,0.04206102253966954,-0.10643095477068934,0.06476756951220586,0.0695085246082185,0.044586719979465575,-0.020924804988781246,-0.007165063651498616,0.016167607333408236,0.030317871785080153,-0.05283124485222477,0.03271589216911118,0.06850457667182086,-0.06505103583303695,-0.03316189520433264,-0.03302258635272528,0.08460138789495229,0.05670394379676762,0.03426622639157221,-0.026830232465770536,0.09788434359170661,0.007153693761328155,0.02370328506338826,-0.011271106908257045,-0.04874663746787804,0.01581353772380598,-0.021950655875453924,0.005373347485987841,-0.021620755363646077,0.033883404495199915,0.06962600394754528,0.023512556568809743,0.0495835202201158,0.09168370818256485,0.048174679886323,-0.048332999502281274,-0.011885900552074584,0.027628215602113367,0.021838842643659137,0.0015010341510169713,0.0053390725640791595,0.10451316580911708,-0.03870823604448789,0.01428922748595098,-0.027060118500503643,-0.0984218699179798,-0.04428724505308855,0.005732409719014378,0.01879032996603956,-0.019839919446740982,0.038539154747219126,0.0668225710055002,0.023841375200882604,0.011702275645744912,-0.0605784557450413,0.12092511235215772,0.01272731099108257,-0.08042826063296148,0.02506064723250184,0.031034239121572892,0.08460667292797376,0.003265550631737928,-0.08172549362551808,0.047677449933317045,-0.011072315152466391,-0.04457502392693136,0.0606618855542611,0.008341401001688483,0.07515283724213336,0.05300122586173042,0.021001092897434254,0.006978079507119831,0.019441877112382044,-0.048145516370599585,0.01611383084633933,-0.027801132829022877,0.09771094533201981,-0.045916058505138004,-0.18072303888400132,-0.06687530352084808,-0.09325717739450946,-0.007551051736556523,-0.058762376913827706,-0.004764150115532651,0.02752355869211964,-0.0031675033341373804,0.01940891534859106,-0.027952036473679907,0.06530139192465886,-0.0050856801754516345,-0.04136294811770109,-0.01446259380828278,-0.025622541157673755,0.02271713602333584,-0.07439834243775822,-0.10700918669152157,-0.07840253120482654,0.06262527873432239,-0.011145317969204345,-0.05541630334395349,-0.08870970229340953,-0.08112145161951272,0.008043940922580085,-0.002603187348006835,0.0007220127004644046,0.11803194857131534,0.06396331399369663,0.046968023227723414,0.0016471758900364287,0.08489356869469064,-0.0589399640836498,0.027600216877993942,0.025982366742120434,0.024184568383201318,0.05163164040955999,0.1184495580697527,0.020050891559416837,0.0502609218939931,0.0356697028671479,0.03717875385158737,0.09393985113873579,0.06657012009457726,0.04521610523968817,0.058349499816086045,0.07020781160975209,0.023486682141449552,0.03946002513444368,0.016860438222541595,-0.07377634432156849,-0.031072784037041112,-0.018781904698860957,0.02852000610336365,-0.012608927779491377,0.0297401709684527,0.03193385555514646,-0.07210241336332736,-0.04518909247911021,0.052650545305539614,0.031097087978165242,0.08888623688679029,0.008452044600356687,0.05277077584062992,0.08614071910796893,0.06603503783018075,0.06810342789931541,-0.025581627317465164,-0.01134535823770198,0.00603032834081712,0.02655615028168456,0.10086763559653729,0.05938694363437699,0.030610251228184362,0.06946317459846603,0.046083616434755136,0.13233948353349012,0.0817150584236324,-0.004015110604128335,0.016973858118793414,-0.035527732357458576,-0.05768119538394763,-0.002703810008236108,0.011015760325991802,-0.009106006333989614,-0.02844441604268088,0.07174436669779341,-0.03807552003997835,0.012588917718283963,0.018525464590973203,-0.04039925205689594,0.0672021771401833,0.0718111222573002,0.028515170897668266,0.03541111637245431,-0.03245546208899565,-0.017207529427033918,-0.08893797529255641,0.09963925276718666,0.06592113425945345,-0.006768325230859882,0.0633816189305931,0.03471859859880776,0.0865205447340792,0.02717780804537148,0.055027786228635724,-0.032542565550067036,0.02130644730787672,-0.09365966598577477,-0.001021567707052209,0.11163261849540775,-0.026927961272638412,0.03689875074869295,-0.0020930301169075154,0.03249571266800338,0.018564370189953324,0.022706083256745245,-0.007653223886069697,0.04275006518956159,0.04790197660313721,0.011312944627939697,0.03239976450704591,0.025338680629139944,-0.01546461599381353,-0.024404220082381394,0.013521181600070632,0.05544595094005043,0.08818932107772683,0.06511409938414474,0.04851177410753655,0.16719721635803006,0.048158788359088,0.015112888257451109,-0.02574110213388875,-0.022646436696123876,-0.042355376558350775,-0.11104386767894162,0.00501539664467561,0.030431904243051564,0.0217898544706909,-0.042134242363179315,-0.014912350327617493,0.02099855882579125,-0.004779239494405978,-0.03353852294798822,0.0849942041517616,0.05634081441129129,-0.02445316896758009,0.059517388263274545,0.04042101997611606,0.06730448889552616,-0.0007359755246165035,0.012110930384674569,0.06736863783215617,0.05417786111091482,0.13139845869963734,0.10540060841573322,0.052450495186546375,0.09751408253235314,-0.023150751682336115,-0.006137529176075719,0.029045917103338457,0.021131940436159867,0.06447090324033583,0.05550206788966798,-0.10309360234135435,-0.01962481793932999,0.015035247850021563,-0.05093188734119642,-0.054714160374589274,0.008864978542803973,0.004260790763936046,0.07958544908039054,-0.053971242709774145,0.038682406420447936,0.04398413375137983,0.052672457471409015,0.05699863769675661,0.15332034940460698,-0.0039620093279752145,0.0730059421595979,0.07687587554642465,0.03764720355361896,0.060733856842085716,0.07327306228554599,0.15704672179642196,-0.005620863258216644,0.03291800462804528,0.02872749576107494,-0.07102248921130686,-0.08452196172974784,0.010567166777831927,-0.03456453648085176,0.018168454624922534,0.02850673031600423,-0.024435961878361584,0.05116364018594125,0.08502724821395899,-0.04287392093606828,-0.012336258457466403,-0.012817151236561021,0.017940067042046,0.016549878700977926,0.06002422700304352,0.08695647152700389,-0.06411577859505607,0.06289631125568372,0.1912994657192012,0.056030414210372304,0.06877035193978555,0.05350335846282451,0.02689813560363203,0.031800325087991695,0.015563424743544984,0.06579877658432327,0.02709912261793265,-0.0022461009165167484,0.004470506424778281,-0.1161200746328115,-0.08871160510141343,0.023004802624220864,0.11745497272147429,-0.03900619707533512,0.09344103622224653,-0.010684362632397049,-0.03393294740581322,-0.013936361017640566,-0.12534016020240374,0.006528771120391278,-0.029026160005543665,-0.05051317059569877,0.0419801973872657,0.08394881671635493,0.04259003832225352,0.05934748762597435,0.060939279835443165,0.05538052158349564,0.09107998435880078,0.023786868013361516,0.034762140866825705,0.009109738287569218,-0.010883653648763205,-0.10992360223605474,-0.0995718569427952,-0.07286276463933213,0.02674507992255779,-0.0733704915037037,-0.13528795048561337,-0.023191102158024977,0.1322182201203995,0.02728538563454351,0.038384112136940506,0.03823053183326705,-0.03394625517101891,0.0007497170819989755,-0.06768382123797236,0.034345825692424614,-0.07217036218624621,0.03464280610875071,-0.0884343703267153,0.02583475935644148,-0.08578832051925303,-0.036302617926092684,-0.018180313474755714,0.018471692193133986,0.0212572083159186,-0.034041706649185044,-0.003984960718757836,-0.040686138835452815,-0.042224799093585334,0.08511688066998885,-0.06939377822422951,0.05398937397361215,-0.07096400594944888,0.012283207993754836,-0.03567436658094875,-0.031304439697622935,-0.09162527716313011,0.002316883317653004,0.025265887872216883,0.08678359214628599,-0.005894668378062351,0.0020852886797247264,-0.0502132963437146,-0.05374045034697314,-0.046085573311879235,-0.019841168858969485,-0.003043116609115927,-0.047551952233147184,-0.021210430982003727,0.011231722444165197,0.056849847787079924,0.0028802107869130783,0.005002061759870236,0.039013659099387435,-0.036129970092808265,-0.038137959014951595,0.044865285473123497,0.02484983870923994,-0.01542522432156013,0.01460914832046498,0.04841132598486098,-0.034084745311837805,0.010733250334108562,0.168315720475911,-0.054285002949872076,0.06150918947350552,0.0039155225935408235,-0.11204226062087777,0.08022011133242136,0.002422929795768833,0.007921086989252587,-0.02778835279492266,-0.04185208558388499,-0.03869987796951616,-0.05214315908422893,-0.07382932992264839,-0.06906050265108614,-0.0013169208573104332,0.0862873858011843,0.05966040400984778,-0.007007699369693658,0.006895411732228299,0.01568810377412082,0.004303598509422651,-0.021648120330510542,0.015727755235508296,-0.01737988542227501,-0.037697841142976855,0.06515470409851229,0.046419482735132016,0.023832089616842404,0.02683918389426716,0.0052988116068546825,-0.012370082562440637,0.011294768285229259,-0.009042195602583108,-0.048109884386562524,-0.025496595791050892,-0.07490002368144133,-0.07119299247937232,-0.07999118296944908,-0.07076961809333784,-0.069055212299093,0.01918983618346004,0.09630306383703427,0.07230786478888843,0.10839834117463826,0.04391417300195034,0.08285987834492335,0.1046828798270165,0.011219696628268976,0.048958431635032204,-0.04080047024831193,-0.00966447225857862,0.005733808444304168,0.041043043011539715,-0.12875139736255894,0.011371394489227797,0.07360262021487954,0.03490115011484372,-0.11112160294938579,0.05959693789308154,-0.024011422619425606,0.06549789203253659,0.02634794979498589,-0.08871587797401466,-0.00826658437334414,0.022169725339060385,-0.13512077977009987,-0.019363330134023613,0.07500211500281913,-0.01569785287764977,0.004790709412835813,-0.0835369373087998,-0.008470983833103471,0.05388296490871927,0.09623923976171925,0.0008902434388978758,0.012696367938792452,0.035293701762040365,0.04221445346188543,-0.007834396376725675,0.07299683602475644,0.0799971437186454,0.06033926034291433,0.001229444600193514,-0.04510080775445157,-0.0056016328363007895,0.1387369926325122,-0.01693058738050104,-0.10260660406567973,0.032726154937202705,0.018125341286989987,0.08862873563989604,-0.03459515338042813,0.05516799232135115,0.07386060246410814,-0.0852191011758501,-0.11070652055433514,0.07759523376336076,-0.05085853292023615,-0.02065798257804247,-0.033108358607806705,-0.01879408900841385,-0.029873302323758455,-0.006263629285158741,-0.08022220083625142,0.042779343637503985,0.035456019281327765,-0.07362825424444189,-0.01604639832720856,-0.026113527899698615,0.030981484300793307,-0.05070844088553156,-0.03335815369418172,0.0440126429252513,-0.02748210765232175,-0.010790326038621267,-0.01671527507383734,0.057676508397375814,-0.05108168480510317,-0.010499205707585927,-0.0007763174396556207,0.005948099969040692,0.004951086867821582,-0.04474091506504104,-0.02028249955181335,-0.019409702989133658,-0.0671375045217341,0.00449935203125594,-0.07987499723597026,-0.0067129452170642595,0.017920516717644757,0.07271545244443706,0.024740279798893035,0.09786485489013681,0.03490325505733521,0.045016658451462375,-0.053973057466693786,0.01672657823077041,-0.0301138247967461,0.002275203685572237,0.031191728568044867,-0.12015741632940218,0.0008539367233837813,0.025201274203836433,0.011947198046885259,-0.03296698228137774,-0.01114375167985385,-0.09696012392189123,-0.009120905361320904,0.1392971266317549,0.05516253464625519,0.036372625931402836,0.0784394235853837,-0.03624084583903118,0.020602348173817616,0.058743902568682616,0.03950167442306989,-0.08641021078114705,-0.04377072808614064,0.012282137680003125,0.037297774963144556,0.019664971173719206,-0.0006644580291364544,0.006339222964251284,0.0206450713550435,-0.1041052772159308,0.06713099327674399,0.06633176680030989,0.06199400649345341,0.04848567036920876,-0.046261187044597356,0.06141420058058332,0.021361054170937678,0.020947307328151313,-0.05547244749275865,0.051806550253308305,-0.0285740071272742,-0.08151089265266148,-0.05394482266315841,-0.013315141415789794,-0.009885058420594518,-0.043327129171196944,-0.028678845084470387,-0.020183395040431585,-0.03517185139382557,0.01598274712346286,-0.029889149336475056,-0.0028812127764398635,0.036162633855374236,0.024122805718935245,-0.042814659557124615,0.02737885820923482,0.1298072299366509,-0.0341534263288993,0.039951141459950726,0.07069180391756666,-0.0070747007730245955,0.004986635334338829,-0.044312667616458454,0.041844353140956275
-0.08837233701671338,0.044568377852377127,0.008353421814423384,0.003605287600008724,0.010125766716359785,-0.052017737828595964,-0.0024910727128379653,0.017348986979671414,-0.04054948878313558,0.04208531007225735,-0.04335066396642637,-0.045457331107324604,-0.011046234422571749,0.0686874585330156,0.0786406993693647,-0.0010994260953540041,0.041697565460831275,0.03141401973773739,0.055279860365613706,0.011346954581890953,-0.07889509142456437,0.020521744610735127,0.027719231862848612,0.02895334296613166,0.04308113205147093,0.007665300005348752,-0.03645768537233081,0.06939015098578837,-0.02722900469621649,0.0015086954520563628,-0.0672181942643727,-0.01721300075361091,-0.004393071043770954,0.07626303859994064,0.08378217423390608,0.04038796329512109,-0.01475765569217439,0.00011536014640570288,-0.038520268983751715,0.009612761365797941,0.012216466696043175,-0.07912653772189628,0.08920438764551936,0.005124085970117515,-0.05078523726240363,0.005174759490385288,-0.023481080926221885,0.06093392334369544,0.0915663257776032,0.039854242451181084,0.018806222864933404,-0.03383083566051883,0.006849497045054582,-0.05861362999285848,0.040988528920888515,-0.05969199537951948,-0.07279481660409488,0.01861047278578911,-0.017864305140676908,0.019953545246609104,-0.04458494218805633,-0.02487000144252897,-0.08761224426353834,0.02690872307240162,0.01812063304717725,-0.15573349795524624,-0.014741465190298765,-0.003545388756027847,0.0014887628761686166,0.043775520785843104,0.009630266441607301,0.06589539151307208,-0.05308687987728855,0.11180027274143195,-0.021056936360833577,0.11847095535116893,-0.06516677337715358,0.009962199028617169,0.005386069992528253,-0.0349211818179299,0.04475280527148038,0.022431689976102356,0.06384246536052895,-0.036576234441290385,-0.015766901001234204,-0.10659924366587062,-0.031234842147665955,-0.00900977587623784,-0.06494346883665456,-0.0058308499097354215,-0.0549120897765948,0.038938941494251304,-0.005112769457862753,0.09335181167156927,-0.00835841955774897,0.03241966026676763,0.05132176899960141,0.09310861337934273,0.0020035514798310517,0.04546644450540228,0.06213735415140776,-0.08999059070335626,0.023329189216042937,-0.06789738318073636,0.02558194508947537,-0.006073040321158592,0.019531919999013485,-0.06745786768121922,-0.03483934280273396,-0.05275795748371108,0.00020994615059156686,-0.0198598116773624,0.04226447356060619,0.09696943409984905,-0.1572131901288598,0.03879450623534385,0.01667914800438755,-0.06037418306089195,0.00045100596052889897,-0.024104366405215034,0.0238203175926093,-0.030826472447601467,0.039454577906912716,-0.02798106219306736,-0.0209676765148933,0.01147946464599058,-0.02676358398701838,-0.05837177647061612,-0.05292829231935564,0.10418769491720704,-0.0018767355239092344,-0.0003602491157171623,0.02579148391759201,-0.10861723266760875,0.05691385794305397,-0.003542425917500972,0.07591685863060135,0.007859196403249832,0.016270631819389134,0.08154338880729381,0.05838025989985657,-0.01240709889741894,-0.0508242010706027,0.004946717996452241,0.001750696033041588,0.016345939300340583,-0.07244672620221773,-0.01975273314026887,-0.025673349173909284,-0.07496558403127447,-0.0774361495253815,-0.0408315281567775,0.01725134113768679,0.01952854585725752,-0.006344541981843992,-0.01912372812878411,0.11071768858343192,0.02471304167471142,0.029198293468928643,0.050366869951967576,0.03956823030659533,-0.07077746344307152,-0.027720135525142124,0.01666221903564364,0.0851970547979022,-0.0023169123513092473,-0.02901179654529774,0.08123617322220618,-0.06621568050407789,-0.07203665162483955,0.0120840430944988,0.016875431860365376,-0.00964625575595985,0.04925618640087122,0.1612126609692352,0.000734926438431116,0.06552540695169182,0.039745710220012775,0.050288993517185576,0.04571515087010007,0.007981922007096675,0.02557277233570817,0.05738655559882899,0.01645688266930023,-0.00031471458274340557,0.005623106706718774,0.08728330505674045,-0.027759770869049415,0.0005715290230507641,-0.02475412835070338,-0.01969062495774538,0.06266822969603661,-0.020609929976460988,0.03445530321737932,-0.036462216724551307,-0.002227748554507438,0.004326296534472037,0.04442484197089026,0.051244432196782395,0.009232064147005932,-0.01264017244923969,0.02725370077277279,0.010036631777653415,-0.02867125210912365,0.03574622390193184,-0.010815399170533938,0.014542157397245447,0.04173888143612482,0.04147531076846693,-0.01473647499275679,0.014498589093594501,0.012597819809730354,-0.04631642480890949,-0.00506245893951284,-0.0020223328241288905,-0.04029979552648127,-0.024838382604267278,0.11133150264320059,-0.05730214207606497,-0.07784160807963987,0.0006432435867862758,0.0869314666364656,0.0195545034399293,0.002732942576430405,-0.06778898728128,-0.057328870969700345,-0.051724036296610126,-0.005161941961294001,0.007148015566517034,-0.0905007415411364,-0.022244402896326662,0.08668848739669956,0.01303642231798689,-0.009545052137991089,-0.018084928841799214,-0.03271450953784281,0.11643512296697454,-0.06937985263274143,-0.0498120921653272,-0.06470636201723266,0.04434425743280904,-0.028966016404762002,-0.04180095166808715,-0.019244927198379707,-0.017382955524595563,-0.025490761850653902,0.060964149196449456,0.02346251013788563,0.01940138004609305,0.020565320260549805,-0.021142587390014896,-0.016830657885617547,-0.0030053780152034916,0.022698462412013506,0.08240444289338954,-0.07577819726640195,0.0014227973114250272,0.08997496309904925,0.06434796799851569,0.08730171108312632,0.027733390237296884,-0.08370267069197664,-0.006646443389894734,-0.034300655183266894,0.02993242469030083,-0.0353220554316212,-0.03388661968204052,-0.0061386741763322416,0.0007250195083555118,-0.05993559513751801,0.04324639587320771,0.0764747581552699,0.06887488025640333,-0.09768844140537887,0.036481368056274936,0.05134373898374385,0.030720728961522777,-0.04816839471456113,-0.0298295816792709,0.06569597977434204,0.007577488636057839,-0.002649748086934543,-0.03901646546322351,-0.07535580994831746,-0.06693960199153709,0.1365243243491511,-0.009929548774702692,0.0002695533977731616,0.04905552658537766,0.0039174944725841165,0.006001919803952906,-0.026286615193603556,-0.00736208033772426,-0.061432781156495905,-0.04570148553368541,-0.06496950813755646,0.01737488015849033,-0.07318703159275995,-0.05143529413758867,0.06864694023594996,-0.0148826978367076,0.0775330854802805,0.020348929950175586,0.08968279729008481,0.043928321088101796,-0.00859308589693091,-0.007894099599618067,0.10578025905933795,0.023703836488922974,0.05484129986639199,-0.014692370890142168,0.09839264223922638,-0.0789127235353964,0.0505986757531036,-0.02872907645319918,-0.02352396471625322,0.09879777376781393,-0.0046742759415683,0.035949698960267756,-0.06988500033861501,-0.002497510422746754,-0.005345709488788781,-0.05499163976691802,-0.003648485157819867,-0.0824651020438997,-0.06833646711710498,-0.018458979066245572,-0.09159476252748985,-0.08535836839846137,-0.014128212944474876,0.030301605607609906,0.0013515736686415159,-0.044110684156803144,0.09401732016637418,-0.02866932798364214,-0.10502032344963154,-0.020464740947942976,0.047898516120087886,-0.025204740571504312,0.028983215961221998,-0.011149863792537058,0.10428946747312133,0.016343416112641652,0.07887906116071688,-0.017061032084906436,-0.03673212108760612,-0.007666398849168202,-0.06944731146246569,-0.014974324863926048,-0.08261729296240211,0.03272180960249522,-0.06270617544416957,-0.04303548330285824,-0.028535755474257494,0.008242015705167024,-0.005613902196037632,-0.04172128460431842,0.01570832768430682,0.0708867798781424,0.017043339096692076,0.054539102026740706,-0.03968216483532152,0.013180517239395003,0.025637743704585915,-0.009666254936753174,0.06562512574413974,-0.06833133909739904,-0.0744262097569145,0.052174333393840096,0.032155760739429905,-0.0032859166337665716,0.12067051898499818,-0.0017610565122442574,0.072609877265033,-0.05229121453622393,-0.02048054826083527,-0.07989830830146426,-0.0013999757512974,-0.06505858597287972,0.014980219659609608,0.006117670831589271,-0.0677902149891879,0.017285680255711033,-0.07111511079383616,-0.011093176107319861,-0.03130931808226809,0.07605392342677769,-0.022097236192523847,0.016570788925459247,0.0268085235709245,0.02746107181424718,0.049418093571929646,0.07937908779909705,-0.12651867874498313,-0.06494017962676665,0.0024520045382580387,-0.009646147035543978,0.09907479884774625,0.0829518960207234,0.0417787150002214,0.022805848961079386,-0.09394428880034955,-0.07326682138698973,-0.09321097499929766,0.019162315937363273,-0.03578481948961817,0.03990561895593479,-0.031167540382793818,-0.011910228910221025,-0.014862849375880139,-0.11312967817663729,-0.03280684163613599,0.034500567272677654,-0.03848563870316658,-0.006676367142944955,-0.05558471018535571,0.0386601908851871,0.015130045201657906,0.0021930278224379196,-0.019950259423568647,-0.044313913901599306,-0.007644082728653176,-0.01781589124819207,0.0011757304516766581,-0.006089590673499831,0.042007009161487495,-0.04035178362043204,0.07150027175004665,-0.07251352296841124,0.06765460985836959,-0.047262804040607155,-0.062381129386727276,-0.0358483815830586,-0.020550926968007553,0.08618821080309819,-0.08012048686787533,-0.030783950184035683,0.030473935539729557,0.011980381801568959,0.0337463255200697,0.02764704080095065,0.0053702664325840106,-0.014837300866556253,0.1003543702059469,0.0028893011997331805,0.042529348875321574,0.033071862019042164,-0.02318907744448256,-0.08564324402893381,-0.06308725051023141,-0.05796361997020781,0.02638193475931618,0.03232492938179431,0.0175341746369318,0.017292202507457916,-0.050379746227769785,-0.04611804366217262,-0.027552186829355507,0.02207420338498498,0.10668132214822182,-0.026450683322774615,-0.011045131327152981,0.020152620170906167,0.023800750915663214,-0.15202137821057687,-0.05884887937574288,-0.006190028605711685,-0.030652283416389193,-0.0017326158227226076,0.011039712637680896,-0.024559257019085255,-0.0022585845284875017,0.09330377793967513,-0.000694056464766817,0.05627972328809035,-0.07332192233606367,0.06493408482939464,-0.030511213416034317,-0.0019926881872719326,0.07793157219246045,0.10057549529214671,0.005871341033362624,0.04456213273567743,0.03999729255029646,-0.07847964699545656,-0.012220319380935164,0.03443869972542156,0.1154314973058473,-0.04743052211008512,0.006142092695756319,0.06529785979314381,-0.057147061023719005,0.07639948092709062,-0.046661360565064064,0.0035541820793357636,-0.02668467665744136,0.002313919267176256,0.025866080437932037,0.08366274903942435,0.060492419348888105,0.0099146740925199,-0.02423082426281944,0.03452205514078259,-0.05530227304259202,-0.02028048894419049,0.06106789151043734,-0.009293232255235678,0.023278373223267368,-0.03612498884257782,0.0664371942287965,0.041888878651212325,0.06205854174218554,-0.025189245611653643,-0.028097048621590168,-0.028053904931085633,-0.03624981494315604,0.0005168582797310802,-0.019109278210992647,0.024614593802462618,0.045230008332135876,-0.026910290517935666,-0.003605219870979984,-0.05007618460988842,0.08625729498561446,0.00635997554839089,0.09772436376913346,0.04225805707244026,0.012235295705719122,-0.00596094817673717,0.014566433090283245,0.02727356260982241,0.01631790258336246,-0.02701447996388945,0.03307842340338172,0.004162086714827841,-0.005053384686269501,0.05019223790649301,0.005641605195838965,0.05321157850811165,0.04995404734277938,0.026825526747369235,0.0011282468404419013,-0.041335407370567165,-0.02224702547675112,0.029672612617654505,0.036674714410165565,-0.016284312913366784,-0.04891384127188438,0.021519735158379755,0.020433711967928293,0.03202853133330895,0.021156152293431534,-0.037166950659351425,0.09848842455709572,0.08677912322811197,0.07193031981098329,0.016327571690952405,0.026128134776436586,0.01241149359871829,-0.009200728773081557,-0.07685539559912827,-0.06370752578099388,-0.0016435709117640076,0.026978530898990934,0.056590857136946476,-0.03790100666638668,0.004524265091878899,0.08716747013876029,-0.00887697887436159,0.07053463562462735,-0.022987058890285503,0.026458611111450352,-0.0777750097693032,-0.014656232735572405,0.023247568144903842,0.03860221849687279,-0.10828085545715453,-0.031114878580921754,0.01187066725369597,-0.09149300336291205,0.030450999011172365,-0.07272061076773056,0.02921563813456582,0.026130430645437887,0.038853781715851674,-0.047578328113002576,-0.03871246394646503,0.008248471530049642,0.1402238225127826,0.05110609726050897,0.011347964996151259,0.058991495181052685,-0.04451756132855807,-1.2753153094789138e-05,-0.04774696957287689,0.0976447485295755,0.01719201329940541,0.024597473675972065,0.04820519775060824,0.04508850499064247,0.0417043311407739,-0.026068372459006752,-0.05914608527215884,-0.08387030369066222,0.027801937527948566,-0.013097134094445174,-0.04384262375620916,0.009487656044180547,-0.004817419969691647,-0.025416172503394,-0.0954354240114901,-0.04428151660146854,-0.061435113312807633,-0.022378308582478232,-0.0037945870868235122,-0.04265529294225484,-0.016186933400717703,0.035957733514646095,-0.05462821101629947,0.04309728336699555,0.07045417520888221,-0.012248972422046466,0.02984961295287719,-0.051507180007058694,0.05130811084032715,-0.004293115782439645,-0.03520097584142314,-0.04134896688035866,-0.06981133910189725,-0.04995202270419658,0.007755421272738733,0.04726846806565747,0.01652434962463132,0.052538538960585364,-0.0211390283553103,0.044212909462392015,0.059186862560472724,-0.0008480053137324437,0.12332058634652376,-0.08634719030406333,0.03181148200675489,0.018433061179629767,0.08731034362455502,-0.06577870643865374,0.010638170090145447,-0.000920384800979191,0.0034476278602603018,-0.018567499718855345,-0.06629329792762047,-0.003075446443166403,0.058250558047527795,-0.009290965213559028,0.003620549720189932,0.047809765619075975,-0.046201584871459526,0.012284480169299406,0.015500485833231731,-0.026373138703323903,-0.0006921743354243589,0.029077786038751923,-0.011251040382054416,-0.060635138027787625,0.02221096737160586,-0.0008032843862429407,0.020683280128438866,0.0682077112632766,0.0676511535278687,-0.026473483927613475,0.031508650525068564,-0.008086885461758855,0.0443591147906365,0.08816235907498222,-0.027887159764074725,-0.02369956913988458,0.033323746000901114,0.001924106453045535,-0.03755574755194675,-0.04367688295669581,0.03134307727302961,-0.0019672714514268456,0.07661200554320843,0.030018981492910296,0.00698101791933271,0.02062162266077342,0.015409766227449157,-0.020320054330089155,-0.08774801701057736,0.0015810962244863776,0.043611523404751586,0.018262894084258956,0.004733134855183945,-0.0323901322099912,-0.0012537008099215922,0.004723897209783594,-0.07756688550629867,-0.09249557240340317,0.06958735551918464,-0.06350861620645157,-0.048759981648270764,-0.06798974440498526,-0.0010716240787593918,-0.05543029540375632,-0.12612293407812636,-0.025295555401774864,0.11851046207097,-0.012264266332893466,0.02566002543905462,-0.0003635922633480015,-0.033707162668004234,-0.05278143880052617,-0.11297664322813447,0.04090182924256372,-0.08116313701709943,-0.035504009894686106,-0.04099615447850875,-0.07685159825019557,-0.009667237809232643,-0.022212000625265405,-0.11078821847691893,-0.148226454900117,0.03680243734009722,-0.055103317148338715,-0.021607438566221233,-0.13196287645642032,0.009443029210778267,0.0351307266277734,-0.055976545232618025,0.031371807239241156,-0.02019221360727219,-0.054036652216841265,0.008857938996083843,0.0102155363166609,-0.07082832069899503,0.10052771904544748,-0.003044255985775971,0.02637217706266042,-0.0635470708588893,-0.025394970156081265,-0.05005752517748603,-0.026431421192911475,-0.0037024974104001656,-0.026889755343913677,0.03528752551697304,0.021285033037751307,0.057849494374469915,-0.005778971699232903,-0.0036176391616108655,-0.02702959825857184,-0.0054825263446875525,0.048573129173151194,0.08190017800655458,-0.04303570832337217,-0.03576573413678198,-0.03575433810510455,0.016044073897972015,-0.09950025278259016,0.07841627401844886,0.006531203935995443,-0.039075829565016075,-0.008447582732545283,0.07628614653847264,-0.05352496345403583,-0.06245266233722574,-0.011981327309223497,0.023420147355942597,-0.005763411919179461,-0.03464279413094959,-0.08880036171323129,-0.007692404810565071,0.02934666654550779,-0.04136014676795611,0.02946958524805095,0.1063265746608278,0.004392739337307343,-0.040997698668377866,0.06301398526373542,0.038244480037322316,-0.028348403476932085,0.016702455484912202,-0.010964433242900277,-0.009797827917167237,0.028223329950909044,0.03243011642604439,0.0011153052578136585
-0.043944327818331665,0.026842094334937082,0.043666549604405656,0.04557163394900424,0.04463467792542028,-0.06413970181463972,0.06214816977272889,-0.06426465090038685,0.02716481780161035,-0.0038572938500801954,-0.002610045362822973,-0.021473278651250823,-0.04502704955660433,-0.06771457754879368,-0.05980208973321155,0.01406127986591527,0.00462627740343956,-0.016976757417991872,-0.030183081570380032,-0.03193561047026076,0.11002869205159753,-0.0797676787220383,-0.0225742142287033,-0.07504697557376903,0.013475049653785166,0.04888556781936847,0.005054064371869688,-0.10703377105777191,0.0906413086590991,0.06624831340060697,-0.03385814361769065,-0.06882980602461485,0.022537771902410283,-0.010680315769953912,-0.01659181916586043,-0.05991174519367833,-0.02996380820455878,-0.06273074366342761,-0.020120198467058214,-0.03621329399981912,0.033208365200828927,0.01487743352896598,0.0011240984882258398,0.05163380716353413,0.009733340766652073,0.0401563139219867,0.0098212017316011,-0.0015153511248046608,0.014434970849616747,-0.01810893386151368,0.00983621197337137,0.04898729249427214,0.010338348582775379,-0.0050627882990100116,0.042708459643103845,0.08051475565735003,0.00830459351415387,0.03944070727354656,-0.039578108534513975,0.05170663104587475,-0.014701406750050328,0.014238610593032483,-0.022243702647737514,-0.0066347352594190185,0.09267898371264156,-0.038780961716985016,0.06721452972132103,-0.0708682449436312,0.06853641558380014,-0.02259794728939881,-0.08415664168720963,-0.07209351258138506,-0.03784511322004019,-0.06766954506764072,-0.05234273911717684,-0.08752673441875476,-0.024346594346285867,0.09100149575345985,-0.01774793520098565,-0.04299234930502769,0.024216843882715784,0.06985469577117628,0.06411910675790468,0.059973991715740374,-0.06747525720339664,0.01503142733087326,-0.025976811607492496,0.08150155539722923,0.03213353242098873,0.007367799164992893,0.0001305657743387987,-0.02296455547933765,0.015292694199487271,-0.07185753063397679,-0.0938862967914466,0.01305521169510658,-0.030637290092949927,0.05388643277141474,0.06531191354206677,-0.029030908386340017,0.005545846668262696,-0.04907378295054071,-0.03560423412039778,-0.04044773804656048,0.10270670631956232,-0.06427090374200714,0.0797803278462311,-0.09842419898078518,0.0245583525878707,-0.07548700626755107,-0.04575170031534533,0.04005167030983171,-0.01153983723674422,0.003373947346720425,-0.06731767184976191,-0.026795187496366186,-0.03347560116729413,-0.09975023676820699,-0.0044108653665805774,-0.042925685257501796,-0.03983952314584713,0.012779172137046768,0.0459819002607188,0.03257246912115663,-0.06908548546014476,-0.1134799704512888,-0.0568380328635897,-0.08072990571279685,0.020581282513193883,0.01186164448266946,-0.06102769457681676,-0.005202290149522619,0.05981138405716728,0.07122635270352096,-0.014128287219345599,0.01820019434008749,-0.03483813199504596,-0.007921048317447048,0.033965470271341267,0.0006923899706413113,0.002028620686567247,0.021254781862480015,-0.009625757479516606,0.020194946738616413,-0.012069169833264873,-0.0076003514246293525,-0.17007650528509666,-0.058402140527682674,0.0527568977358751,-0.02130630981919823,0.0458619959411961,-0.031151373286404292,-0.021239121593010644,0.02434357678651461,0.00032717850367805756,-0.04249675250630241,0.11409599391967373,-0.07830892758039719,0.0825434246255817,-0.049077574510526197,0.0853542024182719,0.0010763365666248401,0.0889548935006671,-0.07176641571819754,-0.06148429027616736,0.0691613426202538,-0.004633387807953125,-0.013794365912503194,0.03239465960229883,-0.08302946682555355,-0.02166616000363141,-0.0039949967422465696,-0.021152643872734942,-0.06220580908090394,-0.05373303986867593,-0.003266699331943152,0.06500739239921251,-0.005500533770188611,-0.05029966745899689,-0.030261202945648047,0.041932116806473844,0.015868176000690078,0.06874353650278386,0.04749052147385589,-0.02057139247993018,0.038271018145656456,-0.04888817487428401,0.05576937973249453,0.025395477702662563,0.021196255620073812,-0.0015576058391046975,-0.022970365843496824,0.02000891776071734,-0.045959403549095175,-0.03247395490289283,0.06748577723239597,-0.02643462612671817,-0.06273891405130415,-0.024339941975736263,0.028081377494907824,0.009021807528025325,-0.11864864766936947,0.08392813341906509,0.06451615992373018,0.07098945437122675,0.01559474134149101,0.06746424565240212,-0.02713777617162495,0.03775443054654764,0.06625306400040848,0.008536817714318959,0.024846635310994434,-0.010750280286521377,0.04244054186821996,0.06703868656550477,0.005662745572199443,0.0024377148170685687,0.06194464792454167,-0.031189952662377594,-0.055539485987860904,-0.0160762591786174,-0.022160662831873054,0.08169442167416012,0.16037380917982164,0.03456622062808473,0.04514665758099611,-0.09358392001000707,-0.039176811701138785,0.03415323150051872,0.02381364961489758,0.03207020789765636,0.009859120696736225,0.06523008658001807,0.043748997500782184,-0.004226018762195219,0.009595621190621769,0.04356502281549559,-3.952677950156541e-05,0.019351006850170594,0.06722379987678964,0.12454709209199279,0.08899156213302448,0.003891091800388424,0.08437107848029447,-0.01433181558843239,0.0670527229640588,0.10808993011814216,0.026925534058880124,-0.037457658709979115,-0.05981982312785254,-0.011697414554091795,-0.01988851826805988,-0.01913673277472095,-0.027840137993134853,0.041095187286272296,-0.052811348227303385,0.01218770546028206,0.12218056578588678,-0.014767607580730448,0.04162790211524472,0.04725625458655488,0.004523149721965585,0.10500816590223006,-0.07487234220629535,0.03951230105205954,0.034119424996559636,-0.040760732592456696,0.045076642645924724,-0.007614017646216598,0.11816566690199135,0.045979778887013975,0.077650698866807,0.018231304882405795,-0.02964721411250904,0.03863006472401311,0.05957607040564132,-0.09209370125937896,0.043425498096161495,-0.04901703566478294,-0.013826582448076026,-0.054113562555174105,-0.07715549622672369,0.0761991168656795,0.0170762140645442,-0.06232952229586182,0.026977826566715636,-0.07184094396986883,-0.02995481067050307,0.09971322502489481,-0.0822305488878361,0.16352013941989832,0.06672666726374464,-0.08328150548125635,0.0606511852464069,-0.04008250462375532,-0.016322590717039957,0.020926615657880232,0.014926717838120197,0.09037404289120485,0.15318184705035603,-0.018280295088636878,0.0028354891517762657,0.0378668590327706,-0.025958938460764944,-0.023893535141896287,0.0046131204204572064,0.08181685623283284,0.023133260503490866,-0.07344670410128004,0.010594567580328054,-0.02217430518116087,0.03011078821366218,-0.06097022566870665,0.07040091102503901,0.06100753623606896,-0.03449048053911992,0.021192711500188057,0.008825188812223673,0.0857054764749385,0.14323212591691586,0.12980726401620532,0.04574512276374162,-0.005367797963765906,0.0002688222223501404,0.06803514949627339,0.11131691111224523,0.09435757005402498,0.011534238340689647,0.06816776790871668,-0.07332125790967559,0.0021414776438596,0.04763649930194119,0.04327539700002168,-0.016112387095771646,0.04762058788116657,0.08906653987206692,0.024495932474224904,0.060889360539681574,-0.12332219906397135,-0.026191543414506108,0.05308661738625054,0.07002657327091227,-0.037197821615017855,-0.008810840876323459,-0.08391745013888624,0.032668764635904755,0.10618954142827831,0.14458184443611372,0.058879304379895386,0.10127390126944018,0.03470765792725939,0.1049973342198989,0.0797832260782885,-0.004709948752801964,0.09784961301646079,0.10821259613481206,0.030115450045746662,0.042412360995092324,-0.057436940530314846,-0.07745423974137133,-0.029628492520826694,0.023715989748668276,0.01823249496466452,0.06743291374768925,-0.08076926485662027,0.06310011220974188,-0.00842302783886747,0.03725342321479556,-0.12460191981447255,0.00873464749111995,0.05844056070456871,-0.019937854552750815,0.07302848801041066,0.10935985957130265,0.16923665111739056,0.20451666606454422,0.15682022307386467,0.009477272520027797,0.016963052639993117,0.07093143976326977,-0.002967966661823175,-0.004612035823033354,0.006856545437443174,0.10477707997540925,0.09377139091524601,0.016027302702547357,0.05924727969113684,0.045718861533807754,0.004827840051195256,-0.031207847654136544,0.06849839308298394,0.030524239316169058,-0.11981436057451016,-0.10230351516622194,-0.04992089560119054,0.02983671309328857,0.015358974908332195,0.0636680265988485,0.04218406901519068,-0.027390499054266423,-0.013305862024081051,0.0907485193335986,-0.014614128887316924,0.04675518824774879,0.1531781761976782,0.0699746330850449,0.06653960868820104,-0.023826954556876154,0.14806831018428177,0.08939133548087555,0.1054331068313835,0.08512135217941293,-0.020403805334608706,-0.05074847012302093,-0.053856675540035155,-0.04202322450969647,-0.09916902889311734,-0.09043515094520381,0.06723921580255718,0.0863703067734325,0.0274785366524691,-0.004056364740253664,-0.009277407526835197,-0.0027018319688882912,-0.07394772991883997,0.04515826761479399,-0.0075842887198843845,-0.06893413314252689,0.03077728412741477,0.01593913751467721,0.18518992060223496,0.07920517021871389,0.02890992257374687,-0.07484109942070269,-0.030164653829923515,0.08841503069766568,0.07128831753897608,0.0928401498570687,0.13355789616173083,-0.09201816109535613,0.038193385404490264,0.015412401353960497,-0.04141149576193821,0.014124130493901706,-0.05631458728093407,-0.08749518517059442,-0.01418134788193187,0.015987290903721654,-0.11926105715053094,0.0458628957460213,-0.08945428245162348,-0.012585113592813864,0.03912780688242926,0.027473719529196968,0.025805044757912766,0.024953732393795204,0.02791423030707413,-0.03719180770316568,0.1350119667111839,0.005074852394731375,-0.0003407570795201331,-0.025136271356416804,-0.016777174211028142,-0.013760043726856812,-0.0063086491970849755,0.044495653072810226,0.053136957476221526,-0.09654741809496069,-0.049266491171198995,-0.07623512829299878,0.03330135440854321,-0.0025006432023547734,-0.07059153846121277,-0.05680872688136114,0.06406570249964645,-0.008569066200129174,-0.11781355734811351,0.02400158185529358,-0.059509944110798435,-0.12006152712776465,0.02999511202947335,-0.019530512603381883,0.021671796946190463,0.018693576742822366,-0.04002311781476171,0.013225029660525777,-0.03067738029278979,0.015949382163979692,0.006145706137831053,0.04832980361121206,0.05204164457979959,0.07665736813421961,0.019697118849585346,0.040819928474845966,0.012192044527871445,0.01620336464395119,-0.11816694838229039,-0.001175458635203815,0.04605066219073936,-0.03797569075240303,0.0027622072502867853,-0.010873001915473603,0.10035291357763662,-0.0030869306542955065,0.03410016950344933,-0.023773957840866132,-0.023143996281466076,-0.02572118100557838,0.01319133351510115,0.01944225806568422,-0.05486429882558348,-0.019446222742455888,-0.03508410053968824,0.06288803413045628,0.010994994334398192,0.03175000918813212,-0.004552195096290044,0.006283980317596243,0.06837480047055809,0.09411347768049644,0.0509105448755442,0.03359093476748382,-0.0017582419403379382,-0.03269732533243949,-0.060788843372265554,0.026328033000017934,0.11047083798781353,-0.09857100882949198,-0.01576671528963053,0.053191471868986796,0.04787309797985772,0.024787614622320354,-0.011416774795427426,-0.08294778709949814,-0.03619820035153826,-0.043394512054715166,0.005243827417621485,0.004260696888882607,0.012383196887620719,0.07522660667899109,0.019450048877181415,-0.044370188469487454,-0.0009865516181453398,0.04740928554147508,0.006184468935102303,0.015992020431592122,0.13133871747045928,0.05642240438094858,0.011658181780254151,0.025860669964135594,-0.04419346881308199,-0.056883399466792196,0.010501245372731834,-0.023787526319728643,-0.0030936458750509582,0.02535138980802865,0.06705478430876434,0.02527168438566247,-0.12662239240608666,-0.0006444861754373976,-0.04020913306853346,0.05335803570925636,0.07957122969922242,0.030935019799046778,0.08509812938025932,-0.03044012819795526,0.011487584741644038,-0.038876646785935165,0.022363366168403488,-0.066907393407531,-0.0001246947937562342,0.005550769404357719,0.024921045288467534,0.07025485143756117,0.041593855991900984,0.10209144511680372,-0.10646128279028075,0.06936170759099701,0.01803815291004878,-0.01137025896567717,-0.10057319646458643,0.050933532443405226,-0.020608668485255305,-0.06573968138142387,-0.07918848004018078,-0.008040443022619033,0.053087577230304155,0.007889379402674708,-0.006703364636508651,0.060698357731890765,-0.035026318971102706,-0.021146827453298992,0.10307406966863546,-0.040847490265875516,-0.05309539129153598,0.03472982002403164,0.02398213102550148,0.12158592400668419,-0.03208697120450275,-0.012495442589650355,-0.1430131959901132,0.06134634871484505,0.014965841142088194,0.012351720997313801,-0.07132508344012474,-0.009217053093138689,-0.05225604100451347,-0.006189266668570679,-0.050765523341391935,0.03775153894123555,0.02324068176136535,0.030476136869870822,-0.05062503365148555,0.028120390710539636,0.050067397227003936,-0.004903878202004652,-0.026022611865104843,0.02455623767573091,-0.105127400110471,0.004486095372658623,-0.12337510956972553,-0.022774737295678155,-0.0699165606555111,-0.005756707966722839,-0.02784000782258429,0.033510241726602226,0.05775772663290568,0.13433146878395785,0.13623131306380448,0.03109121351631913,0.02178802628834879,0.015370608168062457,0.0663655512647616,-0.02668694463395156,-0.00098857096965308,0.050795441509385066,-0.006787704308499228,-0.08475196562575875,0.0466143807077869,-0.06079463518107305,-0.07856242335681764,0.018007530006824913,-0.05271700124098653,-0.03579995607033984,-0.09113042392176711,0.003906532298602312,0.06634607674417287,-0.00940239231777479,-0.01775588772120212,-0.016531212317495204,0.17222675134597315,0.020326022893370956,0.049522215930882386,0.07563505380237572,0.05617835213091182,0.004732893682480774,0.11826764670143067,0.02391687051520852,-0.13240968285365956,0.04152513708249602,-0.017545060385624162,-0.050663834483890204,0.0031130427471691576,0.05403905093959223,-0.019371660321032786,0.06083525997387125,0.009855514655091956,0.032817880251330096,0.06046761274982696,0.014458487502771874,-0.05028623169916213,0.11291953342034029,-0.0903619641612597,0.03931256128258803,0.026303573425263106,0.0009704312296659967,0.025501624281266465,0.03541248598644895,-0.024756790470040615,-0.042379931470178,-0.0026504970741741897,-0.017547820179745512,0.11382540700457384,-0.019506874165041814,0.005507012862297813,0.0024985724119915135,0.12456828425596052,0.00565554213821438,0.0014350136551037605,0.096718965866785,0.04317864777381925,-0.04743799795664145,0.050403372651073135,0.055331766220205664,0.04963906277904262,-0.02585013590080484,0.03911175310582826,0.034077999512459,0.018964458955834682,0.07581373907905804,0.029025720733630384,0.011788799396757307,0.040326374520278575,0.008056496767362604,-0.024194015851178096,-0.009211478400027,-0.00644030430160734,0.010921090317216461,-0.07265081461018578,0.004246409472616738,0.09066332879209055,0.01675208470934086,-0.01579738677169461,0.05265723578778316,0.020516015116271817,0.03329790169813051,0.00954831124088197,0.025333708192136203,0.029193959777561552,-0.022767008783328418,-0.04683801445940512,0.08471287841695202,-0.035871410576954865,-0.017224257109704492,0.007912052969260125,-0.013917883883611018,0.024618934941242607,-0.043238481174456035,-0.046184264654621034,-0.014792493287659829,-0.07252661978699969,-0.008690128475454396,0.07931771422294481,-0.028936374354699482,-0.05593357961056558,-0.014725246637774662,-0.035753585209652834,0.05899869803129933,0.06505929844853002,-0.05349431527776903,0.027096042352398146,-0.03530334891741498,0.022011771188213125,0.025607892896486812,-0.06445533159364425,-0.01698744568090434,-0.011455216687880734,0.03823393502450259,-0.016936604462381457,-0.004251344355358437,-0.045201583028776686,-0.01626916596833087,0.05775425250607033,-0.0028169223653156097,-0.039977802706353656,0.04628540022435798,-0.08274666681891783,0.033112837872202684,-0.029860671216275354,0.04028701623146311,0.05526914557341837,0.06292213071016726,-0.03331779226400452,0.027434095270509537,-0.049789421618404876,0.027947585606154193,-0.06535449691610398,0.005593578919991128,-0.05389911418682536,-0.04233016887348802,0.04721407838132156,-0.007436723098789723,-0.015142603830011018,-0.00960453964321667,0.05233905911935454,0.002262041566841814,0.105650849741195,0.02633351401944435,0.04906017819968552,0.014817776611517541,0.021858656964518258,0.03374046859991557,-0.06907061583826365,0.09390926223278129
-0.054676622102217284,0.030054219519752793,-0.016354873451035017,0.031791942146665614,0.004673427461328878,-0.06576327114968387,-0.02735485039067018,-0.08296149614164622,0.048874657695531544,0.01978481043563387,-0.010552805882383746,-0.08924250134734454,-0.09876390922860104,0.0014155113612794167,0.023349840197654646,-0.008250317541987932,0.006824192563548136,-0.07052282625864079,0.06245710536078956,0.008623227968920543,0.01033737597578573,-0.10735327797589121,-0.050615120651906764,0.0310059589578232,-0.00016436829926002035,0.04507858030011055,-0.04846598659818629,0.0017337034433486643,0.01315616786131556,0.1125363285506419,-0.0233532952338012,0.039314754373952675,0.029521971560142888,0.01595883332286863,-0.02636879923395027,-0.03429128630963316,-0.05244432794220412,0.10855967799918324,0.014982786156911142,-0.005681634981987452,0.0206976087630434,0.019084947553837446,-0.02945819471723035,0.05562216487435514,-0.03921413448947034,-0.14618751942899325,0.017607465116880792,-0.06303026616587389,0.054023491216578776,-0.0652665174786148,-0.027685698212938193,-0.011359061979812266,-0.033617045680042236,0.10235211136666243,-0.026185260052741428,0.08397699819269505,0.005547071620205083,-0.02780018348141842,-0.06153816918241111,0.009934749344502579,0.037910886413465114,0.017377405159810212,0.011859614392866924,0.10909245588954493,-0.009559032136318547,-0.08080771529175841,-0.009236038458638686,-0.05108522435275364,-0.06706778425572703,-0.10943851923258707,0.0444122889640386,0.025212237774135213,0.02848172302059013,0.0265934195738444,-0.003769784937001837,-0.012207606389334305,-0.023183246236815,0.008215533504011585,-0.004240572619438746,0.050491122541263006,-0.10763179798743856,0.0575770494991624,-0.014423632389144089,-0.06694907425501238,0.006375528690810426,-0.1377456855134303,-0.022125788694386965,0.09330679069933473,0.06363415414782768,-0.03428254567864184,-0.07276448584770621,-0.008004828000345184,-0.026596126817741282,-0.023347851368490238,0.02766886276685179,-0.023471999643264328,-0.024518958133550924,-0.019343226295151655,0.0002565520660379644,-0.038509032667077975,-0.015000198075300649,0.02265832126477538,0.05644919139960203,0.08714839821359968,0.05348260622235342,0.06434560732802712,0.032194813520479544,0.04108462098864173,-0.015014271928113611,0.04156721503331797,-0.03602464225307116,0.07712811874401615,0.035862973302141866,0.012999674190159771,-0.002963690062557533,0.07853507816038242,0.055354106059627345,0.028608272373118523,-0.09262482147509878,0.04063859483377345,0.03002917912872415,-0.08943894495355492,-0.051696330279551665,-0.05467981053981807,0.06880477672330973,-0.009235992297734346,0.16014745581897857,0.050091519679742035,-0.018798723145026675,-0.004292291040574215,0.05438293336583185,-0.10343499187427371,-0.042909524380695944,0.007674128434698476,0.09576531248370924,0.052493605347988574,0.04185071367394287,-0.007357479001809241,-0.024518245919507246,-0.08006238360402657,0.04744797998666281,0.03935840675485353,-0.04800135696739114,-0.008267669649080525,0.019635342878882276,0.0018134968585034315,0.005965485004671894,-0.038363254074205946,-0.030644700667830902,-0.0691723087899748,-0.041456277894526744,-0.07367628972120734,0.029447527465820172,-0.041073648079180736,0.07272697331675534,0.05730152416610605,-0.09499980885344132,-0.05508753387545585,-0.0701704484297162,0.030439488915711778,-0.056011191395246775,-0.015550842023758471,-0.061322725481357365,0.003068151876433327,0.017587075766365565,-0.012958242111730012,-0.06569177910610226,0.10563534080717153,-0.02560484778331562,0.05482153663153646,-0.001673490708651326,-0.05991218378920095,-0.0929009112067547,0.02204049216648848,-0.04981262285450369,0.07511668689330142,-0.0695003940347491,-0.06688626025828519,0.04293816754380015,-0.05074212328128344,0.024158158086565875,0.017242852207921405,0.05065570330441993,-0.09055595439954142,0.09710815536992158,0.04061901638490276,0.07284631467502853,0.06496040748958479,-0.015300328085810501,0.03503819441171931,-0.051499694668603886,0.036063768174313796,-0.030228489770480694,-0.05986335092713633,-0.011531155460290623,0.043221962444915586,-0.001537796006537373,-0.1560906193985303,-0.007908507527800108,-0.028684067641024744,-0.06046266173083273,0.029732875945397443,0.036135050773576816,0.04120560715146994,-0.022099516416522923,-0.031209987209789104,0.04626141958861607,0.007227074070561761,0.130020233307544,-0.023301571991929736,-0.003279099514846616,0.06262991085587225,-0.02067919127406529,-0.024867269584961788,-0.051797235316055054,0.04262635144564407,0.06313556063933246,0.0720762591226715,-0.01441240605701962,0.04555773328437146,0.05320546163398485,0.07171650898562737,0.09621862376265046,-0.09744283489196508,-0.012216011227155585,0.05187155740381484,0.07379204322269037,0.10201228530960577,-0.007549497341820049,0.01679173109276685,-0.030615257661005712,-0.07017529419018052,0.05440441271874366,0.02200514516583093,-0.11732311463359543,0.012502980194923737,0.041360666703983084,0.13025802489137542,-0.02117959917545125,0.030274211927676906,0.03477872279245276,-0.043530552269142674,-0.053391110035559575,0.042901026374769995,-0.01180760073273741,-0.019348575949649626,-0.011584618604304835,0.03698777503838954,0.008156129222463872,-0.06603782077915506,-0.02194246178744465,-0.08562788143746854,0.035966698269058704,-0.003454285294319476,-0.029281055869308903,-0.06654155045769072,0.0019958432242851566,-0.050784588649396695,0.016051823353779856,-0.05763179331746663,0.12507638702047927,-0.04064323986470406,0.007083455918726545,0.04639644199638266,0.10983680683134352,0.03589636618523756,0.021554207587285452,-0.01196089168382548,-0.04549555800674185,-0.02139290462224347,-0.04511428072529956,0.05337804126710147,-0.017411784740624887,-0.0506245835631717,-0.04260302797797797,0.08553895339349805,-0.08909613228139913,0.04143052460132398,-0.07003985328538054,0.08391971295806859,-0.031772845684186216,-0.04310689021127878,0.02470985588691378,-0.07150318893510808,-0.04205982043590004,-0.06644453441033028,-0.04727499735451975,-0.003508343218570984,-0.024635057561590883,-0.04927472369194028,-0.06067911209938268,-0.04692292361142239,-0.08073228651710661,-0.008325102984684933,-0.03768780068752639,0.006040514591451441,0.03715803352401753,-0.002434335374798125,-0.07662046411042044,-0.08362884652429174,-0.09771467864971849,-0.01821297332256953,-0.021300053946218495,0.05341885487874571,0.031696539723371345,-0.03742191256270217,0.03748623788797607,0.08004619594740867,0.0043098017460813775,0.06740625940935692,0.0342621291250323,0.023310430624398026,0.007198876544834766,-0.04563202322352806,0.0885715991359824,0.029325460387560523,0.018580046370136244,0.09356889882410208,0.08173963438892815,0.0668852654095277,0.014210164521680555,0.02043360406209181,0.08975523277113305,0.01059179305669434,-0.01757046409107341,0.021565027941659244,0.013130843156524798,-0.06455030115792654,0.022131232798135145,0.00857764548874713,0.023490676625444216,0.03680852955420921,-0.011855004761143394,0.053855517010603864,-0.02877060708061376,0.024489344009706183,-0.02502197249313444,0.014877358328364187,0.08673716386463882,-0.10428374426645529,-0.041048934602517705,0.0843802130041068,-0.03203377180240458,-0.10251085540407659,-0.014612524404617109,0.11795330418380921,0.014742155046044392,0.048636571882557926,-0.00370495128777284,0.050419725593208384,0.0790756129116936,0.0419465087278012,0.013053634109391341,-0.048629949124942014,-0.0006146304447778137,0.12444356263304536,0.09174371446385929,0.01356367882579037,0.004353573328272276,0.007888006632585466,0.024762862677937723,-0.030663730097123098,-0.02555327882771754,-0.011687192328058494,-0.02621616302951096,0.027984159660966363,0.05290367491394329,-0.004630221865500833,0.031702855520113926,-0.011439148109085128,0.06492068040246779,-0.011668402462664469,-0.06910178574514075,0.0591529283062058,-0.007613302927215833,0.060632628249166765,0.09385052191362026,-0.026100107728579496,-0.021207383071075264,0.11424151613796805,0.025559050038376652,0.03915271113437875,-0.043607161641925074,0.006047185135832795,0.031993016320784454,0.01154242459782926,0.07706393400623628,-0.011722922318199852,-0.03354887640162164,0.023908051269748213,0.0029130522720393725,0.054968647750597,0.05682724063438959,0.06205281196978714,-0.09133375095724203,0.04582196212495601,-0.10460434412274291,0.056903490781792514,0.04207604709293601,-0.08531352588148969,-0.06462217634437285,0.008623546713607582,0.01875776642468443,0.0043059693389520875,0.02926752631943411,-0.0037341321949094205,0.11060930357857938,-0.04738593191967378,0.04779142385686432,-0.06354922309232021,0.06680881757138259,0.05204275168328513,-0.029544441066054618,0.006815389668326464,0.06986023654959905,0.01828819953356033,0.007247022195752748,0.013510880316763127,-0.08373536020545748,0.011272886320150168,-0.06222712928371976,0.0018935201012057613,0.015654135132046786,-0.08974196202979454,-0.003976301913504552,-0.05831743249144964,-0.014794245071104658,0.0020545253757944886,0.08871590057911195,-0.01046768240922821,0.044026017961746274,-0.00764943045557046,0.025165085116455273,0.026146556130867096,-0.03886233263023593,-0.05526191514188357,0.05842664353599493,0.05872918710095456,0.06578203804664925,0.05696437206770509,0.012049944564662117,-0.023268453415886025,0.08315554672820678,0.01891904570991791,-0.09731782239428172,0.0009858514497462605,0.031521609753985935,0.023892011318470286,-0.037844335729503666,0.041363472926493665,0.0021692701955208947,-0.007154254553538309,-0.11828149950547086,-0.004297063317651031,-0.0969496326280623,-0.02710485595066743,0.05655519864001683,-0.039622429861835985,0.07449276228158061,-0.041020043007170826,0.028185772257209626,-0.0327923826221767,-0.08647408361221269,0.04642840331383384,-0.03227631786375215,0.059262993483495015,0.08949185423554423,0.036152878015132964,-0.05481040418388806,-0.013268959332058624,0.0009407057236516501,0.0996298172022303,-0.13250030207376046,0.07740864594827776,0.03047751520309284,-0.016670412097660313,-0.04703812727122024,-0.04149748096047413,0.08108778584670445,-0.0393368496067962,0.014904525393599901,0.043371320140751554,0.005370724863915072,-0.07801699509591585,0.019321535308240254,0.054003037509423694,0.060548815607670906,-0.03096607111713668,0.016375937371056776,-0.014426080731694558,-0.03723759696159031,-0.05831832288795304,0.03611251702410976,-0.06868787233234093,-0.003993346123403857,-0.06325773107255965,0.05715639722277888,-0.003349968194022318,0.02794085452014309,0.09160824879522078,0.014276720212244432,0.026346576853064383,-0.09138354228966564,-0.04006341872453228,0.027031945036919653,-0.0728418848383181,0.09268878953960846,0.018111132993941084,0.006885120846649466,-0.03236299719516888,-0.058997657683439675,-0.0400699057333504,-0.07245201535263647,0.012420074773887733,0.0690245563373775,-0.00795746851289673,0.06670013541693934,-0.05676382752824621,-0.04474256331729322,-0.035224255388115834,0.0023939146655637743,-0.03408782361260659,0.08425858987713716,0.040669774606651325,0.08356778739886186,0.028527365156509596,-0.04203301707676466,-0.022119748951581558,-0.09594557920295367,-0.02667625043713052,-0.05832040293695156,0.05058944265039269,-0.047842198435664424,0.019926376698823977,0.0592687206853506,-0.04366303933198358,0.011306609466694114,0.038862072538009766,-0.037584315872719674,-0.020737581103133874,-0.030713234145376085,0.021028674310279643,0.09815385180532628,-0.020292657596230487,-0.02278088798735117,0.045493692811495186,-0.005046270714832182,0.00048233087836673265,-0.12951208916016094,-0.05101390661366927,0.05730749068164023,-0.02290565758914681,-0.0728395146289167,-0.03120004622032599,0.07853244692731147,0.06660085250833464,0.009855040154039103,-0.04562239625656432,-0.00013323406202853913,0.005308363954937096,-0.009499529216617987,-0.02395179064562701,0.04870286320309354,-0.05484731059678831,0.07432871332680539,-0.052736770634316796,-0.03783188363182426,-0.08759953359929204,0.00026119650527347025,0.01735791527671761,0.09720130595688892,0.0012937499811129757,-0.09851189008205756,0.011439910979428562,-0.004357389079447204,-0.006199553350408709,0.03201500133042814,-0.015916856840401977,-0.00613355770685023,-0.010710784263405087,0.019958840915596063,0.012417233478181567,-0.0822094879112512,-0.015272464261351842,-0.043842337458604094,0.0085551405642234,-0.06628314447318524,-0.010527989517812742,0.03387218888910329,0.04299136459682369,0.012686272352014923,-0.05537414390254828,0.022130548048688928,-0.04769296093166311,0.02374917107974071,0.02101985369727716,-0.027373653377193892,0.11261070962287671,0.015901908769946845,-0.010283848534930407,-0.015044283201265938,-0.06760818465449711,-0.0002111173845001576,-0.013370039620733886,0.023895794446218806,-0.044142973809761704,0.06273424448467561,0.004559075581907173,-0.014257234253451958,0.0954366867146069,-0.04807716945549779,-0.04661381746316862,-0.006802284552778831,0.040990109617555025,0.05151137889511191,-0.06379918428580866,0.03299690818239046,-0.007432998516489424,0.002086043403450749,0.11377014355414965,-0.015756677758271324,-0.008467022091601249,-0.03219195216069996,0.03900017034664359,0.03592259906741094,0.04474402046047039,0.04603953264547537,-0.059891611166884434,0.0243828968642393,0.003323407035710153,0.004730851347302998,0.09198875779628128,0.006450345974928444,-0.17330680103013874,0.030995157530754457,0.06838735707224862,0.04599041315751774,-0.007374106357311284,-0.07119517322800945,0.026347331043103828,0.023547537594771954,-0.023570665391824994,-0.0156595161022155,0.01523354577198732,0.01657805257001069,-0.05726575837685503,0.029901139990775535,-0.04746501868181344,0.05690114125254801,-0.008282129829791183,0.027634259984067183,0.04596277207920943,-0.043723429983626404,-0.029832298044287636,0.14296723701082137,0.006653168539457906,0.03778727673860881,0.011791465102615152,0.09118672519064662,0.008595954869722488,-0.04689394468143096,0.036453132527837266,0.0623410787580859,-0.031531106872679314,0.10698779022501247,-0.01313840775355031,-0.07953094324865853,-0.03248330534082929,0.01789622090401551,-0.07313505420109563,-0.032241843102638904,0.03461248475085922,0.06263830456436283,0.057745001418661575,0.053626270923068424,0.06442964446561213,-0.06479257602677306,0.05438925703614342,0.0022828234610401898,-0.06812974688583256,-0.020929105636018845,0.011146374132142345,0.026985919190962313,-0.037134177358341285,0.001105937344309775,0.03924171610866513,0.04517375673502805,-0.013709572787601449,-0.00024989387513993686,0.0019515536041520617,-0.02488826066823724,0.006859851520323203,0.03416874930524812,-0.0054161446563370805,-0.09629766182006316,-0.044302858440523084,-0.028804498607049676,0.0006983476753656392,0.009958153019311125,-0.0007784822647709003,-0.09972057541621716,-0.06215284201346324,0.06549097272875812,-0.020759202389606306,-0.09488414893970021,0.05751169959433775,0.07672127174118272,0.02491159238438487,0.01922630627161391,0.05984165712111802,-0.03542489274326748,-0.047455781451072085,0.03758284122140103,0.007827304267795489,0.02061937554126428,0.021447188089375367,0.044235221843849724,0.025274457959161546,0.04364185702032115,0.014761694950171591,-0.02289719720898994,-0.030373002544288975,-0.06644852208157581,-0.028445691399962142,-0.04362495246861452,-0.012851106809114665,0.013338474484048849,-0.07324467153555167,-0.0803404762249864,0.04274743778958051,0.07681432872248094,0.004127046488247808,-0.03324690684106096,0.004096624449445906,0.05790418962798416,-0.02250332261811535,-0.0315860989702817,0.010157736423768092,0.048802761089275414,-0.028863220476257778,-0.01162377081939962,0.05725303675069715,-0.05681109448136852,-0.06111900108744231,-0.045986237595243694,0.05021405685856273,-0.07689257105471187,0.017120648243546522,0.02469898269633148,-0.008275280296404704,-0.03338743583898627,0.05646966513529545,-0.01738082469241797,0.049015568050259126,-0.040796283614568815,-0.00432871027964417,-0.06616521987242732,0.00430596450764066,0.09100119248532093,-0.006583057465023897,0.04035626203873829,-0.015599130662676338,-0.021503460672906493,0.02224287195162093,-0.020548330959780387,0.01506235410931765,0.0784054413367351,-0.09688811476078962,-0.019309455253732885,0.08512047896588387,-0.018154856831989898,-0.15316361640510046,0.02626217853933188,0.1172019057361858,-0.044529988000549615,0.050202425669618654,-0.027326976130121174,0.06828221917745654,-0.06916348662185286,-0.0654328950706673,-0.04578747338869033,-0.027032175004989688,-0.021471734575555894,0.0749539562039087
