0.02345715135029058,-0.2426030156279868,-0.20714792483699057,-0.045194586547778984,0.24160623150483485,-0.02128818317977382,0.1346680235333132,0.0635721836368561,-0.15717522099815737,0.052783650606697964,-0.14999489125640758,-0.20542930940619128,-0.051574625277385405,-0.014408879036864707,0.03808307883285151,0.05585257802664934,-0.13899261993859602,0.21225246283322127,0.13396424562694378,0.06602951532027276,0.11966248945177738,-0.06358173110389578,-0.15420660937776307,-0.057435894561017116,0.06726459571561132,0.10048952360477817,-0.07394257892804532,0.18484790619308183,-0.01188166117169747,0.07471788732907132,0.04796270379629574,0.07527955419870923,-0.2564060477128954,0.06427491236111389,-0.1611700673894059,0.04167986230597809,0.008506330831898617,0.23464990580332679,0.05538393910975033,-0.2366221323974736,0.04329203458329589,0.1257292207752432,0.19491280453750492,0.04438264546825437,0.03101505272683186,-0.063891271709017,-0.055522536495141876,0.044588443989145604,0.1450551637718086,0.04083737395202742,0.11754327493737166,0.10055402677531158,-0.15714621261598796,0.023811495362363256,0.08108428350900664,0.17312271308451557,-0.16303515513007047,0.11243501047031101,-0.11638440167083963,0.17481455246885244,-0.05847747779734449,0.15565723524270067,-0.027088120232915687,-0.2787957011049281,-0.08368990141851537,0.1873127372913124,0.11408877143043852,0.021695163847577015,-0.11559930148237126,-0.08082074774410014,-0.027602422407644128,-0.07075086936731043,0.16040035058380683,0.09973772948174911,0.147125765026879,0.04939243707935223,-0.16418005099675756,0.2191000716443412,0.038849458905068,0.03660274317439683,0.07758475741741666,-0.061024596798100766,-0.1012508179628769,0.09139796971515912,-0.05386080517563451,0.11220865416034709,0.052138997114260476,0.02220805638799138,0.10727490294792875,0.04819673321437252,-0.10992266745665467,-0.11640437636009703,0.03474174465825337,0.11066641155632197,-0.2197849350381004,0.08688326307010331,0.009202034328317244,0.014696687588855149,0.0041089665947780804,-0.10770684815807996,-0.13228207225595393,-0.022519375567225358,0.1745498828247022,0.14078913589309655,0.03435564450873119,0.02983203141266276,-0.12894123347467026,-0.05499509634625859,0.18034746378331584,-0.010791428724289521,0.014138182205585577,0.15731968050139986,-0.05630646814843682,0.11379215129073997,-0.013837319221210608,-0.011635504625594746,-0.014930302180591661,-0.03330756857722861,0.13940035199260195,0.019761361125304886,-0.13441025012380045,-0.06787080104564164,0.0674758820912845,-0.13138371470080373,-0.014291274399672645,0.1331672983546393,-0.04138029771284569,-0.12083526913459859
0.12627677290420558,-0.18925346005516144,0.09590162208670688,0.056024882196016194,-0.2078261701865864,-0.13993875518837642,0.08378383702824851,-0.12836372654408468,0.11173734535082532,0.2471610237146283,0.03965015636991521,0.2056762021055406,0.0613477662418069,0.31385505370317646,-0.190414011626217,0.1737635859792644,-0.09899430248322212,0.0006021131061896946,0.0012781662822436842,-0.09151040856703559,-0.1042216471018433,-0.19229829145285748,-0.08281379014377874,0.059939625929842734,0.11913479461565765,0.10893779065172898,-0.2702401592706983,-0.03810341558313229,-0.20102599191232795,-0.04010380192940519,0.08664152454488906,0.11574505799723411,-0.002479283578748451,-0.008581342412546001,0.08605982220074089,0.059966875282033726,-0.12146223372731667,-0.04160151892532089,0.12849249638450488,0.10311151983635074,0.14093382343645883,-0.023798187537276267,-0.05195713180761357,-0.09208742082100298,0.048001541197074754,-0.024774862796563775,-0.12403428324401128,-0.16305533329235175,0.1248374104918995,-0.018551523232507045,0.1251439828429178,-0.03699511707672374,0.20319349107111473,0.11435212925778064,0.009791317187701837,-0.18029954460781183,0.05136543059632592,-0.00942610657074986,-0.19317457197902418,-0.12086347686575251,-0.07897744486848762,-0.21038489819772116,0.020492536419633094,-0.047731566081437006,0.11654114143559784,0.031526289208931954,-0.06772459993927411,0.17900593100031695,-0.017003205096449057,-0.2500612981493154,-0.0746588630288965,-0.0038703416312326263,-0.037557920832361084,0.014913854016135212,-0.0753153201399592,0.007335265543178428,0.007055128754988774,-0.06744090821064001,0.14973107813750927,0.10676256246400392,-0.1594956074881651,0.019980608310897992,-0.12414083122601945,0.0845667458091397,0.15548370264751707,-0.24856083392115855,0.08903285398857803,0.13760194647301244,-0.053449031375263016,0.159736634372029,0.3458533327127274,-0.2513641952397456,-0.09460630582879785,-0.013490668823999023,-0.10082599312929302,0.11926122561177419,-0.2259979952028441,0.08454091845383482,-0.15824940744850752,0.15720788099112046,0.05177977114782306,0.010660296410849385,0.030397443581510857,-0.14481843827235216,0.06136302269200846,0.01287501371216716,0.004787337674946418,0.07826187892954253,0.28733871402376804,0.18413360445019766,-0.13027637758341784,0.10236663352231361,-0.03672057002500767,-0.04493107727799248,-0.054613994754228665,-0.05051712045828422,0.008267250498635562,0.07188926617873333,0.04710429957966485,-0.011966779731492624,0.04092868577298341,-0.03189388002262596,0.017697803933695872,-0.28022210545763027,0.0023737584995170737,-0.06007681423471202,0.010072853197707432,-0.04073135603570405
-0.15780041373456993,-0.0439044387656075,0.13362480162181106,0.2041726000216882,0.05168024416792749,0.15144586253191505,0.18321384783882863,0.21192645127295442,0.1563461164447973,-0.041256025772252534,-0.15070112745123296,-0.1736793698565624,-0.21310808774399503,0.015016125163894705,0.013466520892497346,0.014897058777886244,-0.24461221478084222,0.11043124455038822,-0.08135104330858028,0.14733595315332407,-0.007686817672747179,-0.1340103401346915,0.19620740756446872,0.10714645309627648,-0.01756602502169958,0.028889778776426497,-0.01994703464568343,0.14197542695867904,-0.27071232539432677,0.01177312708006424,0.06495833823883858,-0.12690823000884938,-0.10835955365383913,-0.035852530580646955,-0.011503641408723881,-0.11075299794676627,-0.11258071274754156,-0.13764786839562126,-0.31086221087415544,0.16380696004921985,-0.2128153196436797,0.007591600381591701,-0.008109915759335359,0.06655188963992734,-0.010761843681992516,0.05243176347250051,-0.0596261693693838,-0.008264633752039462,-0.06482234241297484,0.0019351467277410402,0.049468533593227004,0.12867379262551454,-0.18653643502767267,0.13264176270228248,-0.042322321966193455,-0.014376860009796828,-0.018241731866017578,-0.09910865769404796,0.035894453490176795,0.02318768955182832,-0.23686811547706582,0.09496899814137959,-0.06592297211658965,-0.05784504109195993,-0.03376295053697438,0.08836609070195674,-0.17044723498851752,0.04927522045020722,-0.12711747402421383,-0.1991566626260071,-0.014111913360172663,0.11504988566697144,-0.10791879753655256,0.02442872296090581,-0.11085595753406915,0.043886945345967515,-0.05587660040249554,0.051074972222566066,0.1124891999589822,0.022779804107281053,0.018718917941413955,0.007932418459314194,-0.23013479086724084,0.07990750199854464,-0.027376395880059978,-0.20854815509109403,0.215679067772286,0.16286288709443889,0.07308110438522947,-0.09216380282897699,-0.12649551183719157,-0.12705122465540786,-0.06058031181817099,-0.07259114172058019,0.1198939630677967,-0.044330500466122184,-0.1273050402541169,-0.1188896663592726,-0.03677513688427312,-0.2820903143471198,0.40249585780259683,0.329813831672116,0.16033363464378314,-0.04757161547048069,0.11459635022592604,-0.17734410887793187,-0.17301091512428052,0.019068113418254064,0.042042578299702316,-0.05358303272083379,0.13655846411007197,-0.2155834905553267,-0.20022271787991458,-0.06123121510869412,-0.13362869109476969,-0.10265343859214124,-0.12589096241577244,-0.04552005893247229,-0.06516607366583535,0.13282223581961827,0.06159435536155037,-0.17965850127666616,-0.002177525419755594,-0.1470666238370706,-0.002972911160404827,0.019662125382918602,-0.04907937121740184,-0.07652389501925709
0.1384110338044534,0.04110059659971061,-0.0544507084549098,0.013572625942529731,-0.07986292406428656,0.09519163037927304,0.03451155763008613,-0.03313926171549646,0.06377891881086147,-0.03474396809074977,-0.21146202336863745,-0.13289885527714285,0.0011088895207541697,0.11670530572994282,0.018750524953133146,0.24707315735858637,0.0007822323353149174,0.10373324208073537,-0.0319648489300162,0.04339609968392932,0.011512458118636396,-0.2118407488575003,0.06351526107149458,0.02312455799982574,0.06407207344291588,-0.11904500542027978,0.1634035630914828,-0.10756948029961814,0.03329123074759049,-0.06431990316636561,0.13783656854364473,-0.29081224359662855,-0.07071042681145506,-0.08291388939465684,0.1188338869686501,0.2443731500330975,-0.10553773753728016,-0.06955837893724916,0.12968304991551782,-0.13641952218398457,-0.17247378828801718,0.030422103499164896,-0.15303738477214232,-0.04095047641502799,-0.06264547614244893,0.2089675684126821,0.18124413322846616,-0.2509346683509275,-0.09555182472878347,-0.03976286757128102,-0.0956611951397576,-0.14750882900474183,-0.043873381097651855,-0.03708623630504792,0.10492867203577247,-0.15076674863136916,0.1019322681562407,0.2068868673183678,0.10410582416659811,0.10116051063991109,-0.16469949727739297,0.084552961084236,0.05108953207952997,0.02948357441845695,-0.13297597299139918,0.16424311249428997,-0.007125753206910142,0.04407526345972392,0.08258394140347193,0.0010140673032689,-0.2878155236975733,0.23410140596543208,-0.14206159047429218,-0.03702992678353962,-0.005513502352438242,0.08175508348270502,0.06722469736133907,0.006852732341152708,-0.14626317083358203,0.03125688959365734,-0.09293944191851108,-0.004530304233474557,0.1303909441405081,-0.18529998596970845,0.07829992851670489,-0.005194742843967595,-0.09283342716912968,0.0039237136227696255,-0.04879610038249859,0.14283191076418741,-0.007788262319537381,-0.027375857445030335,-0.07558314611455828,-0.2394112877890741,0.03608732146913621,0.15173552145781785,0.14043990531480227,-0.031338099842765144,-0.03475243326153174,0.09165184634109708,-0.09739598933791886,-0.13833246240746008,0.06852398369961048,-0.1723275225187335,-0.07643891040304195,-0.1944109916782233,-0.06845377434109598,0.05839849907887625,-0.18710968729051913,-0.10289383264352621,0.2132130244329159,-0.25624696426349197,-0.1060232446257564,-0.13443800997496733,-0.22015899218993798,0.2432149087476634,0.08353458225840742,0.12777729884810696,-0.4028300308408466,0.03895936361225493,-0.09912254433227499,-0.139708177578573,-0.2076613231781498,-0.029523698120530337,0.007473495007946532,-0.10791053474439348,-0.05107810166996417,-0.14007334472386812
0.22410064707191152,0.22107249130072426,0.0261380340282047,0.21558552138262205,0.130121505839434,-0.0024669809749427105,0.007372739247017498,0.1088691133794853,0.15757472210071188,0.16147183967071221,-0.11607556941679077,0.14317639570554355,0.10859256869926733,-0.12295398007647014,0.10945433927279455,-0.022815284737307474,-0.027819539389797567,-0.0021959360270051467,0.04629577741624049,0.1644843480640714,0.1625816830303159,-0.033001977497199325,0.17575743495206503,-0.06589967826060039,-0.07422098494525196,0.23821525181310593,0.3692222338297174,-0.31102314307928164,0.19120763846791855,0.11731168903220515,0.3138245643751386,0.22380150127593706,-0.03468576455890566,0.05863423828581898,0.21767094590036382,0.06935746592073755,-0.23335754853526766,0.010692075233486233,0.23591424998917593,0.0492213927755369,0.09626968123301093,-0.10307143148522105,0.07784323790671921,0.19086735584283276,-0.15321194371025496,0.1848027799145905,-0.1060370263947264,0.04946193515964141,0.3608954671742204,0.07115092733663707,0.2659012097856846,0.15751000738536197,0.07492332441867078,0.19320431774553307,0.012531059497437727,-0.00621024390900678,0.059931683952503735,-0.10889134848689477,-0.14192838175726508,-0.17407840024984106,0.13241841060362974,0.00663124408665257,0.325221207599996,-0.07910939602428328,-0.17914506076272574,0.11712934445559597,0.004942410918022465,-0.05322904745830932,-0.0342545173027011,-0.11984782406767591,0.13945634377123475,0.12934377343103162,0.03918968166851881,-0.06692675392162205,0.33392471372247656,-0.020344352660414896,0.16564761395228725,-0.13911293768812677,0.08673169316243064,-0.09691578671911152,0.08451052678859386,0.03071362666968421,0.1882816938067955,0.18458706053580276,0.001687208974231691,0.341508539391077,-0.05199734755086494,0.17423036792648594,-0.0406656978391016,0.21426940694030921,-0.07510069976777828,-0.22219551701367682,0.03111163693070236,0.0285673242509916,0.01690177233764506,0.016218596392602903,0.14217032480110559,0.2720968773856299,0.05440615334426579,0.07750020567769142,-0.07711605118966083,-0.05692922531005007,-0.01143980198055713,0.01975831007135501,-0.0026737295215146207,0.009319038421854808,0.06892886576902633,0.13578008101236713,-0.23680168509511879,-0.09200560363295324,-0.038335520880322334,0.19301379640054736,0.14490702895731392,-0.16188602781844755,0.2157724254937568,-0.18995723477891038,-0.20876016492764374,0.3934435950046048,0.11858113184860238,0.14327213897625,-0.056434186566636665,-0.0868807060187136,0.05332270210990682,-0.12311205283002709,0.10082729860849222,-0.02735959484117157,-0.07442500887180288,-0.07129521834314133
-0.1354277161815867,0.03618730121960669,-0.0012929225450712106,0.03731342960060497,0.2872031148829077,0.1048215054897886,-0.08519763500572501,0.15060768238323916,-0.15667178708768106,0.2555124697850852,0.04469575224249032,0.07144000978814792,0.0660793565255108,-0.01674259679554149,0.0605901813833949,0.05277532782999861,0.1809157125502934,-0.17671695188386496,0.007642636590527015,0.10601530190050801,0.04854589605451156,-0.13271014393927238,-0.09792933043081521,-0.14148198512134802,0.12197303673619085,0.16094762958503195,0.10653665643668546,-0.12531708288405388,-0.03483250623214241,-0.14945257195281286,0.007670242017288854,0.0719869751508548,0.19576522357815526,0.06375250005238395,-0.11565400507524629,-0.17966883686525154,0.05598776922157919,-0.02400868474952458,0.07363435078727644,0.13952422741970003,-0.23534269133634772,-0.2643770999807843,0.047424302422062,-0.08756177241922206,-0.07698187891113176,0.024159289838275345,-0.23833465521927608,0.009639343363651248,0.0058386420044726495,-0.08124526516562328,-0.17081090485742717,0.1644473601025704,0.038561951128581407,0.12399910371489803,-0.0494921478489281,0.07782753748601767,-0.1357217588941707,0.008018879611352819,-0.15194323600566162,-0.1654882483463809,0.10796265503584675,0.051541331910323944,0.022387553493162834,-0.23196390379072887,-0.10122873934504789,0.03928665439448186,-0.037369452274309455,0.0380568932981918,0.0382532451001722,0.12746980166199784,0.19011582505572394,-0.01373234240037913,-0.0890250277160997,-0.1279413033250083,-0.0762877443549541,-0.020186661690860863,0.037610685033396436,-0.019808623140383737,0.12255197956613294,-0.1686711923434178,0.026761147466863783,-0.09709314894172175,0.21494714950893254,0.008791452428845778,-0.14205396893953035,0.07354837925599074,-0.32687942253688096,0.11592747222599199,-0.07024688589051514,0.0984261731157351,-0.1139891470943525,-0.02749151653923331,-0.06523342083929148,0.005802128971216786,0.11064916902484871,-0.018342007791807623,-0.31123161586401116,0.04012059997908452,-0.10524987214245354,0.006869142324185605,-0.03532419906134641,0.021645509604619185,0.20759027534777816,0.10433633206930149,-0.23762999896622589,-0.006147315967724085,0.09124994193202476,0.06453351706700426,-0.03544639495648233,-0.08796288802149207,0.1673118749042485,0.3156259211077591,0.011861084519643066,-0.18936098399163678,0.15214363358972113,0.10894855586861789,0.19559539545797333,-0.05791977966482454,0.13156959629766077,0.0548992474183041,0.030676999033083664,0.09724271386241023,0.019991398686339448,-0.022004239970151364,-0.035257686650013415,0.08301176890840355,0.3698406663356397,-0.04993077442129799
0.14491739604747014,-0.004967130089139018,0.11460428128674675,-0.06694275192772117,-0.02354454665493195,0.09615271028708874,0.19273753468171761,-0.11170873328766642,-0.3066627726342723,-0.16354585390398757,0.16000804008652134,0.15668199116393106,-0.2722919196524993,-0.06805829220514452,0.09937895988532293,0.12898600547729833,0.006968196842466344,-0.08032460897755228,-0.1455039584843411,0.12245327926791418,0.08566022284175807,-0.13577312817272885,0.08698341109326288,0.01921285822328121,0.39742781939824184,0.1034989791421582,0.13078245080237405,-0.018560058331967787,0.20675106212025476,0.04469318891865655,0.04863521742569198,-0.20777881787653252,0.09115334218030492,0.35386137421390496,0.17607560180895762,0.1414409298193602,0.06422812647628567,-0.14215043368696853,-0.0006417378730038695,-0.043275923322856645,-0.1631346720733135,-0.17473644069706432,-0.12535724880741428,-0.016389190727177254,0.0003481792380086071,0.02393675951503549,0.23287071910556384,-0.07709019578954186,-0.0402940170707124,0.18602259274682348,0.12499735592844781,0.14249843193983044,0.12182609586060074,-0.05136676827318554,0.1386560062534246,0.20541425712703343,0.16788520213696115,-0.018839746696215454,0.013804036329218915,0.3278591109205257,0.011048190368314,0.08587223478629012,0.0746828119751046,0.09735922087186069,0.165138754219343,-0.14700906324330806,0.09315902415722893,0.12901772395198377,0.05964539652069099,-0.1583567672084052,0.13241837304102494,-0.14497603048606017,0.007458427747919862,-0.08592591961351426,0.1529340614710197,0.07137935953955286,0.09966855385767094,0.15903309416679004,0.28520905696524723,0.3254644837049018,0.19178034441458314,0.195081971396229,0.1455994861994584,-0.12833778829016942,0.03440791301766419,-0.01815496343308927,-0.03270951991208133,0.0914494664126318,0.0338197217004358,-0.006522719003164738,0.023987276320078174,0.01788800715085095,0.014959542925959801,0.023540876774159513,0.10590980241974941,-0.32113951173540867,0.03070463614282784,-0.028924426049619683,-0.12404266665198421,0.062249810296238044,0.16611427686644809,-0.11654055441678393,-0.06423927719085466,-0.2941094614544522,0.07649630864899827,0.1205298918716161,0.1479780195421888,0.21207006220035654,-0.058722984578390425,-0.1572148518632301,-0.2353120652360491,0.0036086876007031345,0.11969643577247091,-0.06302394791754488,0.038043685033204946,-0.01873768593687732,-0.19654504570384349,0.10550653992557416,0.028364446414728902,0.10668090951065479,0.047701765392446756,0.012943762096068052,0.21122138783545885,-0.05564335669842476,-0.03417782087820368,-0.12008179125384957,-0.006717168195721326,0.10649421104583866
-0.169830273992981,0.05017250485024282,-0.0369199742538324,-0.08333086014345427,0.055078906549326415,0.17364894641958184,-0.13210870386025306,0.05788239967046462,0.03991166402880657,0.06450353868942833,0.14437824246362302,0.295360411054311,0.09268138574605311,0.12996661673806267,-0.17946443299928583,0.155732104264921,0.08141411978855811,0.0692556512833089,-0.1618243363363628,0.39707086670335506,0.06156764000040579,-0.3017942532194742,-0.08385921190648217,-0.23351481008481356,0.28180496137186545,0.015530155227869987,-0.2115833137676424,-0.16135892418507747,-0.22188001917770775,-0.02241067508807681,0.06764526461235607,0.27407022456976243,0.0953004891619449,-0.07373883062338596,-0.041559689859101565,-0.26522748752543684,0.24751598370206093,-0.05530307587422476,0.1067277695283765,0.02605383369813748,-0.20640283253571737,-0.0548446311727422,0.08934293829782809,0.09945957978316551,0.019806167353327565,-0.0768038451220395,0.03957490629768465,0.08333133454964482,-0.0049960417844300145,0.03215708127026301,-0.012814245592832181,-0.12357681504675175,-0.0988637881102435,0.11445597940165703,-0.240283209349847,0.019922056519376393,0.04616640214698083,-0.18698679091032644,0.1716091800611431,0.06434270293562118,0.1744659366297149,0.22749155063348941,0.08458371736299251,0.1151664082286564,0.015259364409745001,-0.23376074422480062,0.04849071297373019,-0.10105341946361115,-0.030586665110969236,0.22779900865349895,0.1942756076491232,-0.129889275906792,-0.08656513862855189,-0.16275247436095774,-0.0798996936271983,-0.1110026673116569,0.08558142866780005,-0.02120166673294786,-0.05421453063553235,0.14331341048298635,-0.07291106817071241,0.09082608836194977,0.06959870347913635,-0.11033458692087049,-0.011381748132288063,0.17798334509615582,-0.031999793871358484,-0.005676953162198261,0.042627084104160856,0.29330955992234914,0.0012421131422934008,-0.02826909771365792,-0.11148402191018243,0.046965632306756315,0.07645770843610127,0.03686492387592894,-0.09451134952889444,0.1632334440715588,0.14898253182499682,0.046473465212191825,-0.27326046675911864,0.1468765691363614,0.16163906501035197,0.15810567102312575,0.04981647090150577,-0.16608955412388132,0.01961979278343333,0.06111774326235732,0.06882010901465394,0.01265757211526224,-0.18865283267260954,0.04213141974462812,-0.13104737971728292,-0.05712857498433606,0.2612413736638652,0.040572521285595596,0.05247624424072716,0.20689046843770464,0.3480098615931134,0.00586476757680229,-0.04333070187579843,0.18222427249092277,-0.05910370961448037,-0.09410278324969103,0.07705880703923898,0.16698695959964152,-0.09290649872098122,0.21454823219208047
-0.012322940605623497,0.08022412501574165,-0.16258035033800425,-0.05718136940006545,0.04477678494434477,-0.18188726982073844,0.2311861340292898,0.3325038964277611,0.07295514130729792,0.0575344796747595,-0.028608660733541878,-0.2394248619933935,0.11510884240829372,0.06969650182487086,0.11576771145197114,-0.12645935391939972,0.005762900851897933,-0.3350382639347827,-0.0691406196623754,0.191452777761942,0.0010495126812498895,0.1843800727761631,0.034722985628113184,-0.005616052025835953,0.03723986621873807,-0.21337804862644205,0.02813528606460891,-0.09602621106340004,-0.041009145025518765,-0.12418764025846632,-0.11921169005736441,-0.041374856602192644,0.18407615733476,-0.18425555304513244,0.04449140208894987,-0.0677077403369902,0.02044724779061028,-0.09801926670715112,-0.054278801175930154,0.13368595389281576,0.13033158058055197,-0.18583402719696188,0.07916537393988698,0.1353398400631974,0.25597586291728386,0.08853627025050469,-0.009363953018450168,-0.09120505616297254,0.006791171588774914,0.2057001154147877,0.1123096420966427,0.012887646134792473,-0.03381378855137831,0.20147097206228476,-0.05413455507819444,0.10995237497508838,0.21535321357214313,-0.2834529132744996,0.431576165235496,0.17016734801385422,-0.1731136289569807,-0.2383389211947057,-0.1188635836214137,-0.217971476622277,-0.12629275091094638,0.13222294053304853,0.049810795722091766,0.12621790206982805,0.024730382967893604,-0.10183218978279374,0.0864938548215869,-0.25003725198049415,-0.04311204981500145,0.30719435988997434,0.2043269205620235,-0.19300204116484554,-0.02666397923329467,0.08536659287677179,0.16345607986288277,0.06335969792356101,-0.06117159126812018,-0.1495650646324717,-0.08794638349480641,-0.31726122534433626,-0.06233320462177706,0.12671726056864313,0.005269039306377298,0.05989923409388488,-0.10358476739758544,0.147173776324128,0.09365217192633699,-0.18696576790398656,0.13542445527432356,0.028179740386176155,-0.16953172083354398,0.01345844955415917,-0.07018257024042515,-0.07672730361157228,-0.17823146566984388,-0.07042493692231455,-0.03072767788652034,-0.07013524233274444,-0.056207745962893296,-0.29955893106157505,0.13343135637648768,-0.06737786653263396,0.2745548070488155,-0.04421427165895913,-0.05558787203024083,0.0008807150352076155,-0.1759136790263198,0.2394809583302564,0.13208988045977008,0.26115615822838617,0.1212673334011297,-0.041328437998306086,-0.005062349088031701,-0.14188515794476395,-0.09743584460207039,0.04827466973154779,-0.19854344510587266,0.10672977129668972,0.1697765022741985,0.27852204745182235,0.027264124382906266,0.10369066525460081,-0.1704259649405269,0.15763143904866342
-0.0245334669068267,0.19885788292434867,-0.06689044522813925,0.1455183098353195,0.2582240277828044,0.05833850984938739,0.12143470623345928,-0.07664085650604475,0.21926187900556324,-0.04147134132504858,-0.0204454121517741,-0.10366745160756201,-0.14097601899211265,0.012900486198303533,0.0736436366465552,0.21979367112653653,-0.1066231236607397,-0.03542380666687109,0.05013168461495596,0.06676602152350042,-0.088068955288899,0.16124025090715077,-0.061437252925399935,0.19821336045456547,-0.05682601625464044,0.28650107667769076,-0.2599107231752414,0.12324511622342132,-0.10903861176937452,-0.0073680970282404,0.007395340814666527,-0.1364178041966601,0.19841256788561315,-0.10466227167937439,-0.044635987830778656,0.2935306557073632,0.13235278821496624,-0.11821969029836017,0.09176172433585741,-0.19065078733106883,0.19604986760440277,-0.05020455919152154,0.04314618601753183,-0.05124936401168439,0.154657498713268,-0.04383595761940695,-0.0674113851413914,-0.11123871237332097,-0.04245344223632617,-0.021735201830384545,-0.10107443498849927,0.2037914573062763,-0.2440761492588936,0.08975935710110654,0.21003152809469974,0.20672945384754834,-0.015114285208967355,0.16472451068038538,0.0006370666448603228,0.10981016928697697,0.04567109063812255,-0.0034302493251740936,0.033760175612581586,0.17818319815748118,0.02708212825587831,0.25200076935520277,0.010291952073837903,0.12107994385034158,-0.04998172758587653,-0.17468661520162546,-0.03418261060071132,-0.021583047990898455,0.14416821076640374,0.01936485753614882,0.03011048944067559,0.17844346506583322,-0.0339389400206451,-0.10574839316381016,-0.061965184027659055,0.10621829130398723,-0.10841606439104552,-0.003869104358301128,0.14190662133638604,0.06369204735282392,0.16143659715990666,-0.06961931651299791,-0.20402257849453015,0.32677569065931555,0.017410999510057784,-0.2933389894143813,0.01999743892314575,0.031055203256444282,-0.22812056256002838,0.0626312208557056,0.04624463982525278,0.12034879102950387,0.08305728643671464,0.15644892949207614,0.11412702094677449,0.00016047605032161417,0.21463044020924676,-0.019757374683118122,0.02355215295836549,-0.10665164750101731,0.025053104310341277,-0.023268894065503313,0.09420712033026157,0.23723231118502555,0.04728393463870973,0.004169234871717407,-0.017193913180383286,0.5039695687629206,0.1076974218417296,-0.01583281722798322,0.04417983282281379,-0.23070121852922224,-0.21891264171423624,-0.2565944991866126,0.08401601975335488,0.004881182253185834,0.24041025051551032,0.04864529398075711,0.18066808471199294,0.11935127957739702,-0.2705698375557979,0.0564700194814653,-0.01801534834588752,-0.08097068535492492
-0.059869010391818626,-0.013945906732098811,0.052452656221232075,-0.13783195727649958,-0.057025205434352313,-0.09305173296306513,0.10794732328793821,-0.04893390603253774,-0.05229963269147198,0.04913775787653834,0.16939891820975436,-0.0396488991644882,-0.060162354939797956,-0.12964001454573118,-0.017554284792085657,0.16228492936083508,-0.12583206493479546,0.2244173948757825,0.019039824875361214,-0.02119210437155536,-0.01945819598402191,-0.16698876790631662,0.03328051974259699,0.04206360604862813,0.03285004295193781,0.05660623762603283,0.32629555374244,0.12165303570495008,0.10137399493967122,-0.10537240819854002,0.07338002080134584,-0.15552804014701338,0.02072957543127534,0.14015084687224594,0.20647909192136013,-0.06373378387905164,-0.11576505157948873,0.11859144646752313,-0.02880466272766853,-0.03227772683738313,0.11370282969282874,0.029067957738210446,-0.01947090628847579,0.014462041171138503,0.4161864738082235,0.01694016657846158,-0.03598152875786591,-0.16751935995646516,0.17909809167981666,0.09184783875279526,0.15194348418058828,0.030128063649032696,0.029764007735309742,0.1889440546563899,-0.03973351057976939,0.15210769265057317,0.13306646001473763,0.2044425468117119,-0.05013908471741631,0.06576513280240276,-0.08734285037631863,-0.21932919679875107,0.0005617332395084938,-0.028340562859244318,0.12250246384760793,-0.17443547592923853,-0.10748795490658654,0.30085103492395976,0.07466756570530292,0.21391690778644887,0.01257821113596608,-0.016565049380208693,-0.08567057566669482,0.12728296974270362,0.24241831131407926,0.4478709511429118,-0.01912455681709065,-0.11779723535100523,-0.08425432616357167,-0.11884066875904391,-0.20110105737700756,0.00737276376730983,0.12851729534215478,-0.038938436196006586,0.055513429738845876,-0.144315965873679,-0.16848044489443856,-0.03343493200111624,-0.07089160521107478,0.3147330730327035,0.006705733775887312,-0.14190730051514377,0.2310806102134092,-0.31991815866318374,0.14968964168093413,-0.09476070489986681,-0.1203924673679985,-0.14807753423074557,0.0648805303178591,-0.13259824077954055,0.03959318635030243,0.16054890305120667,0.1138233410385412,0.027716342930284715,0.23567786710882457,-0.031104863155898003,0.06748208506373035,0.1411339647514687,0.04449253266963055,0.02921451829853967,0.2074041173291295,-0.007148155260222208,-0.06244609126547517,0.04228848875249819,0.026561733298505544,-0.025630188802857456,-0.2849474102261428,-0.017071155208172466,0.06224411356920049,-0.07187675843132654,0.06164424417101156,0.006561647026138281,0.1355853397579975,-0.007405876571627298,0.07407894688593318,0.007790635751587437,-0.12050961916650567,-0.05456251334549414
-0.008036500638636842,0.18560787831475675,-0.04147347156499723,0.16163500688365967,0.0748622381009084,0.1157676461638572,0.24217541786082497,0.12688082033297662,0.06878028198094302,0.21509308957441345,-0.03456805880524845,0.003142698706180413,0.011953303027485474,-0.03856348136105257,0.09209458287258568,0.13110382464519807,0.2870167352980079,0.06657100467304178,-0.13243385282320472,-0.09580418718365999,0.09314135206719595,-0.029489317548048,0.15822674644083762,0.09618850210819997,0.0590737180813573,-0.1737123281193601,-0.0352165023986166,-0.2145967600006982,0.06365187681725012,0.08931198493081376,-0.1529120171195025,-0.04535518037592286,-0.08982060189621287,0.23365769791121793,0.029196741526502024,0.298338859907258,0.10840233372846937,0.052341256373969,-0.18999305200541647,0.14476745755398812,0.16014723293307334,-0.08444435704069554,0.02617238797565454,0.2723886215354261,0.1097486703658748,-0.029949848808052914,-0.06840355919233654,0.00262032391616992,-0.014802719317898932,-0.016995329004665067,-0.08708705981344557,-0.009781579462387209,-0.06315031936246193,-0.11495402437663178,0.08120269689963634,-0.152748982897559,0.09988590550522261,0.13836533740863227,-0.09079816164876149,-0.25052894759631794,-0.06770659691265497,0.3138485743096055,-0.10129647225515796,0.15815692574242193,0.09187532177897947,0.21576850382241694,-0.021081711449126003,0.21745802613038806,0.15325785231617198,-0.08027950584099906,-0.10795492711065552,-0.12558327829565635,0.15790742533651245,-0.08158421705951693,-0.378186056243372,-0.08402140955510586,0.08920972374642977,-0.1888626377967692,-0.06360919928358848,-0.28685803635241935,-0.11027698886740879,-0.07234799499573302,0.1420410956071055,-0.20262001762546028,0.04029372159358259,-0.10590233500940513,-0.16211300329580572,0.04044974781498967,0.016941822191875323,-0.008582146471225025,0.26940145149374356,-0.18310878514777534,0.10307459595324907,0.016845672598412027,-0.030844840624002428,0.02047280103104784,0.2751019506415184,-0.05747595200194211,-0.010451349130588638,0.04815015317772585,-0.008021243365686347,-0.0198701104009435,-0.2237500936301736,0.06776116883914886,0.1409045811607198,0.18556417887017612,-0.10372130455075414,0.07936893225825122,-0.05320236362344384,0.2827766855737941,0.04485724248897967,-0.10086736166422781,0.10355853785584421,0.21285340602768074,-0.08055714504434917,0.1417353454804762,-0.12491186602583607,0.03174079837071614,-0.11856292354943687,0.04641317430149205,0.0014712355349467067,0.1481163226698692,0.18218896689998826,0.060169340803359325,-0.021673448026406875,0.24976018114716286,-0.21195371634387308,0.1768634399320583
0.09601718489740653,-0.26126532473539454,0.2790273004625949,0.2018050079539166,0.16959477506523923,-0.06941677657221378,-0.06366582080061682,-0.01828209120176334,0.21401577019534498,-0.05808282752319822,0.0805213421612248,-0.18430900659454783,-0.08409235406956113,-0.06439624844997119,-0.14766743970863613,0.03101547668689342,0.04361204311009512,0.025767778008100012,0.06643902746734687,0.19592347881795985,0.3160376504535206,0.11003491986274,0.09435402513072583,0.04524323281539702,0.26269852500491625,0.12899620714330548,-0.18531060204737596,0.12623334295346358,0.1479529698663366,-0.23116273882272165,-0.008652873360611945,0.022797534395280424,0.06815115888852112,-0.05622031089513845,-0.13813247998745992,-0.008027367992961358,0.30829267449453096,-0.035030258550944354,-0.08261471635478605,-0.23931783062411882,-0.01663083891700378,0.14279649376263223,0.11522533554150748,0.03466979956323172,0.2305349107735634,-0.048734949029044995,-0.2723812312478769,0.10994094065783308,-0.15864287594915905,-0.17053844893162348,-0.03807520661291403,0.24229633067224982,-0.06272329769473843,-0.005574373807668946,-0.10372440285178347,0.2128383768016055,-0.09377064717085246,-0.08806390190511687,0.3702602706274059,-0.09992545481328434,0.04789925276600033,-0.15743387092595656,-0.12628854104091325,0.12532541700494118,-0.0072851348350464916,0.05985118172652744,0.2670389374067416,0.17743861154857143,0.12271023283676012,0.010978633394117103,0.03298004976439789,0.12276819052992823,0.21036986456834544,-0.29766667549053705,-0.2611558463590042,0.11587672464530456,0.058724844272861294,0.12521207480922109,0.15785200653545742,0.29852594445392644,-0.027196795603560066,0.06528163369383597,0.2529612762449636,-0.01835453335363909,0.13938968456104125,-0.12751987077189683,0.11241361127437463,0.00817498223135671,-0.05680826667581681,0.12211502933256878,-0.14614324061696812,0.01546007607641899,-0.16144688681539077,0.005834457281452925,-0.2782452031851326,0.05831057362876646,-0.11852897867147177,-0.05746658050567192,0.1432781425016063,0.3887196843908108,0.15842910734248677,-0.02577061360751713,0.1525948253654633,-0.24880565095645257,0.14843535346938783,-0.1063015288992434,0.00533232118264109,0.02646531183871247,0.17012598045647429,-0.03393860620322519,-0.06059005535545843,0.060412598209044654,-0.024699342808488265,0.11539953786799505,-0.08657335539759306,-0.1573992083680224,0.05293089470584725,-0.009757924069530395,0.10640258609984414,-0.23345662697303887,0.10309321108523334,0.24449825269004416,0.08504895801763321,0.2705043533078527,-0.05383045753386432,-0.022888803317723604,0.044315639754158156,0.1565223823969071
0.14465233355591423,0.07290909903249956,-0.1944576633996187,-0.05071824767729871,0.09028267084429624,0.14954608480184908,-0.028038889382726785,0.1858147931646397,-0.09584988186436859,0.12955469953770812,0.11666082189148794,0.01602104887209865,0.22308947799140635,-0.18239314242724936,-0.04742434391112157,0.03746115428514894,-0.02300502671693686,0.06689887771935524,0.02710562324664749,-0.12064612785271701,-0.03195412362009355,-0.06201273262584714,-0.03139135226820675,0.10293592784077892,0.007152288741887585,0.3252110122303971,0.07151822129339633,0.07645690794844667,0.19113037908928027,0.04677573502131247,0.2584856410727931,0.035429689297833834,0.20992933886905743,-0.13038313313209499,0.24807178446995912,0.17068165731192808,0.1678339947011326,0.046400336946966624,-0.11637951713112207,-0.21275888804812618,-0.044613783512934484,-0.08851366005255011,-0.0032046910850042866,-0.1294828341790615,0.20027741632517385,-0.06654560206691851,0.020466540248851313,0.006619817221182114,0.0994150340551248,0.12080937796194162,-0.10545949375172703,0.12238975985144943,0.06294451497627886,-0.10356532100579048,0.22676934062064827,0.05416341791986354,0.04722561610369178,-0.017354429385340903,0.10346455861634866,0.17434160236094684,0.028006504262960974,0.14524106030879583,0.07017111939728896,0.07806596702044616,0.03227085573090214,0.16194712213597856,0.1532401791979498,0.1608117897488962,0.09917293956623904,0.07989567213372717,-0.02397937642168712,-0.03547942152665407,0.11767079047208442,0.018108125809026272,0.07022109935835708,0.11125567129557613,-0.20246118538816174,0.13589641914283743,-0.13130957857871714,0.08450829854801617,0.0030875784791887153,-0.03482176976891367,0.11224520894604248,-0.05246778163154219,-0.20341783811912129,-0.08967594736165158,0.1302966252914413,0.03748880610795436,0.14576599588796602,0.03464905166068566,0.20967769545955545,-0.10313944455059373,0.05803870315166237,0.054420717732964044,0.15608980845528828,-0.06862464612510101,0.09667199544210665,0.24638368335135286,-0.00012741766974551198,0.05445537748208233,0.09077081116957372,-0.031415097317151634,-0.13732307613147418,0.18027108123221033,0.12103811170737591,0.006638196243144954,0.060753702140614124,-0.06122569467932295,0.059769533763328136,0.05101248166483181,0.07077981014719124,-0.05686523575004211,-0.024153978486310033,-0.012579099089282644,-0.006413632262138583,0.044432199988454525,-0.03854682006742924,-0.11509192094335556,0.032330835217019196,0.15666969959634208,0.048018339487053883,0.11915379486825406,0.06951000757156002,0.11136751805562121,-0.08367514597962604,0.3899227268534351,0.1672323915485515,0.22739425331731677
0.10950533997460205,-0.317600009149408,-0.0437905416093148,-0.16453777425452115,0.16046077381967994,-0.036266873804737525,-0.1363778368690787,0.09205594834042086,-0.06100062735489084,-0.020596961297311138,0.08816258315778709,0.07262939516766624,-0.051145214232651864,-0.1678746433831854,-0.0019626083011225356,0.29099889776179816,-0.01842083198429324,-0.05958858032925159,0.0790357184977105,0.10098114524044778,0.16531367976369363,-0.3651944740097542,0.05869461330631132,-0.26362142615789885,-0.17630657715687148,0.15381833491512767,0.02656278898959679,0.04398938600324861,-0.22675464354743666,-0.18037866620593165,0.10138674983836256,0.10867094367335325,-0.021606150057723265,0.026521192937637866,-0.0012422887923608204,0.11035706711349647,0.17959683764831058,0.049625677387782015,-0.01846174292773826,0.19947412616119592,0.15604760591548197,-0.0242665558032752,0.02492318775700269,0.11386590902471351,-0.08037796623055536,-0.2577860462568621,-0.11142558234217001,-0.010046603019653594,0.14904980215022173,0.13620483061905106,0.06541705610718387,0.12003232551847298,-0.06756408687466822,0.10016151039254484,-0.2597732506540128,0.05466988000175519,0.06573372455139373,0.020243194684245375,0.37044191635866575,0.12241159142493373,-0.2802948854491475,-0.09709984774908663,0.0968163932321282,-0.008033775649194169,0.17498543540092054,0.0352827730012423,0.08380507914988018,0.2981260518437874,0.057294540545158985,0.06141268575787622,0.028780948365739654,0.02057489557607746,-0.11453715025739926,0.08872255831902044,0.19679337593405793,-0.030777063060055117,-0.006726928809315423,0.0089589373007476,-0.012086027547567596,0.10895281445993278,-0.09712712292163561,0.05037657299850295,0.22591970771064843,0.06831218919566535,-0.25105423778250824,0.3959491185442781,-0.126813472800666,-0.10427328381323807,0.2036322164812249,0.14496394012854852,-0.01155117258014187,0.0567337325642212,0.1789856771420926,-0.19897924089409028,-0.16953327715106806,-0.32688523583124146,-0.0540172453832187,-0.028488671544976932,-0.2552261889570108,0.029211938110271837,-0.026656505124726962,0.08104413752045887,0.22476732077542758,0.24159819782197095,-0.0779247445814794,0.009130345348291878,0.16192729412164628,0.11487206399089256,0.12212590749546837,-0.027216382972508894,0.12620191772971942,0.10859518404356462,0.02042476110341451,-0.06654595101752284,0.012348671733210562,0.07435876417814302,0.04616149260425775,-0.014325979832040554,0.21379865775245407,-0.09955846793820934,0.13217694385553647,0.20077609710599117,-0.21327160529651618,0.15628006360222563,-0.06379975081945784,0.1494174233176609,0.058767828684866436,-0.1453910169072574
0.029163615403170213,-0.006081815752740655,0.007564831131139701,-0.10377430573392771,0.08752528638863975,-0.040895899058420324,0.10489364689843966,-0.08171745205995595,-0.013656241437214696,-0.14082358817481067,0.0800695051480408,0.28296664062352916,-0.015119698691420115,-0.011143172713833738,0.027128676546105096,-0.14716828979626287,0.053759320386370886,0.006867506858236973,0.10209869554925133,-0.14827573442885708,0.1256451031628774,0.17630023485354654,-0.10145357073896692,0.0755294911708447,-0.17028476516172597,0.017010917531975714,0.024932479511983314,-0.1788590516250244,0.051911044619527655,0.002935298117357967,-0.24196500990097236,0.008941165908120297,-0.13859659706646815,-0.17684982669129565,0.027070969296860335,0.032491288750407875,0.048477137584248126,0.07776330676193473,0.0294352174803361,-0.01110326271270674,-0.0455297466223075,0.0738824244662607,0.01805307424208245,0.14814115115677323,0.04971567584352207,-0.04110869950773309,-0.1781372869428761,-0.16926110588916649,0.21770723381644924,-0.040714346714802375,0.04802107340705411,-0.1539198558246261,0.04092664262691408,-0.23204589064504885,-0.14826553404642417,-0.0639113632029349,-0.030336547337369384,-0.05651254583739872,-0.006573394215717423,-0.11631765260401726,0.09855305220810165,-0.0260515071208842,-0.11619302222594513,-0.11858280464585423,0.18342335796384096,0.09000907167867964,-0.19555065792287915,0.09277112626990447,-0.22759789843050554,-0.17328605869249347,-0.0025062605283973157,-0.07681003504475173,-0.20334174091661883,-0.22116395632568092,-0.1737277842829946,0.11191318522207548,-0.03911801771734706,0.03667936781474477,0.0025851727044853157,0.07641787483507677,0.0075490680778847585,-0.044066344151717646,0.013404158577601294,0.1627120322988419,-0.09216543471355851,0.1585415988732059,0.03511436636772126,-0.05272282921899756,0.1987303922474841,0.1461915459180741,0.02995337876709854,0.0909828598245581,-0.001805560658864136,-0.24087742922187882,-0.06336526087485285,0.0404100689752759,0.09949758098859182,0.20216656517264753,-0.043174608261678266,0.059850100490880395,-0.19290828143543545,0.03937761993870839,0.08815477414820727,0.08621532771721722,0.051116767543811004,-0.14538404034340174,-0.1806114054676718,-0.152544409101373,0.1478079931440486,0.2175477802937579,0.03161293857530434,-0.03843010810875616,0.14218058880256834,0.08136109890327822,-0.11607213169204343,-0.051383743861891436,0.07836667740584738,-0.005568028515308927,0.17489093330042435,-0.023428304625169614,-0.14873633104537856,-0.04279012651001212,0.12702857327014125,-0.11949485268640518,-0.07566988636260052,-0.0625743128053381,-0.07259605252878247,0.005725281414159531
0.13244182821318437,-0.05662563406755441,0.005309624541441167,0.06962620107665293,0.08089977428997658,-0.10382708963012348,0.09682990963684933,-0.15172259574210933,0.011779102342984352,-0.02209945914092385,0.25249832733830546,0.3567401835471494,-0.032805710479131195,-0.04261171948293191,-0.002745929752790809,0.035068389745463606,0.18513392460942124,0.21928165097081276,-0.13759939472698213,-0.04571211794659348,-0.015501960905983039,-0.07405419871322011,0.1820386583103305,-0.06580582285714119,0.015079828388077633,-0.08387668497979829,0.13845692366262724,0.05604288635401447,0.050043077554939,0.09449633987668217,0.032542781560792364,-0.07750422335781723,-0.07685033768888246,-0.09072419397258791,0.16099269408962585,0.02833822068546169,-0.20564072548051598,-0.007566832295987089,0.10027768333202383,0.1510526862440224,-0.2891037656487714,-0.11568995434186348,0.1034868676055267,-0.08263207845812656,0.08512353091008536,-0.02080172162873251,0.13812193319552382,0.051600889094130825,0.07565505895388262,0.05502845240704026,-0.05188447429997435,0.026152639025389286,0.2843044049716145,-0.24868665728604392,0.013551502468557996,-0.20736571323267966,0.014451330851398278,0.07806003537214187,0.0039488140538728456,-0.23412437836124447,-0.00397674981884709,-0.0014888430974006601,0.14860160640463194,-0.13036673067645427,-0.11824542149412264,-0.053770490880612476,-0.16612728560073917,-0.09345640425726418,-0.17429286751776654,0.12187612255841647,0.105398990460812,0.047385470658257295,0.06615597129917936,-0.1160944622860553,0.19179428494572626,0.06962462156952687,0.1333971468076405,0.26904257458791936,-0.055410977965966106,-0.01466198887204392,0.15080621124763077,-0.0016421412911784155,-0.15421458939006738,0.1825078778642466,0.10231363250691873,0.11050372060096555,0.13843830607671137,-0.052478270474503874,0.08450541595324665,0.2027208562365318,0.21253561286705702,0.25737883713385007,0.19465337419343168,-0.10883759944063028,-0.0456098621540124,0.13744367973209146,-0.11413430711651577,0.14324728919307134,0.167580008596414,-0.023242132354886036,-0.2897940901927081,0.08094947647342918,-0.10291285031977433,0.051074545820444704,0.14482040519877445,-0.04283462739073362,0.025014383773755346,-0.1669106336481962,-0.03130685327474679,-0.2638540081354441,-0.08248396646375603,0.005300170134042218,-0.10877859945904961,-0.07496476049777494,0.08067802470912337,0.22235367059147595,0.0026951291504228973,0.28434800842529667,0.08617220525925608,-0.03234228418123974,-0.11326305999095328,-0.014149005864310425,-0.04718255644176716,-0.13980125346121222,-0.0473866884089748,0.07877796802517877,0.1256541857407179,0.01373476375142783
-0.11696087393853835,-0.208401865892121,0.05136103737862416,-0.2431841136129083,-0.11212240463510012,-0.11532159227706876,0.11119126709674715,-0.13452860099237338,0.09909007539385592,0.024498843112339914,0.13029593564502273,-0.1506276705979383,0.05222572803388646,-0.06393334876567486,-0.24600714668723525,-0.1207727583593449,0.1090178661522769,0.04412642811203035,-0.10426621512156797,-0.15348052207064436,-0.035068727972912675,-0.206942433337037,0.2007482213704158,-0.009181397866672044,0.1393379938406213,-0.09629524785229704,-0.04873141154116552,-0.14912010149023308,0.05343749220938868,-0.035545017178262035,0.04033904470012323,0.07183791561751877,0.13274444385463344,0.02428048901031288,-0.07856051810059861,0.010939225890949568,0.20112764728886934,-0.04237871555097311,0.08028072280506231,-0.0011513182973530698,-0.021694716422852006,0.042311728893310724,0.2996570647035674,0.006306505042598167,-0.14247935107644735,0.09779592427198261,0.2544974176887263,0.03582464400517667,-0.12696306854254938,-0.07343355734049435,-0.040719707976056785,-0.1595697862828188,0.07691221790736244,0.0677208819793584,-0.16254880279302464,0.00811798104245293,-0.15091010941749772,0.10403421608681988,-0.14928238407791977,0.19412209915401135,0.10407951059949556,-0.10144090309573328,-0.08654722488999153,-0.1332559455062701,0.16601404413297435,-0.14012431260938343,0.045143678980237426,7.19151163226236e-05,0.014656367116611483,-0.01873399065049423,-0.14283866249598023,-0.23258641556757872,-0.0503833537653419,-0.08245856128672889,0.028539892653047527,-0.012768354005371458,-0.10559543876248588,-0.09078208238283877,-0.11178725635194939,0.1790237127083699,-0.31577562116435587,0.1737554700706701,-0.028800604153469182,-0.07712982205735139,-0.2875726501042141,-0.0880596204075543,-0.021861794635657787,0.01822506620665293,0.05021681843323745,0.1635471595790855,-0.0586808115969442,-0.09661947506892733,0.049979268176480525,-0.01742944287296079,0.1387903023621997,-0.0016800070123250614,-0.09139159839716396,-0.2645633644536152,0.0731312840289976,0.021838907781258878,0.22803484954435202,-0.02716189228602753,-0.04257879563688519,0.23684153157706467,-0.046528751548551794,-0.24999831899699626,0.20932337176477653,0.002658533858706335,0.06367438773248332,-0.1303018010075126,-0.01788984978101492,-0.157357254866011,0.056211523035450815,-0.11623990206112167,0.09236328410150141,-0.0974439275339982,-0.1040399569526366,-0.13581095216305067,-0.0996190091968841,-0.18937104424773799,-0.11104107217388151,-0.01711853541838397,-0.03814508388664198,-0.19188527519988835,-0.024763759857125547,-0.1593874666858278,-0.0932447345208739,-0.163373934579948
-0.11940030038326323,-0.2390644591625027,-0.05723861892822899,-0.013246980759308713,0.06701370226258647,-0.007856695707835287,0.014624247897167987,0.18592706725112568,-0.1230349349878876,0.2247357917434436,0.12669062844617113,0.03559179311588912,-0.08301126224328494,-0.027338034119478608,0.09523891074131055,-0.16272130265192128,-0.0726530870509196,0.14085298088472906,0.024090832286326615,-0.28370434857596954,-0.028086181292832205,0.015466562382971666,0.01921305887893364,-0.2531926890947332,-0.003850910587964567,-0.23411508763332212,-0.024067244851224575,-0.0738628730276951,0.09275413291083028,-0.14194272446545272,0.10010397444390423,-0.13974008048702896,0.02729642614729325,0.06082949246625212,0.013117137292685084,-0.14587502923327256,-0.05865488874776755,-0.0512594357103243,-0.022881412233860747,0.060163291124959675,0.03926581077065734,0.04469386523852482,-0.14519346345427808,0.10087323309180432,-0.09411629549795726,-0.051876869644618864,-0.09653435119121609,0.3019605331785085,-0.015093141562896756,-0.048392427542328226,-0.06688989152356131,0.09616810893834703,-0.10055979365851733,-0.10740218890985974,-0.032416218849458556,-0.043070557323155345,-0.045868146488787384,-0.023658461049438095,0.042678088966551876,-0.05589606704592675,0.10390536106164437,-0.03735376670539741,-0.09289115316712121,-0.05200637409138291,-0.14336219324498584,0.06744897693473068,-0.25222566980412126,-0.09737671411350378,0.012454385130150777,0.02609897020250839,0.0554495807387825,0.11757545169565704,-0.09773078572496945,-0.13851173514666817,0.1581566512447856,-0.02420804252062208,0.08637902212894373,-0.32715424256245274,0.19106517926562872,-0.18990340889300492,-0.004891730320826941,0.12873708401153183,0.1664958910218525,-0.19345584613044095,0.16885391596698715,-0.1513951312456533,-0.1280111264939254,-0.17711994376034165,0.14496111612667373,-0.08845798653728973,0.03132282816684229,0.03889279440988725,0.011920115107166345,0.1938811282838034,-0.014996418982444928,0.1766171141527767,0.031872669955109324,0.19689138821103944,-0.1754502627964761,-0.013861612639834344,-0.06699575508699945,0.0024838936931980845,-0.2325063681390578,0.17576827911601178,0.29900718591251413,-0.17424354411005913,-0.10494902443391696,-0.33067802999543905,-0.04015645368485982,-0.02147734383984843,-0.05484665835155705,0.05006876285606808,0.10581565906357798,0.17927492899214806,0.2126224861597454,-0.13237062268088037,0.05879926883890641,0.03782538059216705,-0.00984052649206997,0.03672056240546596,-0.04729605752861005,-0.016931113442038303,-0.19904324695252765,-0.02276936477746196,-0.2538830402345683,0.03364324466466951,-0.09170474303584789,-0.05133293664335606
-0.06815327630367286,-0.13528648536192245,0.0472322165930026,-0.050352022428343995,0.0368080255121073,-0.19872071694762017,0.04029590577501082,0.057538972640880245,0.06983528122175606,-0.16730720137194777,0.10724705240362005,-0.005630332523022342,-0.15363614957993588,-0.09190590020670236,-0.11696532334876505,-0.09317062487431872,0.059389200281677365,0.061074371761606516,-0.022073608246381732,-0.06237951686608742,0.07481343795127252,-0.11232197565996249,-0.004508738325415816,-0.03600686603766934,-0.2004554032230752,0.16843512496283988,0.07907504118921849,0.001804808413903759,0.08303598791261159,-0.005463640216732736,0.006749669386485738,-0.06258995618163987,-0.20243245532943963,0.15416538263272997,-0.0710046246596969,0.09119649454139188,-0.03885037060524186,0.20335881884898066,0.06417841477361313,-0.05108842946883654,-0.04896918155804602,-0.41143599615075593,0.15085115868916518,0.07724138837125909,0.02223798014399709,0.06512346479201074,0.006846622862542059,-0.13876416588999288,0.13189650322699176,-0.003740026501479813,-0.203169831064305,0.058798618414669296,-0.10097298837591581,0.07542182450860649,0.03246792762866743,0.13196082509145315,-0.08110696239056574,0.228341659034846,0.02089078706452736,0.15409505115624297,0.24543467619459483,-0.05851758408258946,-0.047655012977341,0.09075281166690496,-0.0488842875606231,-0.08208916937907644,0.20965839905344388,-0.17047116940454132,0.23629203513903976,0.08104414682954009,-0.13348382550356172,-0.29379603117575165,-0.048629468384042814,-0.30323377431185655,0.12583403222351067,-0.008845440014836196,-0.12304217147420561,-0.15531704761659246,-0.27621735230248956,-0.10996330513759763,0.044014182426663634,0.008520327026325767,-0.2862539833966817,-0.034429137049500035,0.035185691255281794,-0.13599054032139404,-0.007090313807488887,0.1194843430471766,-0.12136442751250405,0.2601513957694932,0.2824286202094396,-0.19062278646703762,0.003284548816591893,0.03331312094523636,0.1277860334943563,-0.12289068767634889,0.291461039502932,-0.30325827306560293,0.25606961818846335,-0.13442798441832662,0.08822959581016784,0.07436952777911654,0.1335476618002797,0.03268395102788833,0.003424823133163985,0.19329700023780036,-0.03262862696971228,-0.02716162842500305,0.027502251971568345,0.0186576740010691,0.04177526568465481,-0.06004807341768133,-0.05830935315341907,0.2319695835765763,-0.16215180497196233,0.04202888976750514,-0.048464019384195665,-0.08337774880527139,0.14715436401925244,-0.17959747339161228,-0.04887443180586022,0.07383423835971856,0.009108941770871319,-0.05524348294222795,-0.15401792774550932,-0.1581416799081537,-0.022914265316640103,0.08420497940959384
0.04631789454330779,0.18648447252468392,-0.09384208405089745,0.09821834472502222,0.11535771802607162,0.06421746186262216,0.0366328194917362,-0.02277332350415506,0.17933846562105474,-0.039485218239430665,0.0407186073165658,-0.0907455394738793,-0.12273002313343259,-0.20355506881494,0.07903449862597926,0.15196662061707802,0.07623202178027906,0.09239544119454271,0.06994471437973292,-0.23339196337029983,-0.13474032068809533,-0.023928536543832375,0.19378383028294754,-0.10537309712374707,-0.05656131525271477,0.09854184857766296,0.04565353105024892,-0.15969659495428878,-0.04867995007173209,0.06442503468825762,0.13836693317740886,0.06115539936892888,0.1688178386452778,-0.1553291747312211,0.18527655553542585,-0.10202413066613016,-0.41715174400833405,0.10692371785953372,-0.08311595735194387,0.03487708972469109,0.20839268979104486,-0.1572470148182472,-0.057702503268390534,0.017347878701249653,-0.25342268286012354,0.005190436167850792,0.009389339840141323,0.23144014149895037,-0.20562952820677755,-0.031478065345967234,-0.2667726170592534,-0.09519362917419767,0.18785983606245818,0.015052143133632342,0.19661724483327433,-0.19999292536204444,0.0872664361390552,-0.08144980545962337,-0.13817690281920025,-0.2524976279861282,0.023269922760855787,0.0065419340507024614,0.19604299141291284,-0.05908222213100115,0.1693055723173776,0.17402034184736312,0.013998402618993228,0.18692299738860949,-0.05003726764344197,-0.009453943557496925,-0.1093352344032674,0.04623350892687591,-0.062191267237718284,0.01594811020105625,-0.07949313821024498,0.06436327079160882,-0.1629740306575913,-0.2592763210058269,0.17138793746944128,-0.009699435472370517,-0.26484624561371245,-0.23603043441672222,-0.16690481406569443,0.10236220800573774,-0.03441166099806255,-0.1490148505356221,-0.06385469099871585,0.08608106081379695,-0.039120776602496424,0.2255719607148101,0.2199756896415291,-0.17770828627227736,0.26908287296806227,0.16447885680755361,-0.258771295089415,0.061192980553579385,-0.013586619763091135,0.0026980691349595583,-0.019486774415431486,0.03928421508798347,0.002821795539926688,-0.042895017391796825,0.17609145663253417,0.22448216440721103,0.04854524561161596,-0.11618074283323356,-0.01622833788456234,-0.18748224431736618,-0.1564182690903013,0.07995782746906109,0.24136195709766922,-0.0650830028728486,-0.19454795788782045,-0.008293215415747478,-0.032647333033595835,0.30471847390244106,-0.10584638886125894,0.09789769966681333,0.04496533225694978,-0.02333181111528668,0.1303705392149038,0.42669692618482835,-0.02879138386939954,-0.23392741870393374,-0.00540307375317388,-0.36226729535791913,-0.30438231048929276,0.09095790515891747
-0.2090374796177801,0.06898589273574979,0.005923174935887241,-0.14444777286221097,0.036800101310740345,-0.13141715704835047,0.2632837887793637,-0.1300664926682566,0.013067769535268382,0.03338516071398918,-0.09125569336769625,0.016349482667769772,-0.24826672400006788,-0.14733298965752414,-0.12833697122537022,-0.00040596607674016637,-0.13392528336194304,-0.13450995653193898,0.21745898983811146,-0.06568773809183225,-0.03793573561176165,0.03555812203216186,0.0941170589258865,0.15103415201211087,0.010033737984436115,0.03155159324486398,0.057630891584308445,0.06810435561039804,0.019929793940900747,0.03921459456158199,-0.00994989073628831,-0.004597130173926118,0.21090969956369357,0.3674098307838511,-0.03998341971606089,0.1617698541107487,-0.05698205635138164,0.0810037178534665,0.1858476667435474,-0.038210141202371865,0.1547696668335248,-0.32573161821365276,0.023514888119482397,0.042142132636344365,-0.02991257921291732,0.12340314530006814,-0.08498295642428538,-0.020924137375095363,-0.04103905804188654,-0.009131632721764869,0.2909523846776686,0.07172042442002637,-0.19438548615945314,0.11981785711746994,-0.11588945482598514,0.03071746701359189,-0.06945792968085836,-0.09615703440344389,0.20095381685858654,0.0397784138189756,0.07336733644668626,-0.058918614395961424,-0.0053077337611714326,-0.1529734386018451,-0.0011517398885019933,0.11582953548857422,0.20021447479336474,-0.14808483273672274,-0.20076249382868763,0.0578055532188535,-0.14278116282298475,-0.07964879800344497,0.1854407232168271,0.23366218324346666,0.07974170257140357,0.1097627855164808,-0.02535180263276285,0.06314472848723403,0.13381730520810622,-0.04295621079989531,0.10388864284024582,-0.060848848163874154,-0.14169216902931325,0.1777007765405651,0.09497337130163686,0.029303696189417885,0.27738042547677916,-0.1567337295501731,0.153861749415191,0.13214118099152497,0.02585570027045492,-0.047820405006752324,0.246587369088113,-0.004539831218348777,-0.18437850188157356,-0.1910812073960252,0.013652493501896576,0.38029869248394904,0.00023345213313147545,0.028730633771946797,-0.23357316007463705,0.008205288864280597,0.001909559951592131,0.07430527424936526,-0.06942783364818789,0.07568199587090796,0.03233386138484449,0.15234161147670905,0.0026629760111705507,0.010462459925520995,-0.05127978452127742,-0.10894084983224672,-0.24519268811583744,0.09545925905497378,0.21382683124321725,0.02543870741527857,-0.08789479257312582,0.003145347624036998,-0.06530643521816115,-0.03580505983444047,0.10800386437823188,0.18086626053079374,0.2047616414055184,0.1283076697182128,-0.03310343097889243,-0.0478146076363952,-0.08221367328115295,-4.6479549527853154e-05
0.12180312271581674,-0.03896243020442944,0.22698713880905555,0.04942336901087296,-0.11401323709003709,-0.1978612603462692,0.15947128966102336,-0.005871501754847015,0.060303970325724446,-0.2390137168272206,0.18544263816467343,0.07069013190702472,-0.1476826567138804,0.0278961034101706,-0.24677038475387553,-0.12329497243560975,0.01059833720346812,-0.15475292591772122,-0.04826028230207367,0.045171078279709447,0.22899661162933463,-0.1674645379981889,-0.16421604094149628,-0.21163206937624954,0.05340121380577665,0.120054265061263,0.29198036219693035,0.031217050891381555,0.11636180181210345,0.023370856044176446,0.09320125199078098,-0.1673209375298217,-0.20777640882500023,0.03036891407271443,0.007835100275608535,-0.21748901152692687,0.047197967655866986,-0.061948750459158576,0.04669502534557997,0.1683414783943253,0.21434538556327926,0.009682700943463156,-0.05086771758555895,0.1159197889096304,0.07911738803295129,-0.07078726338520842,0.12760186809140373,-0.038808525237617394,-0.0557592211066119,-0.2154214912884735,-0.0339331885130687,-0.033068998933979285,0.004930600772303806,0.17932215268462154,0.09409338023098354,-0.08309183159538568,0.07605314211929769,-0.057357254120153335,0.027682451594661525,-0.28247515384987226,0.0815602140504318,0.017123306619983424,-0.29859667397268413,0.06806733560508821,0.0024504404190888725,0.011519245154457377,0.24532345360056546,-0.22341497270377322,-0.018707808099542797,0.1740153602841184,0.11838523167810844,-0.11748328846918145,0.21512228440487977,0.03444568456671497,0.08879855158166947,-0.18070969143777565,-0.021525836093666807,0.002801926878805055,-0.11925323387107155,0.19292859188158454,0.048082187006057375,0.0957851975871585,-0.03347445986270653,0.03702208139976208,0.10664417883740232,0.14401849435242572,-0.263663856039906,0.08330833006696518,0.1354517383259779,0.13284418206368256,-0.13490327933228946,-0.1515038294092987,0.23301134630373224,0.0836705820383191,-0.2110509215771192,0.30334644475207945,-0.4082189207794084,-0.06990833205190188,-0.2411651404834638,-0.0029323006263434395,-0.11006109844401953,-0.15106359449040466,-0.10665443162444266,-0.052462683782968214,0.09958663538668473,-0.015315785623621065,0.12887453898078766,-0.13618160325299192,0.13392957223718557,-0.06942204132460868,-0.0856197851975829,0.12707746938779818,-0.027482963122763375,0.10392318748281557,0.2809414231812632,0.09009451984749278,0.10330558534866975,-0.023268830034417542,0.09546559177231888,0.09760465486562732,0.08863301132598263,-0.12654266873783623,0.0406685577722327,0.3034530986951449,-0.051281211790875796,-0.23637194583260518,0.09681819942273645,-0.11860731108987643
0.018338985323296562,0.15596052156169773,0.23683784672099462,-0.1591456034152721,0.2580539674177477,0.08313605916840827,-0.03816743604582336,-0.03567083143144721,-0.0820692262346312,-0.22323424870345707,0.2538716270323524,-0.21124512945772608,-0.04870238479351542,-0.06425954336058147,-0.08658643825086718,0.03613069166911846,-0.07166014894489788,-0.1096576207696752,-0.05563358936442527,-0.021041283562653272,-0.2042425114858058,0.09503644659542722,0.0036117814707948732,0.06850929414488555,0.06842062897574208,0.1892661883534764,0.05986933216341483,-0.04006129951622807,-0.04226990191554565,0.09875150860063045,0.18823498680824205,-0.38892878211643434,0.14317786225497672,-0.0022621548252189897,0.12230628497307947,-0.07547533049575342,0.1021385988170313,-0.01906786030879549,0.28670590159868486,-0.008561170408569593,-0.08959053471911052,-0.0913041061794543,-0.175034219507,-0.06999253256232016,-0.061777687548496434,0.036019890180001596,-0.1533923982497543,-0.0971972060480753,-0.010667468709948339,-0.04735374806807804,0.1723310900151265,0.0590877527201464,-0.2715681794716728,-0.032002784732055777,0.11507793579911567,0.13218166866391737,-0.008672449018567379,-0.0017330061990290288,-0.08154684560771785,0.18447541468049228,-0.1959737857202284,0.04620925269804347,0.14842496016658766,0.24191768759483903,-0.12930201254771959,-0.04714130812278829,-0.07905836757152739,-0.029163231124794787,0.025252829599247167,-0.12237307929886725,-0.17906207623279294,0.031005540484818097,0.16430347695045172,0.11929581025381503,-0.05506604857100532,-0.05386616808305544,-0.017650569713742445,-0.2286600131477565,-0.15694130820139746,0.04128006468711938,0.04220182804159657,0.1705101863142365,0.16598792125303738,0.08260867349579946,-0.11196392273088965,-0.25084316306268006,0.31895587913748363,0.14825342040433626,0.13394420817265856,0.07566388443250863,0.13063797689677553,0.03438243661941271,-0.23621571194861324,0.06915123885142135,0.1066353657080805,0.09621601844219496,-0.27160162467383125,-0.023464622623910577,0.06187171711397606,-0.03175380888406368,0.23672131681116115,0.12041561121258391,0.0007168009672697753,-0.10405511793850712,0.09966976590326632,-0.21880331636201827,0.07050898205994732,0.14084900420146446,0.026166408735859452,0.04303325483291904,-0.02802900858790656,0.16124904721963623,0.02217604990906213,0.12798104288715967,0.08753930244330445,0.02907623419607833,0.10094626314818719,-0.09400340162739602,0.10841350893471946,0.2085129738588942,-0.0091778988131117,0.21308065697896988,0.3831344943117545,0.015510161054304687,0.11593533518966118,-0.14111881850276933,0.13728246176857406,0.2318601932358563
-0.1692810680815219,0.0046855864248653645,0.053638555165088316,0.1460007868495112,0.14140659786578075,0.22738052792180036,0.05743918977713174,0.12201889923511294,0.1296278785226517,0.05385595888329557,0.04158158148912791,-0.019850382373851894,0.04656347918435107,0.07523703945192337,-0.006575404555650113,-0.08386304675059106,0.0004974350044797147,-0.1565538066774192,-0.03506276532165506,0.12390222777839381,0.05336784524167662,0.12327961375290027,-0.09880872849588168,0.18859168511735938,-0.005442736701054836,0.28246357456689225,-0.2021167262078914,-0.08830267275719655,-0.01986519453873988,-0.03923319798576248,-0.08228222725798727,0.06154194139956695,0.262538361234681,0.23753372340399442,-0.016232472298967154,-0.09030232738695045,0.0988296262270187,0.05576461529979533,0.0831500682045187,0.31887099920895723,0.19275585555762606,0.09882175804234522,-0.20446645173366018,-0.011615959905102094,0.1674759716128237,0.005720955329172672,0.2277325969633242,0.19315875426170748,-0.2056698838506967,-0.2175166063344645,-0.03590208675678984,-0.008882443157466365,-0.28762401753204503,-0.24590891035590554,-0.08127193625952354,0.28620543304522805,-0.16526039883520716,0.10887717089884706,0.11017256981372352,-0.2894355979234496,-0.006274384254634997,-0.1375424044832527,0.08848023169470105,0.22273021922399608,0.18610927869578253,-0.23438025768166273,-0.01063171205182597,-0.09715466005276606,0.035235095920658425,-0.004501057028673215,0.11732770422814426,-0.14816158129990945,-0.14607031634458217,-0.060182460729886124,-0.2059932442148898,0.34291458581194145,-0.1305519903548263,-0.3134386772135143,0.10531234074599005,-0.004907432629827989,-0.19400919922233928,0.0489527652682849,-0.22050532729954198,-0.1594560895872489,0.16179829317605957,-0.04279485808455621,-0.06400997738603449,-0.13585180470891625,0.09838396753308666,-0.0269027273026264,0.013712352759711091,-0.09034324238713437,0.06268365621024241,-0.006436079883177459,0.3549981323550953,0.010780843490989067,-0.1436553100752832,-0.004990366697043404,0.1731879502851051,0.028539087207300196,0.24039344221685918,0.13057347161796976,-0.149467258368644,-0.23036748989391606,0.20249912577062185,0.025155781742806547,0.0747206000538237,0.15781061639512323,0.12888206456156487,0.02019249326442592,0.19862623454931916,-0.1629091182998077,-0.07393878595158691,0.23644680243035543,0.03439934169733539,0.25928364368876267,0.1706696024936751,0.0374350532381267,0.21455863056689983,-0.02419841101108907,0.04428961679297378,-0.17293992460007282,0.1056438875591077,0.059521097781163025,-0.07591233070668989,-0.31948217625473424,0.10917581943219232,0.062261072838437966
0.013281536290557679,-0.08857270216924387,0.10792352425962856,0.11814825934545013,0.16443545000390214,0.19289054953684892,0.2743794851202854,0.24735750260116585,-0.01932071228406099,-0.10774529948086516,0.32035945142237465,0.15278758721112268,-0.06424949826810511,0.048101519890344425,0.22092283217205164,-0.054015374265335946,0.13585152402602343,0.03231326674100741,0.15604885063658028,-0.0075818181595721165,0.1493375644949486,-0.21227189595442258,0.05357157014233348,0.10146651120009001,0.06391598681479788,-0.1475418868718289,0.17389974296105196,-0.05918812368914991,-0.0954343602232916,-0.26787212801383403,-0.08023240066654222,-0.2682998066711142,-0.04593010626947549,-0.01017621983084555,0.15027545688972546,-0.03803143924609899,0.07032550079760766,-0.0916065874331494,0.2815258810878913,0.08108546362799744,-0.27835787616384783,-0.09289970360510393,-0.028097568621185853,-0.20071701556350435,0.003024132705063459,0.09063960634193097,0.07966854815872619,-0.005417543064570899,0.06737524097353208,-0.07883202928060469,-0.09078836664780927,0.25840757188607955,0.05944873143466133,0.27033167896936167,0.3044825270050745,0.03684372456543507,-0.16884464394602353,0.03478472363122621,0.08194995296622677,0.27556719510053823,0.15843963799100036,0.04115091423905704,0.09708067780290325,0.11872258882369068,0.22103859815675445,-0.09715580410587515,0.1227335804321848,0.005032732201849584,0.24748811385120859,-0.18006199097917328,0.12947140699422835,0.047976265773535066,0.03446092232482348,-0.24265275773764075,0.0823175984237021,0.19040619946697543,0.04950856454669239,-0.11660637692843864,0.1905750221979909,0.043430186327771306,0.2957372474320331,-0.041737152351802524,0.05899679158290974,0.04512795015788178,0.12200033186143751,-0.06462143315651012,0.1525589657827233,0.06931927504937857,-0.10137231823559517,0.015524526552391602,0.04910799968163515,0.005659715649383375,0.208115167950881,0.0037402747700467824,-0.013934552807251572,0.17296722783421176,0.07394252066633618,-0.08328583604717828,-0.05751004728412932,-0.0955064651083116,-0.08050118388791816,0.030418353278227908,0.22106672002578798,0.08119438517730164,0.21698920862244883,0.06978599719039823,0.1637985232922915,0.035183043411373946,0.18862949562617282,0.0278796250111671,-0.07473383577866372,-0.0506633898277018,-0.002478357091502612,-0.06468900210636788,0.11730769146627015,-0.10867727075921592,-0.10266273295199141,0.07327918862563829,0.09556843701323275,-0.08013652965974652,0.10205193491556004,0.03682641889254736,0.07346966320828204,-0.046430514849197684,-0.0330338326777791,-0.14376324910311047,0.10265696843363702,0.1510903648405115
0.19235642110365034,0.20094503389525523,0.1816864463264959,0.03278252742081015,-0.060358682568197985,0.07052317045740103,0.06667180617581851,0.060997634053379796,0.14117332267149568,-0.17690240163223594,-0.25047590294374583,0.31268993952280044,0.21001165795910773,0.023980394781200325,-0.11398290698779098,-0.13121012225500644,-0.19395631435507943,-0.20628634871547274,0.28497107723013615,-0.02680769506255511,0.06837955087612774,0.06060230634888365,-0.007998100491119375,-0.0040785557030830425,0.16664837762726692,-0.042102669320842986,-0.09675860610650723,0.05056729130678469,0.2634510698728062,-0.2771208302557977,0.011492576447703271,-0.07558091733341907,-0.000247356015568961,0.10477204110998135,-0.1252893125812585,0.15532412187611644,0.028627286185784386,-0.0009704688190905085,-0.06768612044840645,0.11903225233165642,-0.03686591839886075,0.08329183963141837,0.0843324576739397,-0.06900498646671911,0.05020836531981945,-0.008715066024746407,-0.14275718990116767,-0.19204020540561234,-0.19024160630811668,-0.23508477978772727,0.00882545506984646,0.3188717746082198,0.17558110578440606,0.16988416588057506,0.030577261903453213,-0.30121529762215654,0.13471039990294134,-0.17640573887143543,-0.11864584539479454,-0.02818105193720907,0.10097329972407425,-0.2576619182352279,-0.06055381868662361,-0.03243177674994026,-0.08102061919577323,-0.04298345469190974,-0.08378656522499682,-0.02407420127356792,-0.47447722725913416,-0.02919516216432947,0.0963303058107108,0.18122490222253582,0.045767596904863095,0.02404620800508547,0.11223132359620619,0.08861586769045622,-0.0942380569819598,-0.04956252085262151,0.0037348370661848236,0.21085133149921953,-0.24011203006621673,-0.06120286413773039,0.015866732509322502,0.05797661471493458,-0.10776301085850207,0.1743954089746559,0.0178518344902165,-0.15018961583981233,-0.021433690647611515,0.25656291384682134,0.16499056533914794,-0.05638408265754391,0.038471302823487825,0.05802334185259159,-0.06625652951199075,0.04856738057385394,0.03126712692379615,0.2538821215178868,-0.3156576230257903,0.11832544884953577,-0.1237819416237497,0.02085922403320465,-0.08439979355456262,-0.31973748689319936,0.08669741803410515,-0.14008376905907374,0.11350659886281546,-0.20793600752950184,0.20648505641472753,-0.031815128009492565,-0.07720529856907414,0.17667450064354145,0.014379337413239924,-0.04363911771584499,-0.10915444442442623,-0.12380478695057731,0.09376465967587148,-0.08055273655288268,0.12002047685509894,-0.0918940408783034,-0.030048148793715004,0.08584921618488152,0.14856643005201953,0.2755933605809952,-0.06713319805018704,-0.14828023087803502,0.015399206611994128,-0.060392528609986486
0.09509881243119857,-0.35438394445309684,0.13307526100597322,-0.05713065988256366,0.05543763532573679,-0.03013701950204542,0.020647515538828924,-0.0994657865460685,-0.22461700141565996,-0.13805411734243636,0.029546457601523298,0.14509382805867302,0.10217845081681225,0.0710584286216492,0.0367767808676561,-0.08502418217974142,0.18153188931479033,0.14731003434387874,0.14021881982414408,0.033203877687925015,0.12129303575872612,-0.08178474332726583,0.04998539784827351,-0.015702229484559464,0.17976601460243988,0.1936402603938563,-0.14449859697307693,-0.037248296258390566,0.07220372482258577,0.12047472947815746,0.15242092826469444,0.12109074244544442,-0.07174492125311896,0.014861122365658445,0.03795270047838364,0.14202596575092896,0.2884207339441862,-0.09920170686060222,-0.15148577698793558,0.11644987994294356,-0.2519644372660552,0.09744378615224976,0.19138275169052202,0.09676041096118763,0.11881644353816152,-0.03780701458106347,0.2083042443663719,0.06464200490394224,0.07705476133129692,0.08646287783865397,-0.16883423907181483,0.045917440644755336,-0.12876173285820924,-0.042409430616556325,-0.00865656728654168,-0.04844985327561691,-0.13140856976646997,-0.293765560682327,-0.0056746927634810885,0.017200139997231897,0.18187501237422377,0.20818142966625763,0.031548669719532366,0.11005793180092484,0.05542031937899485,-0.07793152036351218,-0.055305221823728386,0.19574796365696623,0.07240542646409373,0.06981070454829133,-0.22057839751523592,-0.06917913621031359,0.34999118403426727,0.0696191086728838,0.13007609169547907,-0.15940820305123224,-0.07868470299447645,0.04083284542547122,0.07229866699214271,0.1623591853641964,0.08300688756268171,0.1224544076758112,-0.07568303552338737,-0.06939163151936278,0.11946197511253581,-0.06724222955352013,-0.16957376690620138,-0.17862919835957625,-0.14211872183332178,0.3123752629449648,0.0730369382657831,0.04625496390566799,0.20599529768435257,-0.11328849512887147,-0.10646506338260539,0.23422436207854835,0.06591429084329885,0.21350551755855773,0.18188743562123502,0.2308358935322142,0.18577320115262103,0.27285464862792524,-0.03926396783318998,-0.07693025935552371,-0.04128833180907637,0.25057448403487487,0.29490752924287755,-0.08995457767694505,-0.07119290353596032,-0.1285648237532117,-0.2189894473492872,-0.2614164842218148,-0.013063989892825685,0.1409824639685154,-0.03638554977278018,-0.11906069259057203,-0.13785613924928236,0.049614044597012415,-0.18644764151376259,0.13666236552601393,-0.1676942528929798,0.2438939388049648,0.18402887376790555,0.1944770482635497,0.032892931977845846,0.09871765355884325,-0.05539194902181936,0.2678013564386133
0.14648648343033194,0.16892473904818825,-0.04330795609126442,-0.0017304066956326765,0.1556167283459234,0.12116807394278233,-0.16842049406780507,-0.03943573708521467,0.03240054146556559,0.03880857502015493,0.051857839795253005,0.08325276327347322,0.04167654476598032,-0.10220675436479662,0.07128906330257982,0.08680658334804978,0.08634981757625694,0.0008316552894865964,-0.09054218816788141,0.12784692266743644,0.34638791261317137,-0.0438911930757693,-0.05161714239610964,0.28350127877611914,-0.177191361764302,-0.06387197722465586,0.21261261202861464,-0.0585404857589687,0.03960225310385953,0.02666365648244145,0.17821938070716567,-0.10294781954753496,0.09005445560055118,-0.03332572242330816,0.034733530970710386,0.22472865449232043,0.03388515052179755,-0.12673118135967024,0.026729458685770993,0.12720501221506533,0.07123104959733553,-0.44262620038766853,-0.08592587205710214,-0.1268839600908891,-0.007596033849790027,0.05792843793103761,-0.03318653941571649,-0.05246376908160792,0.2101359704186676,0.06252993647866814,-0.00019336865230655366,-0.1544954200173749,0.2700282964085317,0.2351231526212663,-0.08456694599821817,0.04662105584056914,0.10694498900589075,0.08734320390287989,-0.1880464379215577,-0.28113786792429446,0.03697851938876203,0.20162138612773942,0.05914498586136872,-0.01893822519933915,0.07498826531499624,0.02520405612164591,-0.02694097413152217,-0.009473747534869945,-0.04967565138786438,0.09384898237812854,0.08331665080096405,0.04531689440791009,0.09910196645723093,0.18287755203328862,-0.32389048143445454,-0.12413391541532685,-0.04958368658022359,0.10096853273799958,0.026300286256856393,0.18211410093534666,-0.09323530839977766,0.18192085979152653,0.14509050879275442,0.06590663584591551,0.07017237946889293,0.22841607207083914,-0.09943628535762353,0.06186845787199787,0.08853816376471169,0.196651899509571,0.27357774114094885,0.0364513960076861,0.0880297100468771,-0.13265817882380374,-0.025272961483422708,0.30941620948000303,-0.11281324260032971,0.059946768445027415,-0.060088995806389,0.26925500842631356,-0.10200909132655922,0.11047794119145884,-0.011413456937589533,-0.12893974132882052,-0.015501652594452936,0.00013661014219109034,-0.05592041801569684,-0.13248738750989988,0.2211622056354719,0.04620492222938058,0.10549568482356982,-0.03781358266584427,0.25493869507994094,-0.0458761343329418,-0.0604599136050341,0.023033488650232775,-0.08268224392357759,-0.009721177599518231,0.032029013081980515,-0.15335231047540732,0.015373578578013481,0.16491866957074014,-0.03435915415409214,0.12335629307086197,0.03454056845670187,-0.0974693562696247,-0.06408348752504744,0.011749696807163616
-0.12134001302608424,0.07730057704779263,0.006326821238635614,-0.06408934608841568,0.15493290098252993,-0.1148451082535084,-0.003957832147810053,0.004772441053553739,0.11726112895053191,-0.08331429863411792,0.1227585039946885,-0.05645603920811762,0.19249592297472753,0.20039015441850003,0.2828015502277571,0.06771135242852454,0.06558213303774903,-0.03010659110782984,0.18318646948304193,-0.01599981849069327,0.13890594565058575,0.1727399037949555,-0.10898241774529663,0.11480203061568386,0.35025527844946447,-0.08024556581090998,0.1746461514648618,-0.03973401084681775,-0.0885342920858139,-0.21584264446811968,-0.02402000220382947,0.11632049223838452,0.08164310773309896,-0.06660659779841624,0.05040868162027961,0.020632693928714953,-0.11689619030880267,0.02276372329082595,0.026777862352773796,0.1260333892621375,0.031818501795889846,-0.08188764624807485,-0.29672142848963295,0.19613475420381202,0.09093721134578726,0.13546488852136168,0.04027501981690212,0.04148588771506109,-0.3858262158585258,0.201730959341507,0.034448795131932816,0.07504659935948836,-0.18139815169168272,-0.05683056831349021,0.12956217580134932,0.011760414802159013,-0.1280636198930552,0.008549684275295507,-0.3140881450402557,0.02038590656922895,-0.1145097309853214,-0.029099638812838717,-0.040168525604169954,-0.12008062727698043,-0.10153526715588142,-0.041137736531743976,0.19010335445470453,0.12553403328948218,-0.09058344590331652,-0.19940021481726697,-0.1151363736000098,-0.12511117341315692,-0.031523335094270646,0.07827354932237432,-0.06262263170229013,-0.17205528712814916,-0.06472960306739724,-0.00033497762407964145,0.18648808613564216,0.2256827296107025,-0.07683633127229528,-0.09666731776782529,0.0267379018931534,0.16661401189926658,0.046472195539369446,0.07782985061664201,0.02292196251051663,-0.005519459069004041,-0.22001330575285405,0.06893212017258457,-0.17532354016523277,-0.06440814977661659,-0.014706943510166423,-0.04182486994801767,-0.08134189694595689,-0.07246771308927204,0.17203900130868496,0.016379168726729836,-0.06468155756853014,-0.21739819575381744,-0.0032683675978058845,-0.19616389571389495,-0.012825352767176373,0.026220304608634937,-0.06968473293466078,-0.1144300129171891,0.034787525596786516,0.10325659541394207,0.07297814757662485,0.2353839602861876,0.1439607215463447,0.04432092382527187,0.1470388227753185,-0.07323651604421318,0.04070346601650505,0.055719484858248944,-0.079620411160299,-0.2166529847380338,-0.06591008584903818,-0.09539851762702645,-0.20808644777894209,-0.0800040704296256,0.1667445388929129,0.1405674674581651,-0.06978717584972156,0.1741518429195762,0.004094152179327302,0.1257238727119895
0.05336905155188345,-0.14246954996940028,0.06926861739400568,-0.007572935516750572,0.25885505423897553,0.074874166826396,0.10817051439270874,0.018066950573237574,0.12081926516222108,-0.017408965466828213,0.14010098418495484,-0.08993450095904348,-0.06379767287898162,-0.2884317455225699,-0.1278741928539017,-0.05303136093216847,-0.15160906929493806,0.1689602988691822,-0.005562536034708697,0.004710220854743707,0.10331259888629696,-0.04561758309892197,-0.04234820312055265,-0.04358661795200739,0.07175916197574249,0.1503017605030505,0.08059457609184498,-0.10518520610968714,-0.041810939433477974,0.02744967564918074,0.09730118785429467,-0.07235003175522671,-0.14818282600742153,-0.01043827590312689,-0.17466493104820208,-0.25929705859359126,0.06176900625043151,-0.025946876510443705,0.16895003586189974,-0.04431173709730422,0.20767362389632532,-0.035859075409289266,0.02184353887381539,-0.02701622502481372,-0.1456184077032871,0.1932889319844536,-0.17339714676589305,0.02452581564379404,0.10665615983696798,-0.052896934961242904,0.0728170641521327,-0.08552668748104059,0.17966165337192402,-0.18825068322808353,0.06781504526806661,-0.02057198553652935,-0.09212070014954281,-0.06949883126792844,0.03470494259232895,-0.12205574229380556,-0.1695400028332052,0.004434260845689174,-0.1932293891860757,0.2543129265190677,0.07791570300634437,-0.0294365366587741,-0.06999338313127332,-0.3317028286810345,0.20053716625143508,0.04392861004855997,0.1843918194240471,0.18539083795491218,0.12469646607020293,0.02666240474129402,0.054436293875163695,0.027894886220215305,0.09559501076345218,-0.0776278394233848,-0.05870880983417424,-0.26414380628783024,0.026724867828931763,-0.12194513957073909,0.038754741610822,0.045608260583357,-0.2125238701128727,0.27761498216428765,-0.1234267180777687,-0.25911307307723713,0.11917749457799674,-0.2465853798019279,0.040048780696610914,-0.1938811524435902,0.04131368417038662,0.05513953417042055,0.09573352158266049,-0.015340732975843457,0.21988523045155162,-0.04247035318144471,0.14406197404192134,-0.08462315318644142,-0.019734786606474562,-0.13771478565834686,0.015409372526763396,-0.2017647575487776,0.030030113004534495,0.022380318032426027,0.10312804826498861,0.1533249285729904,-0.052315846890142036,0.18030931108317133,0.0708173498507944,-0.1563646071888574,0.03591954916005313,0.09879212788610846,-0.2010542640862164,0.00887730772884529,0.046138217579208426,0.1675989690239091,-0.07379749387943516,0.09790737432222374,0.11057067386435705,0.24297683194715786,0.10542285887900371,0.044419751722931104,0.18340182248688772,-0.03301595473121708,0.019320905300324608,-0.020992225847159686
0.04014005716469315,-0.15363063074784214,0.06444055830201985,0.15183039634503184,-0.1067682333751129,-0.010116588927020779,-0.23351283504208295,0.04993065009375876,-0.22776462091151345,-0.030123388931358696,0.12888838127309377,0.0531217949275101,-0.005995689879395626,-0.024431076944578654,-0.027656705240560672,-0.1070694315948741,-0.22066041409701112,0.27211248566995194,0.06725439374894941,-0.26096391622499093,-0.0008867865761251515,0.16310919902049517,0.02012835773162174,-0.004031479491772985,0.1937254290198835,0.0020275657012037104,0.05027377835686059,0.29770284470947783,-0.05356077670121639,0.08072975109462464,0.1841609278087037,0.10380808557363837,-0.04368014303836845,-0.04560121078645837,0.2649445021722618,0.07046051504308776,0.08666612898434119,-0.2559568685503235,0.053837169980119164,0.08813158807299822,-0.03444864885634315,0.24463904648471227,0.3017977222610638,0.07727563046016872,0.29903779646560924,-0.2883351472065467,-0.003732921288217976,-0.05456177475845958,-0.20867379985437995,0.1765697210066022,0.03129501950035395,-0.17045484804856856,-0.0359035872222976,0.037104562903797406,0.12124892507854554,0.008793283728712525,-0.05195567037019281,0.2137590410999382,0.3100960146261828,-0.010398285939376193,-0.004223593291097912,-0.005188109488086482,0.03442916778246548,0.07961036148218549,-0.04111748889541297,0.119074817618955,0.3288767673626413,-0.06187717506603535,0.04375199795441887,0.07165910760948825,-0.14444613128427072,-0.04894555498901522,-0.10989079602349174,0.03951317556917201,0.09595938944233848,-0.15182204626541648,-0.14112409471047044,-0.011401479730316024,0.1554546067780537,0.08456715686174641,0.1869735948108623,-0.27139955583480657,0.1848834642349715,-0.08984431127751591,0.13658612577617735,0.05436487338846237,0.1534332535000946,0.0935109048917387,-0.14800918138006994,-0.28163939981555625,-0.1214439170384155,0.20859154355702286,-0.1294278016115052,0.05479152972117574,-0.11763417438467302,-0.07898951150812865,0.09516329447388003,-0.06812776836751634,0.04293052319512772,-0.09625348121370014,0.07588948111197209,0.02891786281006093,-0.12372753278368957,0.1016045721324454,0.08671260516024307,0.07197068116777623,0.20955378095381788,0.11287207655755718,0.1861462590193637,0.012949955431154592,-0.3163156507516021,0.013420749723079514,0.045135422196340994,0.31047444416438064,0.0716694204680192,0.10658274436622399,0.41848927625954074,0.04324775952782709,-0.05210321825938609,-0.09252652452215751,-0.01188969810189418,-0.14412106461973637,0.1226732669736875,0.06211018131972601,-0.09975595592538183,0.17531476132742496,0.04805205189631123,-0.02815242053148201
-0.014259245176024749,-0.20325237296767448,-0.1752263565458816,-0.08298724501212155,-0.189150906245335,-0.053165577255648605,-0.06853483453499239,-0.07772675679876713,0.11035888330264985,-0.09874117030190208,0.05755830731988577,0.02589688851743771,-0.060273991611169885,0.33938886290661696,-0.011456302509158096,0.02503599161243439,-0.18691923678517114,0.42587586161635343,0.12156313549738576,-0.2663932746240578,0.017098252539170338,0.2681214728215532,0.1549405615543304,0.018818099368739613,0.09274346773373858,0.21935144320667113,-0.022605744957616015,0.3663356005929005,0.050743378267821854,0.04137254349660597,-0.027156312386505045,-0.21706289040124122,0.19795718464548123,0.07192376220972437,-0.11298589821434159,-0.46492838146595883,0.218531992049432,-0.08023479830384274,0.2261595917369984,0.02996964529452495,0.139112596249015,0.17168895765688946,-0.043774139331936794,-0.21189861405816438,-0.15094382239502846,-0.23388284771082138,-0.030391565872062563,-0.19349956976723826,0.013490904830014583,-0.0439804362017778,0.09351195722514949,-0.2426324912709258,-0.03000576821522244,0.06438174194768508,0.08197358521197293,-0.17096716419793692,0.24612187090946006,0.1792126102159717,-0.13473484078981385,-0.03605638998866159,0.14061626899431362,-0.0973786940304266,-0.008157575259309534,0.069621980188444,0.1582412830044581,0.05030280150826985,-0.11434096746472036,-0.15606904106574768,-0.06040083622817681,-0.04918141069814537,-0.035139645210922686,-0.0639023230107045,-0.1225408922815432,0.01156895959449657,-0.014578296011308375,-0.022215591236710082,-0.0014491174382328578,0.17788982652428056,-0.13796629109799047,-0.03999811405337939,-0.06106972786890466,-0.14198689709763052,-0.15454503646498546,0.134228976949272,-0.04763514869432318,-0.20350596175484392,0.15208114153638716,0.09450137267109557,0.057024402635355534,0.20115130581195242,0.022885320442726242,-0.0026146619903453733,-0.02159278626908528,0.13893702331160493,-0.05725075512417778,0.08310196230642364,-0.011806500006561759,-0.021163641382943098,0.08056573322341541,0.08965195799354778,-0.013086069528865625,0.07072642620363742,0.00859490998760027,-0.08448826097137405,0.005931900251469753,0.08137119586987528,0.12922054408090525,0.30403261094358847,0.029436413199106403,-0.2102891116827882,0.1092278427271345,0.12657914156679245,0.0017784459050105162,0.13710791827787236,-0.09197620279734163,0.07455170229366469,-0.037686482126416794,-0.16997557280299871,0.05832703095298079,-0.0463460837520127,0.07975262545926479,-0.09113646960313182,-0.1211749658331694,-0.10331791656789721,-0.21927526711041528,0.16400590662348244,0.0929422904380438,0.15575489855233465
-0.21714584839298634,0.15652563043212334,-0.1257381831984783,0.1232751469036034,0.16733338659749006,-0.1304177093361665,0.032816452927619824,0.15186920082992383,-0.02359022554823055,-0.20452535677444353,-0.043587565372803255,-0.11382223004192958,0.17179028268900898,-0.13963633599332798,0.10012341063961794,0.1669457152991991,0.10873953932437534,-0.0885971175735084,0.00410790659212251,-0.0813361231924592,0.14816850990018915,0.03141861451484188,0.10045609458395005,0.031981348882526066,-0.09448950243248214,-0.07059639667985752,0.02929275828820562,-0.029864848843677707,0.10323396920660585,-0.023683660627435744,0.10501358097515114,-0.09163597940371834,-0.00862418914026595,-0.12154442171724851,0.2217374943127816,-0.17697237765176074,-0.004470320956073928,-0.1812578291010734,-0.00020372584299803892,0.056481791558525465,0.06585569473901179,0.08094042810491403,0.0884518849921158,0.20903774774349554,0.223478052496577,0.1249571472833993,0.0394269154892994,-0.13711007241911438,-0.326187958601719,-0.009799517169206776,-0.10993303287972957,0.05314849077000714,0.06284981014574308,0.13266123186051476,0.1604600417672095,-0.06312270245950424,-0.1370775513528854,-0.1083431061061849,0.11956899341623371,-0.0717008173188064,-0.015100564773357443,-0.16410804273180488,-0.11551272561195289,0.1733712292850527,-0.03241714830975937,-0.11902553234765313,0.016419343522816852,-0.10069367419683292,-0.2536424241310507,0.19804069243993302,0.05157909084828599,-0.19781691849658856,0.09997092061424197,-0.16648886538256857,-0.017128606753524386,-0.04661103409992671,-0.25961254652509946,0.12855686409153388,0.06146991243313411,0.16113345587582736,0.11538079943075127,0.20092918945293994,-0.2726852202078209,-0.18614425250061864,-0.3107183010115043,-0.09586233623324518,-0.11740262689969316,0.11045076726520972,-0.07705870243926383,0.02094644641062739,-0.22347539004365924,0.08550755084279842,-0.03007322355941233,-0.1289353131571782,-0.26987761242086794,0.17194549146865143,0.3397115772240517,-0.004484718278832267,-0.2553122440080185,-0.06585943616528336,0.37497917326752694,-0.05476133730984254,-0.020113873861751702,0.02001059084059957,0.010826686504477623,0.13253803249642687,0.026066525774058207,0.02724139182672381,-0.15396945610053392,0.19047897313704773,0.09335503542876646,0.08443944505521717,0.12242054916748997,0.02018654082768552,-0.2656523985163776,-0.061663598598743805,0.16103609224862997,0.22804011313243475,-0.08453963367900781,0.08133356225548498,0.4129694399419667,0.06219655268386878,0.007705046870015931,0.1851975079501652,0.0013416306407470003,-0.07461678386424411,-0.01017669962126869,-0.10291635551912884
-0.13293967909209076,0.20170785998948854,0.3717772279849475,0.20046952480647945,0.22033812237585756,-0.19046300447192085,0.20169591571832948,0.03507376983115554,-0.2113995953318262,0.045494429523655316,-0.08368256501728796,0.268039293847213,0.029011581927220597,-0.1678319384396475,-0.01994265651987846,0.1218237187862437,0.06539751498811745,0.02270136924712608,0.10652007761026462,0.3679309282575599,0.0021816893571126547,-0.06890791346806084,0.22711909026248775,-0.05128773879666311,-0.050270286527352714,0.3177113545555278,-0.11250422094456318,-0.008620577581002735,0.1170126677283018,0.17534235566774162,0.17552489925789058,-0.0605952005300554,-0.07380628928217411,-0.056055597667517554,-0.28255929170364397,0.005754829794056132,-0.11681061461705484,0.36717994096852585,-0.057560072815020485,-0.005354386403282039,0.06581836651094515,-0.13076657524720026,0.23932201362460234,0.26979273927156716,0.053996840210482476,-0.15442312700387703,-0.19416811349308397,0.07221138665634584,0.04677915171785272,-0.027185806158741534,-0.25295431372044846,-0.2148956509044466,-0.04030734302101714,0.19912733326189402,0.1967958969848699,0.15936413925564863,-0.195806911481392,-0.1236932339561809,-0.02032284131627788,-0.24845117923205348,0.10140536626796963,0.1187148414191807,-0.02858555009327804,0.18333298344679214,0.044439594938418626,-0.12651262736736787,0.25335104419868376,0.003027341963427366,0.07141606327048419,-0.06950986334987094,-0.11504928679950467,-0.1903804317759615,0.17367739523579723,-0.1068932811937262,0.22485066505508144,0.05085070453229465,0.1969221136818147,-0.015647543906577948,-0.21073579292968103,-0.09250250028007151,0.13425371024838342,0.018336006882727678,0.15697775441268857,0.21760155784427215,-0.076082799418489,-0.02751094855452661,-0.09909488610978281,0.0769928403454839,0.1771066284211444,-0.18637985940068416,0.019767470352196777,0.16316090308085107,-0.19357463152243412,-0.06133216564894983,0.029915076896034353,-0.05637733912527937,-0.10824546367609274,-0.15001232107572615,0.1270286863201452,0.12008494833584316,0.15603878836205243,-0.1317085016674028,-0.05598064143444338,0.11463413315467212,0.400952829466079,-0.10634314820726502,0.03783104223297937,0.028675919688430817,0.12558718814145414,-0.05595034355519784,0.057954526035738,-0.05109339336054617,0.16520399549074666,0.27717693110158775,0.1157736865883376,0.20246245872246482,-0.21573157015800543,-0.03491037150128731,0.11082348258610976,-0.029712722677391674,0.1414173494598829,0.22785328824361056,-0.0893810648149021,0.04393456439078347,0.08187384683977414,-0.1502873000810384,0.029115934898395573,0.2543599378472331
0.03755999184517947,-0.028643011187076243,0.1405760981261432,-0.24556393156841005,0.07552987400396012,-0.18296418349951385,0.08690764110636642,-0.1389062199024088,0.0753939050753398,0.06927748574658386,0.08537572604990193,-0.04109308372568993,0.09641921969946467,0.04110983119243031,-0.08964191269546477,0.01862213587062468,-0.06704957955926107,-0.22021397517291588,0.24665023287986054,0.09561843773540474,-0.03146701113510603,0.058138903831549404,0.17506147664667396,0.061136815019419255,0.02356919306032833,-0.025567279072249417,0.0653494245701674,0.09014606342448948,0.186231025243727,0.12520287254039805,0.12370315714551323,-0.07612140426505391,-0.0376803184037858,0.07691419225387951,0.1856070832669441,0.004295778877753389,0.04460756166766895,0.14095333429720436,0.011872182515559241,-0.17881379611107984,-0.11994484450936772,0.015433605669585253,0.08530798534197277,-0.012610193020713794,0.028671277191618362,-0.1293147117594421,0.08925370093179799,-0.0071494776855292345,0.13734644132235843,-0.06063596388258852,-0.020415226802425714,-0.1085150539449778,-0.1781478352539128,0.07960482711909507,0.264575400561351,-0.13091172836592485,-0.07852541939964157,-0.0228839052608912,0.1545270849886154,-0.07048917828633343,-0.05382976243909891,0.0049824396172800265,-0.06002949663197036,-0.014455051268960715,-0.06981117311735732,-0.09281774870685769,-0.16476000447031292,-0.10540295835589544,-0.17207913371833267,-0.023231159504392352,-0.0677262581560272,-0.002136069157787469,0.040739044287983334,0.050783563228048105,-0.22778160100940842,-0.13999798311594058,-0.11586311408668158,0.2225330919940563,-0.0059174031661965625,0.027790071351286735,0.1223185434531345,0.09044745789692657,0.016178245812207948,-0.09866584688168753,0.16749340170303548,-0.05867480953086482,-0.13296384747293385,0.0008477587694338835,-0.09665323655814992,0.04828357118649911,0.15580572087077024,0.0009529293813254783,0.32598290814461445,0.09309757717043123,0.028875792551646753,0.1457392820768867,0.045284099511315845,0.038469800799905474,0.03789145966360529,0.07404177530726694,0.2276432950744822,-0.11927850960062424,0.14515332150563498,0.2158088593973319,-0.14597234235702117,0.024102141854580574,-0.19721323798475568,-0.06418444019384943,0.33811326542249076,-0.09363119024800114,0.1378425189346307,-0.08619348108434319,-0.1324875848561495,-0.1939126529376668,0.0021190600383891004,-0.03488422157826501,-0.16241050369542837,0.12296818126167293,-0.4616137116720122,-0.011231511543968455,0.05145300946380321,-0.24014531862456537,-0.05872440886153272,0.0052802826951511535,-0.03524518168337071,0.06851066176700174,-0.052994154700648104,0.04674456704733172
-0.06310827527306001,0.01923219656883018,0.06908310303026274,0.17891701115340072,0.0771231749784375,-0.10934222827462892,-0.06201238364781289,-0.013408547185384388,0.22478351697709495,0.1901387108751948,0.0670712882459301,-0.1998773418425917,0.31967556140360015,0.05524763835755836,-0.08629917455159354,-0.017679663462881245,0.12638571888519987,-0.04652349950177613,0.0826546814181063,0.14280260828173566,-0.0016999126856599737,-0.27274177473545097,-0.09434718973639174,0.15062967217558976,0.21488265704753146,-0.0074110783061397635,0.09517197126433659,-0.11425342208689576,0.02132606017467168,0.061782526199242946,0.04238081149049414,0.019142696772279394,0.011914744934934503,-0.1044499748376589,-0.030975588249398233,-0.17003839483148392,0.16118226566865354,0.2429594815817346,0.05006469142467735,-0.12762702930445766,0.10250974447001379,-0.22877702975636804,-0.03271885210965016,-0.029348676075985302,0.16688507151619267,0.09712298093060108,0.042852108111169164,-0.014124140561543564,-0.03785914275025397,0.028434623220324494,-0.1834860415077018,0.12042307034944408,-0.06550181263520004,-0.12326721759805837,0.47338006096874896,-0.12102928270483172,0.011453494934385246,0.16158558569886583,0.08056259629556922,-0.15017684979648735,0.11480664843992787,-0.0956204291755091,0.01872434447880062,0.03466736569570937,0.08665480557215137,0.010313633098508372,-0.04562038554517814,0.08937771157896114,-0.14487850209446598,0.2096560573860208,0.17124390384638283,0.034057366550655735,0.07098766543010998,0.08835125636023732,-0.22681082619071907,-0.16571510101083586,0.018324789423867532,-0.29293334081493194,-0.2591209352999955,0.13906406880490468,-0.24110525262409466,-0.005294075858077021,0.18210985291537035,-0.029918136168164824,-0.007950636812477357,0.04865939459433363,-0.07846787735725123,0.2432281694378902,0.044087991959705475,-0.0245953107350217,0.1740715674973776,0.01592982061138945,-0.14534048909451394,0.17171580721009974,-0.02676251167183543,0.06824890142137753,-0.02551815713060948,-0.004246111267598639,-0.08796920093444249,0.18943024183756557,0.0595973447453121,0.20693924945488923,-0.04166817299602391,-0.16942572756993843,-0.031519292385688784,0.011297208625036397,0.2728576590962788,-0.09358529886106326,0.01767721360111358,0.03736695027847144,0.19563425658171432,-0.025564845052625282,0.03724397484815826,-0.07065662378801857,0.008353095972905846,-0.13093927260319269,0.060622636623693715,0.030329595727869713,0.10417792104400628,0.14876897333826117,0.017691530512585457,0.15315400080198663,-0.11518209959297819,0.005958401000097536,0.20577151100554283,-0.038858347428739066,0.23507224300884808,-0.04804246208729113
0.013439765370005534,0.08294098628081667,0.006844629390580135,0.12427371237749515,-0.08187397615804133,0.10414095514659104,-0.09037617281006234,0.1527553544979405,-0.08257439068704416,0.10483583379928244,0.08456498197768697,0.08657495429277523,-0.11966640798602009,-0.13036769580840574,0.07088495892012911,0.1492595557580791,-0.11463060317221278,-0.02792619927806556,0.03963992904967536,0.041472544725664466,0.0022397952184603715,0.07498886426358214,-0.031850594405234814,0.022948923189024403,0.10823510018498095,-0.013663751182141226,0.055239393082024815,-0.12632225143120476,0.09153877538377193,0.12689633997257255,-0.1237585562418242,0.18408116160352891,0.1375572550527555,0.010366507713929055,0.13520843015828068,0.05644173035238232,0.11213746725346889,0.01785373382298197,0.051232879615618836,0.08325999801219325,0.07428826475193316,0.11388157898953381,-0.2290055592016995,0.27782107692841956,-0.0878420186644276,0.15521283465603478,0.08871659728826489,0.17094888011757653,-0.10042240156114576,0.07331621484321034,0.0015179185747073128,-0.24496709960244148,0.10043854766895632,-0.0599433274914599,-0.15664963836251303,0.09815032385242688,0.24692813623915652,-0.10031755884999134,-0.16580110116754557,-0.06270033148995047,-0.048097410159129335,0.10781867613483102,-0.005151571658019059,0.09164867095158667,-0.05222385456853162,0.1795927548129266,-0.27748718058022614,-0.06734221430304337,-0.1288663141872281,-0.09402553119199977,-0.055110746758804424,-0.04674451963813634,-0.1643043008635933,0.11431418348451935,0.16477629962112572,0.2176120985950709,0.021779305501522444,0.023122562429266247,0.029545017256737888,0.054855130529907224,-0.17453436084445206,0.010111084959857082,-0.07811254732413203,-0.1074213897229161,-0.03478163340787786,-0.05718377702715659,-0.1740699052022939,-0.018345313422767153,0.1898928925367345,0.156008917837078,-0.07919170386456327,-0.13368799285636637,-0.11186167608010435,0.011884302783989718,-0.22189451991907552,-0.27688039654172053,0.1084206098699322,0.27787058487774635,0.17966657638789382,0.0007751043279832337,0.09253450569917526,-0.06015847641901025,-0.07679727013913992,0.24750586597241261,-0.0651845482277213,0.18011313415846514,0.04152975689254249,0.004406401735715242,0.011819044308325055,0.04336257740062456,0.030744103465843317,-0.09804246644226416,-0.0030639338981630388,0.029374929462961587,0.11862437550439416,0.07235804530192826,-0.04643757997841956,0.18097138498226895,0.30376075742741276,0.18444562266300588,-0.06306668105159402,0.3256205527635379,0.23246316846192286,-0.04336739085319224,0.03373332530605069,0.2596424705700671,0.2013565019743794,0.09204699334759052
